{"learner":{"attributes":{"scikit_learn":"{\"_estimator_type\": \"classifier\"}"},"feature_names":["xing_stroke","ming_stroke","zihao_stroke","diqu_stroke","jigou_1_stroke","jigou_2_stroke","guanzhi_1_stroke","ren_xian_stroke","ren_sheng_stroke","chushen_1_stroke","xing_pinyin","ming_pinyin","zihao_pinyin","diqu_pinyin","jigou_1_pinyin","jigou_2_pinyin","guanzhi_1_pinyin","ren_xian_pinyin","ren_sheng_pinyin","chushen_1_pinyin","ming_cnt_diff","ming_sim1","ming_sim2","same_year"],"feature_types":["float","float","float","float","float","float","float","float","float","float","float","float","float","float","float","float","float","float","float","float","float","float","float","float"],"gradient_booster":{"model":{"gbtree_model_param":{"num_parallel_tree":"1","num_trees":"180"},"iteration_indptr":[0,1,2,3,4,5,6,7,8,9,10,11,12,13,14,15,16,17,18,19,20,21,22,23,24,25,26,27,28,29,30,31,32,33,34,35,36,37,38,39,40,41,42,43,44,45,46,47,48,49,50,51,52,53,54,55,56,57,58,59,60,61,62,63,64,65,66,67,68,69,70,71,72,73,74,75,76,77,78,79,80,81,82,83,84,85,86,87,88,89,90,91,92,93,94,95,96,97,98,99,100,101,102,103,104,105,106,107,108,109,110,111,112,113,114,115,116,117,118,119,120,121,122,123,124,125,126,127,128,129,130,131,132,133,134,135,136,137,138,139,140,141,142,143,144,145,146,147,148,149,150,151,152,153,154,155,156,157,158,159,160,161,162,163,164,165,166,167,168,169,170,171,172,173,174,175,176,177,178,179,180],"tree_info":[0,0,0,0,0,0,0,0,0,0,0,0,0,0,0,0,0,0,0,0,0,0,0,0,0,0,0,0,0,0,0,0,0,0,0,0,0,0,0,0,0,0,0,0,0,0,0,0,0,0,0,0,0,0,0,0,0,0,0,0,0,0,0,0,0,0,0,0,0,0,0,0,0,0,0,0,0,0,0,0,0,0,0,0,0,0,0,0,0,0,0,0,0,0,0,0,0,0,0,0,0,0,0,0,0,0,0,0,0,0,0,0,0,0,0,0,0,0,0,0,0,0,0,0,0,0,0,0,0,0,0,0,0,0,0,0,0,0,0,0,0,0,0,0,0,0,0,0,0,0,0,0,0,0,0,0,0,0,0,0,0,0,0,0,0,0,0,0,0,0,0,0,0,0,0,0,0,0,0,0],"trees":[{"base_weights":[-3.3934146E-2,-1.1355006E0,5.5546325E-1,-1.7220443E0,-3.156898E-1,-2.6973033E-1,1.122648E0,-1.9481851E-1,4.165149E-3,7.795246E-1,-1.1059813E0,-1.2371354E0,9.245012E-1,1.3591616E-2,1.3412858E0,-5.519656E-2,1.3476884E-1,-1.8064877E-1,1.7236715E-2,-1.8721835E-1,-3.688557E-2,-1.4805903E-1,1.3977377E-1,-1.1465919E-1,6.852224E-2,5.9610523E-2,1.6695124E-1],"categories":[],"categories_nodes":[],"categories_segments":[],"categories_sizes":[],"default_left":[1,1,0,1,1,1,0,0,0,0,0,1,0,0,1,0,0,0,0,0,0,0,0,0,0,0,0],"id":0,"left_children":[1,3,5,7,9,11,13,-1,-1,15,17,19,21,23,25,-1,-1,-1,-1,-1,-1,-1,-1,-1,-1,-1,-1],"loss_changes":[1.0339783E2,2.614347E1,4.887763E1,1.2895142E1,2.1956512E1,5.0917397E1,1.494323E1,0E0,0E0,8.915337E0,1.3358494E1,1.26695175E1,2.4666004E1,9.490208E0,1.1608528E1,0E0,0E0,0E0,0E0,0E0,0E0,0E0,0E0,0E0,0E0,0E0,0E0],"parents":[2147483647,0,0,1,1,2,2,3,3,4,4,5,5,6,6,9,9,10,10,11,11,12,12,13,13,14,14],"right_children":[2,4,6,8,10,12,14,-1,-1,16,18,20,22,24,26,-1,-1,-1,-1,-1,-1,-1,-1,-1,-1,-1,-1],"split_conditions":[9.9999976E-1,9.9999976E-1,8E-1,8.813142E-1,9.874879E-1,9.025993E-1,5.714286E-1,-1.9481851E-1,4.165149E-3,6.581787E-1,7.692308E-1,9.9999994E-1,8.5714287E-1,9.750699E-1,6.363636E-1,-5.519656E-2,1.3476884E-1,-1.8064877E-1,1.7236715E-2,-1.8721835E-1,-3.688557E-2,-1.4805903E-1,1.3977377E-1,-1.1465919E-1,6.852224E-2,5.9610523E-2,1.6695124E-1],"split_indices":[3,8,11,7,7,9,10,0,0,7,14,7,14,6,17,0,0,0,0,0,0,0,0,0,0,0,0],"split_type":[0,0,0,0,0,0,0,0,0,0,0,0,0,0,0,0,0,0,0,0,0,0,0,0,0,0,0],"sum_hessian":[1.5728334E2,5.449927E1,1.0278407E2,3.1127892E1,2.337138E1,4.208268E1,6.0701393E1,2.7497557E1,3.6303358E0,9.801598E0,1.3569781E1,2.3229416E1,1.8853262E1,1.0170907E1,5.0530487E1,2.9400678E0,6.86153E0,8.499245E0,5.070537E0,1.2748867E1,1.048055E1,2.7497556E0,1.6103506E1,3.4698563E0,6.7010503E0,1.6312336E1,3.421815E1],"tree_param":{"num_deleted":"0","num_feature":"24","num_nodes":"27","size_leaf_vector":"1"}},{"base_weights":[9.354738E-2,-7.368444E-1,8.435535E-1,-1.7237585E0,2.363278E-2,-6.182276E-1,1.1676409E0,-1.7713116E-1,-7.146588E-2,-9.807374E-1,8.892849E-1,-1.5327933E-1,7.650685E-1,-4.9052987E-1,1.337423E0,-1.5029895E-1,8.054616E-3,-1.0717793E-1,1.284905E-1,-2.696701E-2,1.272006E-1,-1.2201496E-1,5.912162E-2,-1.7618444E-2,1.5322872E-1],"categories":[],"categories_nodes":[],"categories_segments":[],"categories_sizes":[],"default_left":[0,0,0,0,1,1,0,0,0,1,1,0,0,1,0,0,0,0,0,0,0,0,0,0,0],"id":1,"left_children":[1,3,5,7,9,11,13,-1,-1,15,17,-1,19,21,23,-1,-1,-1,-1,-1,-1,-1,-1,-1,-1],"loss_changes":[1.0238359E2,5.8638493E1,4.161508E1,3.6528015E-1,4.0068928E1,2.1817379E1,2.0644684E1,0E0,0E0,1.1951651E1,2.0569841E1,0E0,4.099783E0,6.503719E0,1.9345528E1,0E0,0E0,0E0,0E0,0E0,0E0,0E0,0E0,0E0,0E0],"parents":[2147483647,0,0,1,1,2,2,3,3,4,4,5,5,6,6,9,9,10,10,12,12,13,13,14,14],"right_children":[2,4,6,8,10,12,14,-1,-1,16,18,-1,20,22,24,-1,-1,-1,-1,-1,-1,-1,-1,-1,-1],"split_conditions":[8.75E-1,1E0,7.426232E-1,1.0000002E0,7.800883E-1,9.145392E-1,6.3830763E-1,-1.7713116E-1,-7.146588E-2,8.6875117E-1,7.372513E-1,-1.5327933E-1,7.8798044E-1,9.822893E-1,5E-1,-1.5029895E-1,8.054616E-3,-1.0717793E-1,1.284905E-1,-2.696701E-2,1.272006E-1,-1.2201496E-1,5.912162E-2,-1.7618444E-2,1.5322872E-1],"split_indices":[14,11,21,7,7,7,22,0,0,8,3,0,1,6,10,0,0,0,0,0,0,0,0,0,0],"split_type":[0,0,0,0,0,0,0,0,0,0,0,0,0,0,0,0,0,0,0,0,0,0,0,0,0],"sum_hessian":[1.6239467E2,7.707563E1,8.5319046E1,3.2992596E1,4.408303E1,1.5318426E1,7.000062E1,3.0786469E1,2.206127E0,2.0344936E1,2.3738094E1,9.156522E0,6.161904E0,6.326257E0,6.3674362E1,1.3356213E1,6.988723E0,3.6980371E0,2.0040058E1,2.180074E0,3.9818301E0,3.701627E0,2.6246302E0,7.2734747E0,5.6400887E1],"tree_param":{"num_deleted":"0","num_feature":"24","num_nodes":"25","size_leaf_vector":"1"}},{"base_weights":[2.658536E-3,-1.0650787E0,4.3704754E-1,-1.5860356E0,-2.314305E-1,-5.262801E-1,8.510337E-1,-1.7048669E-1,-1.11158425E-2,-1.0427727E0,1.34957E-1,-1.3692619E0,2.5325164E-1,3.488932E-1,1.3074867E0,-1.486402E-2,-1.6369079E-1,-1.641656E-1,3.1582847E-2,-1.2141061E-1,8.290646E-2,-2.0827105E-2,9.800374E-2,1.4082974E-1,2.570307E-2],"categories":[],"categories_nodes":[],"categories_segments":[],"categories_sizes":[],"default_left":[0,1,1,1,1,1,1,0,0,0,0,1,0,1,0,0,0,0,0,0,0,0,0,0,0],"id":2,"left_children":[1,3,5,7,9,11,13,-1,-1,15,-1,17,19,21,23,-1,-1,-1,-1,-1,-1,-1,-1,-1,-1],"loss_changes":[7.2946144E1,1.9385487E1,4.502993E1,4.6861725E0,2.534611E1,2.2833113E1,1.7552425E1,0E0,0E0,6.608198E0,0E0,8.136404E0,1.6741146E1,1.3839996E1,3.9579468E0,0E0,0E0,0E0,0E0,0E0,0E0,0E0,0E0,0E0,0E0],"parents":[2147483647,0,0,1,1,2,2,3,3,4,4,5,5,6,6,9,9,11,11,12,12,13,13,14,14],"right_children":[2,4,6,8,10,12,14,-1,-1,16,-1,18,20,22,24,-1,-1,-1,-1,-1,-1,-1,-1,-1,-1],"split_conditions":[8.3504313E-1,9.0909094E-1,9.960308E-1,1.0000001E0,9.9187356E-1,9.999997E-1,7.692308E-1,-1.7048669E-1,-1.11158425E-2,1.0000002E0,1.34957E-1,9.4621605E-1,9.999998E-1,9.6313244E-1,1.0000001E0,-1.486402E-2,-1.6369079E-1,-1.641656E-1,3.1582847E-2,-1.2141061E-1,8.290646E-2,-2.0827105E-2,9.800374E-2,1.4082974E-1,2.570307E-2],"split_indices":[21,17,3,6,5,8,19,0,0,8,0,7,0,22,9,0,0,0,0,0,0,0,0,0,0],"split_type":[0,0,0,0,0,0,0,0,0,0,0,0,0,0,0,0,0,0,0,0,0,0,0,0,0],"sum_hessian":[1.5527116E2,4.4481876E1,1.1078929E2,2.6819515E1,1.7662361E1,3.3218964E1,7.757033E1,2.4675468E1,2.1440473E0,1.1897305E1,5.7650566E0,1.5596484E1,1.7622478E1,3.777676E1,3.9793568E1,5.248641E0,6.6486635E0,1.3448342E1,2.148142E0,4.654021E0,1.2968458E1,2.0420164E1,1.7356596E1,3.599822E1,3.7953494E0],"tree_param":{"num_deleted":"0","num_feature":"24","num_nodes":"25","size_leaf_vector":"1"}},{"base_weights":[2.247637E-2,-6.597067E-1,6.689263E-1,-1.535728E-1,-9.730127E-3,-8.8390136E-1,9.1181314E-1,-1.2227618E0,3.8767496E-1,-1.5291373E-1,1.1848221E-1,-7.8964615E-1,1.0624701E0,-1.60762E-1,1.6684955E-2,-1.4927346E-1,7.2482556E-2,3.1375255E-2,-1.4213996E-1,2.1500023E-2,1.3589413E-1],"categories":[],"categories_nodes":[],"categories_segments":[],"categories_sizes":[],"default_left":[0,0,0,0,0,1,0,0,0,0,0,0,0,0,0,0,0,0,0,0,0],"id":3,"left_children":[1,3,5,-1,7,9,11,13,15,-1,-1,17,19,-1,-1,-1,-1,-1,-1,-1,-1],"loss_changes":[6.93172E1,4.3540413E1,3.1238293E1,0E0,2.2127934E1,1.7057398E1,1.8850792E1,6.325058E0,2.301374E1,0E0,0E0,4.830107E0,1.6033318E1,0E0,0E0,0E0,0E0,0E0,0E0,0E0,0E0],"parents":[2147483647,0,0,1,1,2,2,4,4,5,5,6,6,7,7,8,8,11,11,12,12],"right_children":[2,4,6,-1,8,10,12,14,16,-1,-1,18,20,-1,-1,-1,-1,-1,-1,-1,-1],"split_conditions":[9.838295E-1,1E0,6.357235E-1,-1.535728E-1,8.333333E-1,9.999999E-1,7.9475176E-1,8.8960546E-1,6.875E-1,-1.5291373E-1,1.1848221E-1,7.220781E-1,8.199329E-1,-1.60762E-1,1.6684955E-2,-1.4927346E-1,7.2482556E-2,3.1375255E-2,-1.4213996E-1,2.1500023E-2,1.3589413E-1],"split_indices":[4,11,8,0,10,22,6,4,13,0,0,6,22,0,0,0,0,0,0,0,0],"split_type":[0,0,0,0,0,0,0,0,0,0,0,0,0,0,0,0,0,0,0,0,0],"sum_hessian":[1.5518216E2,7.5494316E1,7.968784E1,3.1575266E1,4.3919052E1,1.0421542E1,6.9266304E1,1.0325335E1,3.3593716E1,8.14267E0,2.2788723E0,5.289331E0,6.397697E1,7.9630523E0,2.3622828E0,4.5863733E0,2.9007343E1,2.1090677E0,3.1802633E0,1.7027807E1,4.6949165E1],"tree_param":{"num_deleted":"0","num_feature":"24","num_nodes":"21","size_leaf_vector":"1"}},{"base_weights":[-9.94574E-3,-6.774112E-1,5.7570404E-1,-1.4107763E0,-1.7855187E-1,-8.345646E-1,8.5050833E-1,-6.9633484E-1,-1.520229E-1,-9.101557E-1,7.12692E-1,-1.454141E-1,4.8279378E-1,-1.1237786E-1,9.6495426E-1,9.722934E-3,-1.1564764E-1,-1.3841736E-1,-1.9549874E-3,-8.077915E-2,1.11933045E-1,1.1386412E-1,-3.522411E-2,1.2112448E-2,1.2021583E-1],"categories":[],"categories_nodes":[],"categories_segments":[],"categories_sizes":[],"default_left":[0,0,0,0,1,1,0,0,0,0,0,0,0,0,0,0,0,0,0,0,0,0,0,0,0],"id":4,"left_children":[1,3,5,7,9,11,13,15,-1,17,19,-1,21,-1,23,-1,-1,-1,-1,-1,-1,-1,-1,-1,-1],"loss_changes":[6.242999E1,2.705246E1,3.3681137E1,1.29282E0,3.0357718E1,1.2438405E1,1.7284405E1,2.2449028E0,0E0,1.0722017E1,1.3950971E1,0E0,3.3311868E0,0E0,1.3526741E1,0E0,0E0,0E0,0E0,0E0,0E0,0E0,0E0,0E0,0E0],"parents":[2147483647,0,0,1,1,2,2,3,3,4,4,5,5,6,6,7,7,9,9,10,10,12,12,14,14],"right_children":[2,4,6,8,10,12,14,16,-1,18,20,-1,22,-1,24,-1,-1,-1,-1,-1,-1,-1,-1,-1,-1],"split_conditions":[9.230769E-1,1E0,7.426232E-1,6.676639E-1,8.400387E-1,9.999999E-1,7.716553E-1,6.7161494E-1,-1.520229E-1,9.960308E-1,6.25E-1,-1.454141E-1,8.3167714E-1,-1.1237786E-1,7.444428E-1,9.722934E-3,-1.1564764E-1,-1.3841736E-1,-1.9549874E-3,-8.077915E-2,1.11933045E-1,1.1386412E-1,-3.522411E-2,1.2112448E-2,1.2021583E-1],"split_indices":[14,11,21,4,7,22,6,21,0,3,10,0,1,0,22,0,0,0,0,0,0,0,0,0,0],"split_type":[0,0,0,0,0,0,0,0,0,0,0,0,0,0,0,0,0,0,0,0,0,0,0,0,0],"sum_hessian":[1.5771027E2,7.363347E1,8.40768E1,2.9070051E1,4.456342E1,1.3379188E1,7.069762E1,4.839924E0,2.4230127E1,2.4461916E1,2.0101503E1,9.028906E0,4.350281E0,3.3904388E0,6.7307175E1,2.0658455E0,2.7740784E0,1.5603097E1,8.858818E0,4.033419E0,1.6068085E1,2.2329264E0,2.1173546E0,1.5100237E1,5.220694E1],"tree_param":{"num_deleted":"0","num_feature":"24","num_nodes":"25","size_leaf_vector":"1"}},{"base_weights":[-3.4238834E-2,-8.526473E-1,3.9072627E-1,-1.0245143E0,1.3212135E-1,5.999096E-1,-1.331815E0,-1.1399957E0,4.7722336E-2,-9.1225123E-1,7.5558484E-1,-1.5763846E-1,-1.986165E-2,-1.3928834E-1,-7.5871274E-2,8.176769E-3,-1.261697E-1,3.7807208E-3,9.8094635E-2],"categories":[],"categories_nodes":[],"categories_segments":[],"categories_sizes":[],"default_left":[1,1,0,1,0,0,1,1,0,0,0,0,0,0,0,0,0,0,0],"id":5,"left_children":[1,3,5,7,-1,9,11,13,-1,15,17,-1,-1,-1,-1,-1,-1,-1,-1],"loss_changes":[5.2454483E1,2.0607746E1,3.658932E1,8.9241905E0,0E0,2.1701832E1,2.7539577E0,3.298252E0,0E0,3.1545506E0,1.3142475E1,0E0,0E0,0E0,0E0,0E0,0E0,0E0,0E0],"parents":[2147483647,0,0,1,1,2,2,3,3,5,5,6,6,7,7,9,9,10,10],"right_children":[2,4,6,8,-1,10,12,14,-1,16,18,-1,-1,-1,-1,-1,-1,-1,-1],"split_conditions":[9.960308E-1,9.999995E-1,1E0,1.0000001E0,1.3212135E-1,6.363636E-1,9.9999994E-1,9.999999E-1,4.7722336E-2,6.4212203E-1,8.6614895E-1,-1.5763846E-1,-1.986165E-2,-1.3928834E-1,-7.5871274E-2,8.176769E-3,-1.261697E-1,3.7807208E-3,9.8094635E-2],"split_indices":[3,2,23,9,0,19,22,22,0,9,22,0,0,0,0,0,0,0,0],"split_type":[0,0,0,0,0,0,0,0,0,0,0,0,0,0,0,0,0,0,0],"sum_hessian":[1.4886218E2,5.0534733E1,9.832745E1,4.7322124E1,3.2126086E0,8.826089E1,1.0066565E1,4.4166656E1,3.1554687E0,7.784613E0,8.047628E1,7.957965E0,2.1085994E0,2.4959208E1,1.9207449E1,2.2240832E0,5.5605297E0,1.9508709E1,6.0967567E1],"tree_param":{"num_deleted":"0","num_feature":"24","num_nodes":"19","size_leaf_vector":"1"}},{"base_weights":[-2.4954922E-2,-7.7822447E-1,5.020084E-1,-1.2882334E0,-2.8614616E-1,-6.2410206E-1,7.657228E-1,-5.1474728E-2,-1.3714579E-1,9.2767346E-1,-6.1467934E-1,6.339494E-1,-1.4114355E-1,-7.991145E-1,9.204342E-1,8.028539E-3,1.28819E-1,-8.2879275E-2,1.1241591E-1,-6.3931406E-2,1.2987517E-1,-1.3682117E-1,7.7345744E-3,3.2684338E-4,1.1531891E-1],"categories":[],"categories_nodes":[],"categories_segments":[],"categories_sizes":[],"default_left":[1,0,0,1,0,0,0,0,0,0,1,1,0,0,0,0,0,0,0,0,0,0,0,0,0],"id":6,"left_children":[1,3,5,7,9,11,13,-1,-1,15,17,19,-1,21,23,-1,-1,-1,-1,-1,-1,-1,-1,-1,-1],"loss_changes":[5.6719414E1,1.4388725E1,2.545407E1,1.1344452E0,1.3017312E1,1.7247227E1,1.7341946E1,0E0,0E0,2.049457E0,1.0301141E1,6.7936516E0,0E0,3.4511151E0,1.3421005E1,0E0,0E0,0E0,0E0,0E0,0E0,0E0,0E0,0E0,0E0],"parents":[2147483647,0,0,1,1,2,2,3,3,4,4,5,5,6,6,9,9,10,10,11,11,13,13,14,14],"right_children":[2,4,6,8,10,12,14,-1,-1,16,18,20,-1,22,24,-1,-1,-1,-1,-1,-1,-1,-1,-1,-1],"split_conditions":[8.80201E-1,8.813142E-1,8.6952055E-1,5.805731E-1,9.805924E-1,9.537425E-1,6.169098E-1,-5.1474728E-2,-1.3714579E-1,9.9999994E-1,1.0000001E0,1E0,-1.4114355E-1,8.6822516E-1,7.1428573E-1,8.028539E-3,1.28819E-1,-8.2879275E-2,1.1241591E-1,-6.3931406E-2,1.2987517E-1,-1.3682117E-1,7.7345744E-3,3.2684338E-4,1.1531891E-1],"split_indices":[6,7,5,6,7,6,22,0,0,1,5,8,0,1,10,0,0,0,0,0,0,0,0,0,0],"split_type":[0,0,0,0,0,0,0,0,0,0,0,0,0,0,0,0,0,0,0,0,0,0,0,0,0],"sum_hessian":[1.4090552E2,5.7802586E1,8.310293E1,2.7589659E1,3.0212929E1,1.5509188E1,6.759374E1,3.3781595E0,2.4211498E1,6.04713E0,2.4165798E1,6.0449677E0,9.46422E0,5.706797E0,6.188694E1,2.1697843E0,3.8773458E0,2.1982346E1,2.1834521E0,2.0867178E0,3.9582498E0,3.1199245E0,2.5868726E0,1.2731759E1,4.915518E1],"tree_param":{"num_deleted":"0","num_feature":"24","num_nodes":"25","size_leaf_vector":"1"}},{"base_weights":[-9.784778E-3,-6.77599E-1,4.2052722E-1,-1.2037505E0,-5.2419063E-2,-1.07001804E-1,9.343611E-1,-1.3547249E-1,-1.9772603E-1,-1.413552E-1,3.126626E-1,-1.3435285E-1,2.2957839E-1,-6.8085596E-2,1.1564403E0,3.1553276E-2,-6.316533E-2,8.290251E-2,-7.013201E-2,-8.7953895E-2,6.333547E-2,-1.16871E-1,5.4582577E-2,1.0335545E-2,1.3019906E-1],"categories":[],"categories_nodes":[],"categories_segments":[],"categories_sizes":[],"default_left":[1,1,1,1,1,0,0,0,1,0,1,0,0,0,0,0,0,0,0,0,0,0,0,0,0],"id":7,"left_children":[1,3,5,7,9,11,13,-1,15,-1,17,-1,19,21,23,-1,-1,-1,-1,-1,-1,-1,-1,-1,-1],"loss_changes":[4.1221455E1,1.8424807E1,2.374973E1,4.3606377E0,1.3725108E1,1.8599073E1,9.941055E0,0E0,1.345715E0,0E0,1.2045895E1,0E0,1.6409885E1,6.704714E0,5.432747E0,0E0,0E0,0E0,0E0,0E0,0E0,0E0,0E0,0E0,0E0],"parents":[2147483647,0,0,1,1,2,2,3,3,4,4,5,5,6,6,8,8,10,10,12,12,13,13,14,14],"right_children":[2,4,6,8,10,12,14,-1,16,-1,18,-1,20,22,24,-1,-1,-1,-1,-1,-1,-1,-1,-1,-1],"split_conditions":[9.999998E-1,7.5E-1,9.025993E-1,9.9999976E-1,7.717856E-1,7.570666E-1,8.557767E-1,-1.3547249E-1,7.6339436E-1,-1.413552E-1,1.0000002E0,-1.3435285E-1,8.199329E-1,9.0902364E-1,6.1538464E-1,3.1553276E-2,-6.316533E-2,8.290251E-2,-7.013201E-2,-8.7953895E-2,6.333547E-2,-1.16871E-1,5.4582577E-2,1.0335545E-2,1.3019906E-1],"split_indices":[3,17,9,8,21,21,5,0,9,0,8,0,22,21,16,0,0,0,0,0,0,0,0,0,0],"split_type":[0,0,0,0,0,0,0,0,0,0,0,0,0,0,0,0,0,0,0,0,0,0,0,0,0],"sum_hessian":[1.4145302E2,5.5204617E1,8.624839E1,2.947392E1,2.5730698E1,4.294774E1,4.3300655E1,2.5326546E1,4.147375E0,4.8344717E0,2.0896225E1,8.548948E0,3.439879E1,7.9787326E0,3.5321922E1,2.025002E0,2.1223729E0,1.3966372E1,6.9298544E0,8.866223E0,2.5532566E1,2.5333016E0,5.4454308E0,4.496803E0,3.082512E1],"tree_param":{"num_deleted":"0","num_feature":"24","num_nodes":"25","size_leaf_vector":"1"}},{"base_weights":[3.137373E-3,-5.367547E-1,4.9761918E-1,-1.2297926E0,-1.0454887E-1,-7.457772E-1,7.49452E-1,-3.9889287E-2,-1.2842758E-1,-6.9100374E-1,5.2353716E-1,-1.1374154E-1,1.7293438E-2,2.6421228E-1,1.0591486E0,-1.0098672E-1,4.7450732E-2,-8.512447E-2,9.595557E-2,-5.4089874E-2,7.706137E-2,1.1494555E-1,-3.7494186E-2],"categories":[],"categories_nodes":[],"categories_segments":[],"categories_sizes":[],"default_left":[0,0,0,1,1,1,1,0,0,1,0,0,0,0,1,0,0,0,0,0,0,0,0],"id":8,"left_children":[1,3,5,7,9,11,13,-1,-1,15,17,-1,-1,19,21,-1,-1,-1,-1,-1,-1,-1,-1],"loss_changes":[3.835372E1,2.0443985E1,2.4038074E1,6.7775345E-1,1.634567E1,4.9209466E0,9.165447E0,0E0,0E0,8.9792185E0,1.3717876E1,0E0,0E0,1.0943417E1,5.356655E0,0E0,0E0,0E0,0E0,0E0,0E0,0E0,0E0],"parents":[2147483647,0,0,1,1,2,2,3,3,4,4,5,5,6,6,9,9,10,10,13,13,14,14],"right_children":[2,4,6,8,10,12,14,-1,-1,16,18,-1,-1,20,22,-1,-1,-1,-1,-1,-1,-1,-1],"split_conditions":[8.75E-1,1E0,7.426232E-1,4.5433864E-1,8.6875117E-1,9.145392E-1,9E-1,-3.9889287E-2,-1.2842758E-1,9.1243494E-1,6.25E-1,-1.1374154E-1,1.7293438E-2,9.9999994E-1,1.0000004E0,-1.0098672E-1,4.7450732E-2,-8.512447E-2,9.595557E-2,-5.4089874E-2,7.706137E-2,1.1494555E-1,-3.7494186E-2],"split_indices":[14,11,21,7,8,7,16,0,0,7,10,0,0,22,1,0,0,0,0,0,0,0,0],"split_type":[0,0,0,0,0,0,0,0,0,0,0,0,0,0,0,0,0,0,0,0,0,0,0],"sum_hessian":[1.4166425E2,6.768163E1,7.3982605E1,2.528769E1,4.2393948E1,1.2130115E1,6.1852493E1,2.068178E0,2.3219511E1,2.1871744E1,2.0522202E1,8.337753E0,3.792361E0,2.4818865E1,3.703363E1,1.7278257E1,4.5934873E0,4.712189E0,1.5810013E1,9.556761E0,1.5262104E1,3.5026436E1,2.0071921E0],"tree_param":{"num_deleted":"0","num_feature":"24","num_nodes":"23","size_leaf_vector":"1"}},{"base_weights":[-2.3101717E-2,-6.316808E-1,4.2307842E-1,-1.0271684E0,2.0455913E-1,3.1471062E-2,1.1471635E0,-1.1945282E0,1.5588798E-1,-1.20155655E-1,8.090997E-1,-1.0463657E0,3.1243017E-1,-1.1199006E-2,1.2574544E0,-1.3223341E-1,5.13991E-2,8.044599E-2,-4.9526222E-2,1.1661794E-3,1.1329742E-1,8.1478385E-3,-1.4386836E-1,-1.5864903E-2,1.0832168E-1,1.9775575E-2,1.395409E-1],"categories":[],"categories_nodes":[],"categories_segments":[],"categories_sizes":[],"default_left":[1,1,1,1,0,0,1,0,0,0,0,0,0,0,0,0,0,0,0,0,0,0,0,0,0,0,0],"id":9,"left_children":[1,3,5,7,9,11,13,15,17,-1,19,21,23,-1,25,-1,-1,-1,-1,-1,-1,-1,-1,-1,-1,-1,-1],"loss_changes":[3.6518063E1,1.9019945E1,2.1975828E1,7.86438E0,1.7204426E1,1.589493E1,3.920826E0,8.123264E0,2.8016484E0,0E0,3.5900936E0,4.92237E0,1.5258358E1,0E0,3.394703E0,0E0,0E0,0E0,0E0,0E0,0E0,0E0,0E0,0E0,0E0,0E0,0E0],"parents":[2147483647,0,0,1,1,2,2,3,3,4,4,5,5,6,6,7,7,8,8,10,10,11,11,12,12,14,14],"right_children":[2,4,6,8,10,12,14,16,18,-1,20,22,24,-1,26,-1,-1,-1,-1,-1,-1,-1,-1,-1,-1,-1,-1],"split_conditions":[7.800883E-1,9.927646E-1,9.9187356E-1,1E0,9.960308E-1,9.576248E-1,7.8798044E-1,1.0000004E0,9.9999994E-1,-1.20155655E-1,9.0517724E-1,9.9999994E-1,9.8464394E-1,-1.1199006E-2,9.8701805E-1,-1.3223341E-1,5.13991E-2,8.044599E-2,-4.9526222E-2,1.1661794E-3,1.1329742E-1,8.1478385E-3,-1.4386836E-1,-1.5864903E-2,1.0832168E-1,1.9775575E-2,1.395409E-1],"split_indices":[7,9,5,8,3,0,1,1,0,0,1,7,1,0,6,0,0,0,0,0,0,0,0,0,0,0,0],"split_type":[0,0,0,0,0,0,0,0,0,0,0,0,0,0,0,0,0,0,0,0,0,0,0,0,0,0,0],"sum_hessian":[1.3250284E2,5.587496E1,7.662787E1,3.7779415E1,1.8095549E1,5.0408745E1,2.6219126E1,3.3088844E1,4.6905723E0,5.1438313E0,1.2951717E1,9.859751E0,4.0548992E1,2.1103668E0,2.4108759E1,3.0996206E1,2.092637E0,2.2319827E0,2.4585893E0,4.040147E0,8.911571E0,2.7490454E0,7.110706E0,2.5660387E1,1.4888605E1,3.0573316E0,2.1051428E1],"tree_param":{"num_deleted":"0","num_feature":"24","num_nodes":"27","size_leaf_vector":"1"}},{"base_weights":[-1.3217434E-2,-8.741051E-1,2.0786862E-1,-1.2394623E0,-2.673172E-1,-2.4296646E-1,5.964782E-1,-1.4397547E-1,-4.7120165E-2,-7.4938923E-1,9.91876E-2,-1.038357E0,2.2666383E-1,2.1703324E-1,1.1924486E0,-1.1971084E-1,-6.449522E-3,-2.0465523E-2,-1.1901324E-1,-1.2587592E-1,4.7887485E-2,-8.570217E-2,7.759004E-2,3.0237505E-2,1.2880014E-1],"categories":[],"categories_nodes":[],"categories_segments":[],"categories_sizes":[],"default_left":[0,1,0,1,1,0,0,0,0,0,0,0,0,1,1,0,0,0,0,0,0,0,0,0,0],"id":10,"left_children":[1,3,5,7,9,11,13,-1,-1,15,-1,17,19,21,23,-1,-1,-1,-1,-1,-1,-1,-1,-1,-1],"loss_changes":[2.5207594E1,5.6676216E0,1.8615635E1,1.878233E0,7.6904597E0,1.8731773E1,1.2610819E1,0E0,0E0,2.635275E0,0E0,2.1051693E0,1.2574313E1,2.2270704E1,1.4744892E0,0E0,0E0,0E0,0E0,0E0,0E0,0E0,0E0,0E0,0E0],"parents":[2147483647,0,0,1,1,2,2,3,3,4,4,5,5,6,6,9,9,11,11,12,12,13,13,14,14],"right_children":[2,4,6,8,10,12,14,-1,-1,16,-1,18,20,22,24,-1,-1,-1,-1,-1,-1,-1,-1,-1,-1],"split_conditions":[9.576248E-1,7E-1,8.75E-1,1.0000001E0,9.9999994E-1,1E0,9.5984995E-1,-1.4397547E-1,-4.7120165E-2,9.9999994E-1,9.91876E-2,6.676639E-1,6.875E-1,8.7303525E-1,7.959697E-1,-1.1971084E-1,-6.449522E-3,-2.0465523E-2,-1.1901324E-1,-1.2587592E-1,4.7887485E-2,-8.570217E-2,7.759004E-2,3.0237505E-2,1.2880014E-1],"split_indices":[0,19,14,5,5,11,1,0,0,3,0,4,13,7,6,0,0,0,0,0,0,0,0,0,0],"split_type":[0,0,0,0,0,0,0,0,0,0,0,0,0,0,0,0,0,0,0,0,0,0,0,0,0],"sum_hessian":[1.304867E2,2.6059568E1,1.0442712E2,1.5614907E1,1.044466E1,4.8516624E1,5.5910492E1,1.1692521E1,3.922387E0,7.8458176E0,2.598843E0,1.7561886E1,3.095474E1,3.4994324E1,2.091617E1,4.2921443E0,3.553673E0,3.0664256E0,1.449546E1,3.9137006E0,2.704104E1,1.1794208E1,2.3200115E1,2.4314744E0,1.8484695E1],"tree_param":{"num_deleted":"0","num_feature":"24","num_nodes":"25","size_leaf_vector":"1"}},{"base_weights":[4.87283E-2,-5.110684E-1,3.760528E-1,-1.2167645E0,-7.9360366E-2,-8.391076E-1,5.103018E-1,-1.3854781E-1,-1.6526008E-2,-5.897676E-1,6.542108E-1,-1.2062039E-1,2.2688497E-2,-3.6416382E-1,6.988926E-1,-1.2327564E-1,-4.022716E-3,-7.6191165E-2,1.1104449E-1,3.542996E-2,-1.0763861E-1,2.3126606E-2,1.1379149E-1],"categories":[],"categories_nodes":[],"categories_segments":[],"categories_sizes":[],"default_left":[1,0,1,0,1,1,0,0,0,1,0,0,0,0,0,0,0,0,0,0,0,0,0],"id":11,"left_children":[1,3,5,7,9,11,13,-1,-1,15,17,-1,-1,19,21,-1,-1,-1,-1,-1,-1,-1,-1],"loss_changes":[2.3625015E1,1.4407957E1,1.368679E1,2.9644241E0,1.1846436E1,3.5857835E0,1.2427013E1,0E0,0E0,6.5141854E0,9.2664795E0,0E0,0E0,7.4181833E0,1.2272076E1,0E0,0E0,0E0,0E0,0E0,0E0,0E0,0E0],"parents":[2147483647,0,0,1,1,2,2,3,3,4,4,5,5,6,6,9,9,10,10,13,13,14,14],"right_children":[2,4,6,8,10,12,14,-1,-1,16,18,-1,-1,20,22,-1,-1,-1,-1,-1,-1,-1,-1],"split_conditions":[6.363636E-1,9.3944114E-1,6.923077E-1,1.0000001E0,7.817672E-1,8.541558E-1,7.1428573E-1,-1.3854781E-1,-1.6526008E-2,5.3846157E-1,7.9714614E-1,-1.2062039E-1,2.2688497E-2,1.0000001E0,1E0,-1.2327564E-1,-4.022716E-3,-7.6191165E-2,1.1104449E-1,3.542996E-2,-1.0763861E-1,2.3126606E-2,1.1379149E-1],"split_indices":[17,1,13,3,9,6,10,0,0,18,4,0,0,7,11,0,0,0,0,0,0,0,0],"split_type":[0,0,0,0,0,0,0,0,0,0,0,0,0,0,0,0,0,0,0,0,0,0,0],"sum_hessian":[1.2688389E2,4.660971E1,8.027418E1,1.7000757E1,2.9608953E1,7.4639125E0,7.2810265E1,1.4376446E1,2.6243112E0,1.7575932E1,1.2033022E1,5.454138E0,2.009775E0,1.2751694E1,6.0058575E1,7.5264134E0,1.0049518E1,2.7688096E0,9.264213E0,6.598209E0,6.1534843E0,2.9821186E1,3.0237389E1],"tree_param":{"num_deleted":"0","num_feature":"24","num_nodes":"23","size_leaf_vector":"1"}},{"base_weights":[-7.1041316E-2,-6.135373E-1,3.5503203E-1,-1.1478312E0,-1.22919634E-1,-8.008407E-1,5.405075E-1,-1.3312474E-1,-3.4681818E-1,-1.3228536E-1,1.6734454E-1,-1.2824969E-1,1.9365964E-2,-1.2959087E-1,6.5350693E-1,-1.0110774E-1,6.142381E-2,-1.13450326E-1,4.839221E-2,-1.6317729E-2,9.499957E-2],"categories":[],"categories_nodes":[],"categories_segments":[],"categories_sizes":[],"default_left":[1,1,0,1,0,1,0,0,0,0,0,0,0,0,1,0,0,0,0,0,0],"id":12,"left_children":[1,3,5,7,9,11,13,-1,15,-1,17,-1,-1,-1,19,-1,-1,-1,-1,-1,-1],"loss_changes":[2.9060308E1,1.4343937E1,1.555219E1,3.4069214E0,1.0644666E1,5.1125298E0,1.3581852E1,0E0,4.6163177E0,0E0,1.0846206E1,0E0,0E0,0E0,1.4314415E1,0E0,0E0,0E0,0E0,0E0,0E0],"parents":[2147483647,0,0,1,1,2,2,3,3,4,4,5,5,6,6,8,8,10,10,14,14],"right_children":[2,4,6,8,10,12,14,-1,16,-1,18,-1,-1,-1,20,-1,-1,-1,-1,-1,-1],"split_conditions":[8.80201E-1,9.6313244E-1,6.619728E-1,9.9999976E-1,9.693672E-1,9.9187356E-1,5.6859016E-1,-1.3312474E-1,9.874879E-1,-1.3228536E-1,7.2618234E-1,-1.2824969E-1,1.9365964E-2,-1.2959087E-1,5.3333336E-1,-1.0110774E-1,6.142381E-2,-1.13450326E-1,4.839221E-2,-1.6317729E-2,9.499957E-2],"split_indices":[6,22,21,5,0,5,22,0,7,0,3,0,0,0,17,0,0,0,0,0,0],"split_type":[0,0,0,0,0,0,0,0,0,0,0,0,0,0,0,0,0,0,0,0,0],"sum_hessian":[1.2378195E2,5.4258095E1,6.952386E1,2.5331713E1,2.8926382E1,9.154672E0,6.0369183E1,2.0073357E1,5.258357E0,4.941426E0,2.3984957E1,5.9724884E0,3.1821837E0,2.892547E0,5.747664E1,3.0785136E0,2.1798434E0,4.1862745E0,1.9798681E1,1.5428406E1,4.204823E1],"tree_param":{"num_deleted":"0","num_feature":"24","num_nodes":"21","size_leaf_vector":"1"}},{"base_weights":[-2.9379025E-2,-5.2200234E-1,3.8986444E-1,-1.15767494E-1,-1.4474681E-1,-1.7973058E-1,9.1008985E-1,-1.2401946E-1,1.3542645E-1,-8.638821E-1,3.7246013E-1,-4.7308717E-2,1.0369604E0,-4.521167E-2,8.172941E-2,-1.4157768E-1,3.596708E-2,-1.1153382E-1,8.103349E-2,-1.7883848E-2,1.1376144E-1],"categories":[],"categories_nodes":[],"categories_segments":[],"categories_sizes":[],"default_left":[0,0,1,0,0,0,1,0,1,1,0,0,0,0,0,0,0,0,0,0,0],"id":13,"left_children":[1,3,5,-1,7,9,11,-1,13,15,17,-1,19,-1,-1,-1,-1,-1,-1,-1,-1],"loss_changes":[2.4363447E1,1.2832845E1,1.9059664E1,0E0,1.0960191E1,1.2137094E1,6.3682747E0,0E0,1.1948966E1,1.0145299E1,1.263389E1,0E0,3.9962616E0,0E0,0E0,0E0,0E0,0E0,0E0,0E0,0E0],"parents":[2147483647,0,0,1,1,2,2,4,4,5,5,6,6,8,8,9,9,10,10,12,12],"right_children":[2,4,6,-1,8,10,12,-1,14,16,18,-1,20,-1,-1,-1,-1,-1,-1,-1,-1],"split_conditions":[8.666667E-1,1E0,9.7732097E-1,-1.15767494E-1,8.333333E-1,9.1334456E-1,4.441486E-1,-1.2401946E-1,8.6875117E-1,1E0,9.693672E-1,-4.7308717E-2,9.9999976E-1,-4.521167E-2,8.172941E-2,-1.4157768E-1,3.596708E-2,-1.1153382E-1,8.103349E-2,-1.7883848E-2,1.1376144E-1],"split_indices":[14,11,6,0,10,1,21,0,8,7,0,0,5,0,0,0,0,0,0,0,0],"split_type":[0,0,0,0,0,0,0,0,0,0,0,0,0,0,0,0,0,0,0,0,0],"sum_hessian":[1.15980774E2,5.3211086E1,6.2769688E1,1.9047508E1,3.4163578E1,3.027552E1,3.2494167E1,6.2602267E0,2.790335E1,1.3269926E1,1.7005594E1,2.5008059E0,2.999336E1,1.5169355E1,1.2733995E1,9.036726E0,4.2332E0,3.5150607E0,1.3490535E1,2.2338552E0,2.7759506E1],"tree_param":{"num_deleted":"0","num_feature":"24","num_nodes":"21","size_leaf_vector":"1"}},{"base_weights":[6.6503875E-2,-4.6094397E-1,4.5768052E-1,-1.0011088E0,1.4867544E-2,-1.0075804E-1,5.767082E-1,-1.0971512E0,-3.2225423E-2,2.563415E-1,-1.185074E-1,8.707442E-1,-5.46929E-2,-1.248922E-1,-5.3000804E-2,-1.1065884E-1,4.967045E-2,-6.716777E-2,1.0111838E-1,-7.0898615E-2,3.9299406E-2],"categories":[],"categories_nodes":[],"categories_segments":[],"categories_sizes":[],"default_left":[1,1,0,0,0,0,0,1,0,0,0,0,0,0,0,0,0,0,0,0,0],"id":14,"left_children":[1,3,5,7,9,-1,11,13,-1,15,-1,17,19,-1,-1,-1,-1,-1,-1,-1,-1],"loss_changes":[2.4840729E1,1.320777E1,1.2622564E1,1.2147579E0,8.497025E0,0E0,1.2020756E1,1.1161404E0,0E0,8.53046E0,0E0,1.0223309E1,6.556322E0,0E0,0E0,0E0,0E0,0E0,0E0,0E0,0E0],"parents":[2147483647,0,0,1,1,2,2,3,3,4,4,6,6,7,7,9,9,11,11,12,12],"right_children":[2,4,6,8,10,-1,12,14,-1,16,-1,18,20,-1,-1,-1,-1,-1,-1,-1,-1],"split_conditions":[8.80201E-1,9.6313244E-1,7.123901E-1,1.0000002E0,1E0,-1.0075804E-1,1.0000001E0,9.9999976E-1,-3.2225423E-2,9.693672E-1,-1.185074E-1,6.135985E-1,9.999999E-1,-1.248922E-1,-5.3000804E-2,-1.1065884E-1,4.967045E-2,-6.716777E-2,1.0111838E-1,-7.0898615E-2,3.9299406E-2],"split_indices":[6,22,9,0,23,0,7,5,0,0,0,8,5,0,0,0,0,0,0,0,0],"split_type":[0,0,0,0,0,0,0,0,0,0,0,0,0,0,0,0,0,0,0,0,0],"sum_hessian":[1.1837346E2,5.0330868E1,6.8042595E1,2.3054384E1,2.7276482E1,4.5511904E0,6.3491405E1,1.9657164E1,3.3972204E0,2.3361609E1,3.9148736E0,4.3059868E1,2.0431538E1,1.4558972E1,5.0981917E0,2.962055E0,2.0399553E1,3.2777932E0,3.9782074E1,8.0633335E0,1.2368204E1],"tree_param":{"num_deleted":"0","num_feature":"24","num_nodes":"21","size_leaf_vector":"1"}},{"base_weights":[-6.747358E-2,-8.3228874E-1,1.4738797E-1,-1.2349682E-1,-3.109164E-1,-2.5554252E-1,4.853474E-1,-7.848288E-1,4.9364008E-2,-9.907585E-1,1.5312819E-1,8.790761E-2,1.0947868E0,-1.0937681E-1,-2.2274077E-2,-1.1964186E-1,-3.9256904E-2,-1.1117574E-1,4.139217E-2,-1.22820914E-1,3.2553457E-2,3.145051E-2,1.23308435E-1],"categories":[],"categories_nodes":[],"categories_segments":[],"categories_sizes":[],"default_left":[0,0,1,0,1,1,0,0,0,1,0,1,0,0,0,0,0,0,0,0,0,0,0],"id":15,"left_children":[1,3,5,-1,7,9,11,13,-1,15,17,19,21,-1,-1,-1,-1,-1,-1,-1,-1,-1,-1],"loss_changes":[1.9097033E1,4.9642315E0,1.2514685E1,0E0,5.129711E0,1.2819475E1,1.1973405E1,1.1826048E0,0E0,1.3998575E0,9.684945E0,1.0172571E1,1.7252903E0,0E0,0E0,0E0,0E0,0E0,0E0,0E0,0E0,0E0,0E0],"parents":[2147483647,0,0,1,1,2,2,4,4,5,5,6,6,7,7,9,9,10,10,11,11,12,12],"right_children":[2,4,6,-1,8,10,12,14,-1,16,18,20,22,-1,-1,-1,-1,-1,-1,-1,-1,-1,-1],"split_conditions":[9.4266456E-1,9.9999994E-1,8.8137734E-1,-1.2349682E-1,9.980182E-1,8.2256025E-1,9.5984995E-1,8.8960546E-1,4.9364008E-2,1E0,6.875E-1,7.2727275E-1,9.9999976E-1,-1.0937681E-1,-2.2274077E-2,-1.1964186E-1,-3.9256904E-2,-1.1117574E-1,4.139217E-2,-1.22820914E-1,3.2553457E-2,3.145051E-2,1.23308435E-1],"split_indices":[0,1,6,0,5,22,1,4,0,4,13,14,5,0,0,0,0,0,0,0,0,0,0],"split_type":[0,0,0,0,0,0,0,0,0,0,0,0,0,0,0,0,0,0,0,0,0,0,0],"sum_hessian":[1.1446545E2,2.4474194E1,8.999126E1,1.3036684E1,1.1437509E1,4.1161053E1,4.88302E1,7.2131987E0,4.2243104E0,1.4196537E1,2.6964516E1,3.0248312E1,1.858189E1,4.0443873E0,3.1688113E0,9.820231E0,4.376306E0,4.0514455E0,2.291307E1,3.9885805E0,2.6259731E1,3.2905524E0,1.5291338E1],"tree_param":{"num_deleted":"0","num_feature":"24","num_nodes":"23","size_leaf_vector":"1"}},{"base_weights":[-2.906434E-2,-5.473128E-1,2.5338653E-1,-1.0235794E0,2.5379617E-2,-2.928356E-1,5.9825563E-1,-1.2219488E-1,9.417312E-3,7.2771347E-1,-5.531849E-1,-1.0563374E0,2.9640248E-1,-3.0867308E-1,8.7283087E-1,9.6160546E-2,2.8819235E-3,1.3678342E-2,-9.4108395E-2,1.9069655E-2,-1.3219142E-1,-5.529071E-2,8.742776E-2,3.1076243E-2,-7.6766096E-2,2.079341E-2,1.03655756E-1],"categories":[],"categories_nodes":[],"categories_segments":[],"categories_sizes":[],"default_left":[1,1,0,1,1,1,0,0,0,0,0,1,1,0,0,0,0,0,0,0,0,0,0,0,0,0,0],"id":16,"left_children":[1,3,5,7,9,11,13,-1,-1,15,17,19,21,23,25,-1,-1,-1,-1,-1,-1,-1,-1,-1,-1,-1,-1],"loss_changes":[1.6342491E1,1.076307E1,1.3800674E1,4.885828E0,8.061841E0,1.3209076E1,1.1392299E1,0E0,0E0,1.4346185E0,3.0468855E0,4.4598694E0,8.80717E0,3.3998466E0,3.5453568E0,0E0,0E0,0E0,0E0,0E0,0E0,0E0,0E0,0E0,0E0,0E0,0E0],"parents":[2147483647,0,0,1,1,2,2,3,3,4,4,5,5,6,6,9,9,10,10,11,11,12,12,13,13,14,14],"right_children":[2,4,6,8,10,12,14,-1,-1,16,18,20,22,24,26,-1,-1,-1,-1,-1,-1,-1,-1,-1,-1,-1,-1],"split_conditions":[9.999998E-1,9.999997E-1,8E-1,9.166667E-1,9.874879E-1,9E-1,8.07768E-1,-1.2219488E-1,9.417312E-3,6E-1,9.9999994E-1,5.1133096E-1,7.6614314E-1,1E0,7.692308E-1,9.6160546E-2,2.8819235E-3,1.3678342E-2,-9.4108395E-2,1.9069655E-2,-1.3219142E-1,-5.529071E-2,8.742776E-2,3.1076243E-2,-7.6766096E-2,2.079341E-2,1.03655756E-1],"split_indices":[3,8,11,17,7,16,0,0,0,16,8,8,9,7,19,0,0,0,0,0,0,0,0,0,0,0,0],"split_type":[0,0,0,0,0,0,0,0,0,0,0,0,0,0,0,0,0,0,0,0,0,0,0,0,0,0,0],"sum_hessian":[1.096971E2,3.8365437E1,7.133166E1,2.051625E1,1.7849184E1,2.7665089E1,4.3666573E1,1.7344818E1,3.171433E0,7.945795E0,9.903389E0,1.1705299E1,1.5959789E1,1.0119021E1,3.354755E1,5.671781E0,2.2740138E0,3.7969697E0,6.106419E0,2.1046636E0,9.600636E0,6.4797025E0,9.480087E0,4.444204E0,5.674817E0,7.0771465E0,2.6470404E1],"tree_param":{"num_deleted":"0","num_feature":"24","num_nodes":"27","size_leaf_vector":"1"}},{"base_weights":[-1.6064353E-2,-4.2589197E-1,3.1292328E-1,-1.0809253E0,-4.0910438E-2,-2.3685905E-1,6.008316E-1,-1.1828961E-1,-2.606982E-2,-6.2245107E-1,6.456074E-1,3.5027978E-1,-7.399821E-1,-2.3266314E-1,8.031346E-1,-1.24362305E-1,-4.048668E-3,-5.542276E-2,1.0055923E-1,-7.350945E-2,8.7678716E-2,-9.7800605E-2,1.0880688E-2,4.226071E-2,-1.5076926E-1,1.40521275E-2,1.08468965E-1],"categories":[],"categories_nodes":[],"categories_segments":[],"categories_sizes":[],"default_left":[1,1,1,1,1,1,0,0,0,0,0,1,0,0,0,0,0,0,0,0,0,0,0,0,0,0,0],"id":17,"left_children":[1,3,5,7,9,11,13,-1,-1,15,17,19,21,23,25,-1,-1,-1,-1,-1,-1,-1,-1,-1,-1,-1,-1],"loss_changes":[1.4332984E1,1.1888805E1,9.480734E0,1.1533985E0,1.2715598E1,6.460902E0,6.7634497E0,0E0,0E0,6.1701126E0,6.8788285E0,6.5687256E0,2.4554791E0,7.6494694E0,5.744753E0,0E0,0E0,0E0,0E0,0E0,0E0,0E0,0E0,0E0,0E0,0E0,0E0],"parents":[2147483647,0,0,1,1,2,2,3,3,4,4,5,5,6,6,9,9,10,10,11,11,12,12,13,13,14,14],"right_children":[2,4,6,8,10,12,14,-1,-1,16,18,20,22,24,26,-1,-1,-1,-1,-1,-1,-1,-1,-1,-1,-1,-1],"split_conditions":[8.181818E-1,9.648159E-1,8.313785E-1,1E0,8E-1,9.9737686E-1,7.408936E-1,-1.1828961E-1,-2.606982E-2,9.999998E-1,8.696226E-1,9.999999E-1,1.0000001E0,6.8032205E-1,9.576248E-1,-1.24362305E-1,-4.048668E-3,-5.542276E-2,1.0055923E-1,-7.350945E-2,8.7678716E-2,-9.7800605E-2,1.0880688E-2,4.226071E-2,-1.5076926E-1,1.40521275E-2,1.08468965E-1],"split_indices":[18,21,6,22,19,7,22,0,0,3,7,22,0,22,0,0,0,0,0,0,0,0,0,0,0,0,0],"split_type":[0,0,0,0,0,0,0,0,0,0,0,0,0,0,0,0,0,0,0,0,0,0,0,0,0,0,0],"sum_hessian":[1.0431707E2,4.6320274E1,5.79968E1,1.647717E1,2.9843102E1,1.9994028E1,3.8002773E1,1.4261965E1,2.2152069E0,1.6207367E1,1.3635735E1,9.366833E0,1.0627196E1,7.39306E0,3.060971E1,7.289657E0,8.917709E0,3.0224094E0,1.0613325E1,2.9301898E0,6.4366426E0,8.180829E0,2.4463673E0,5.324972E0,2.0680883E0,9.574981E0,2.103473E1],"tree_param":{"num_deleted":"0","num_feature":"24","num_nodes":"27","size_leaf_vector":"1"}},{"base_weights":[4.097335E-3,-9.254918E-1,1.592807E-1,-1.2059952E-1,-2.710586E-1,-9.51212E-1,3.000596E-1,-9.537634E-2,7.1583904E-2,-2.377743E-2,-1.2188544E-1,-2.1621792E-1,4.7891653E-1,2.5349868E-2,-9.546235E-2,-4.6054598E-2,6.362109E-2],"categories":[],"categories_nodes":[],"categories_segments":[],"categories_sizes":[],"default_left":[0,1,0,0,0,0,0,0,0,0,0,0,0,0,0,0,0],"id":18,"left_children":[1,3,5,-1,7,9,11,-1,-1,-1,-1,13,15,-1,-1,-1,-1],"loss_changes":[1.5705193E1,2.5322418E0,1.4867103E1,0E0,4.7002583E0,1.7597628E0,7.817519E0,0E0,0E0,0E0,0E0,7.9361095E0,9.507412E0,0E0,0E0,0E0,0E0],"parents":[2147483647,0,0,1,1,2,2,4,4,5,5,6,6,11,11,12,12],"right_children":[2,4,6,-1,8,10,12,-1,-1,-1,-1,14,16,-1,-1,-1,-1],"split_conditions":[8.181818E-1,9.999999E-1,6.96571E-1,-1.2059952E-1,9.195472E-1,1E0,8.235294E-1,-9.537634E-2,7.1583904E-2,-2.377743E-2,-1.2188544E-1,9.537425E-1,7.716553E-1,2.5349868E-2,-9.546235E-2,-4.6054598E-2,6.362109E-2],"split_indices":[18,22,9,0,3,8,15,0,0,0,0,6,6,0,0,0,0],"split_type":[0,0,0,0,0,0,0,0,0,0,0,0,0,0,0,0,0],"sum_hessian":[1.06847824E2,1.4575127E1,9.22727E1,9.612294E0,4.962833E0,9.733788E0,8.253891E1,2.953363E0,2.0094697E0,3.1705782E0,6.5632095E0,2.118338E1,6.1355526E1,1.3348678E1,7.8347025E0,8.522967E0,5.2832558E1],"tree_param":{"num_deleted":"0","num_feature":"24","num_nodes":"17","size_leaf_vector":"1"}},{"base_weights":[-7.930884E-3,-5.839257E-1,1.8614034E-1,-1.0581982E0,-2.166511E-1,-8.9710206E-1,3.243889E-1,-1.1858882E-1,-4.0240835E-2,-1.0472679E-1,1.5351929E-1,-1.18737414E-1,-1.7871479E-2,-1.0417382E-1,4.2036915E-1,-3.6666628E-2,1.01382546E-1,3.7331511E-3,6.6233866E-2],"categories":[],"categories_nodes":[],"categories_segments":[],"categories_sizes":[],"default_left":[0,1,0,0,0,1,0,0,0,0,0,0,0,0,0,0,0,0,0],"id":19,"left_children":[1,3,5,7,9,11,13,-1,-1,-1,15,-1,-1,-1,17,-1,-1,-1,-1],"loss_changes":[1.1683273E1,4.358301E0,1.2003084E1,4.6372223E-1,5.111079E0,1.6889648E0,9.628231E0,0E0,0E0,0E0,5.746011E0,0E0,0E0,0E0,6.1110716E0,0E0,0E0,0E0,0E0],"parents":[2147483647,0,0,1,1,2,2,3,3,4,4,5,5,6,6,10,10,14,14],"right_children":[2,4,6,8,10,12,14,-1,-1,-1,16,-1,-1,-1,18,-1,-1,-1,-1],"split_conditions":[7.692308E-1,7.358301E-1,6.3419056E-1,1E0,9.693672E-1,9.9187356E-1,6.4285713E-1,-1.1858882E-1,-4.0240835E-2,-1.0472679E-1,9.728305E-1,-1.18737414E-1,-1.7871479E-2,-1.0417382E-1,8.333333E-1,-3.6666628E-2,1.01382546E-1,3.7331511E-3,6.6233866E-2],"split_indices":[19,22,21,6,0,5,18,0,0,0,4,0,0,0,11,0,0,0,0],"split_type":[0,0,0,0,0,0,0,0,0,0,0,0,0,0,0,0,0,0,0],"sum_hessian":[1.0254414E2,2.5336805E1,7.720734E1,1.0236672E1,1.5100133E1,8.117088E0,6.909025E1,7.8917255E0,2.3449469E0,4.091087E0,1.1009047E1,5.316191E0,2.8008971E0,3.888594E0,6.520166E1,7.2182903E0,3.7907557E0,2.5689487E1,3.951217E1],"tree_param":{"num_deleted":"0","num_feature":"24","num_nodes":"19","size_leaf_vector":"1"}},{"base_weights":[-3.2683212E-2,-5.480613E-1,2.558756E-1,-9.920524E-1,-2.0145383E-1,-9.1127925E-2,3.7916997E-1,-1.1626013E-1,-1.885443E-2,3.2819158E-1,-5.8012736E-1,-3.0941218E-1,6.265582E-1,-5.5889644E-2,9.714685E-2,-8.137876E-2,3.9345615E-2,-1.16687275E-1,2.10238E-2,-4.6305533E-2,7.083777E-2],"categories":[],"categories_nodes":[],"categories_segments":[],"categories_sizes":[],"default_left":[1,1,0,0,0,0,0,0,0,0,0,1,0,0,0,0,0,0,0,0,0],"id":20,"left_children":[1,3,5,7,9,-1,11,-1,-1,13,15,17,19,-1,-1,-1,-1,-1,-1,-1,-1],"loss_changes":[1.4649707E1,5.238223E0,9.444141E0,1.8688984E0,4.42223E0,0E0,1.00556555E1,0E0,0E0,5.92702E0,3.20126E0,7.3616986E0,4.154518E0,0E0,0E0,0E0,0E0,0E0,0E0,0E0,0E0],"parents":[2147483647,0,0,1,1,2,2,3,3,4,4,6,6,9,9,10,10,11,11,12,12],"right_children":[2,4,6,8,10,-1,12,-1,-1,14,16,18,20,-1,-1,-1,-1,-1,-1,-1,-1],"split_conditions":[8.313785E-1,9.6313244E-1,6.4285713E-1,1.0000002E0,1E0,-9.1127925E-2,9.9999976E-1,-1.1626013E-1,-1.885443E-2,9.9999994E-1,9.728305E-1,6.210557E-1,5.656049E-1,-5.5889644E-2,9.714685E-2,-8.137876E-2,3.9345615E-2,-1.16687275E-1,2.10238E-2,-4.6305533E-2,7.083777E-2],"split_indices":[6,22,18,0,22,0,5,0,0,0,4,8,22,0,0,0,0,0,0,0,0],"split_type":[0,0,0,0,0,0,0,0,0,0,0,0,0,0,0,0,0,0,0,0,0],"sum_hessian":[9.6564384E1,3.4337273E1,6.222711E1,1.4237453E1,2.009982E1,5.3347845E0,5.6892326E1,1.137594E1,2.8615134E0,8.435089E0,1.166473E1,1.4971058E1,4.192127E1,3.6007612E0,4.834328E0,9.539403E0,2.1253266E0,5.179315E0,9.791743E0,2.6025743E0,3.9318695E1],"tree_param":{"num_deleted":"0","num_feature":"24","num_nodes":"21","size_leaf_vector":"1"}},{"base_weights":[-4.863686E-2,-5.506564E-1,2.3090395E-1,8.9208595E-2,-6.886769E-1,-6.1110926E-1,3.674582E-1,-8.6245674E-1,-1.1168851E-1,-1.0670671E0,2.2047363E-2,3.195386E-2,8.4989923E-1,-1.1626627E-1,-3.0914485E-2,-8.663172E-2,4.4024695E-2,-4.4954296E-2,-1.3249956E-1,-6.0044356E-2,5.7578485E-2,1.0040609E-1,-3.89212E-2],"categories":[],"categories_nodes":[],"categories_segments":[],"categories_sizes":[],"default_left":[1,0,0,0,1,1,0,1,1,0,0,1,0,0,0,0,0,0,0,0,0,0,0],"id":21,"left_children":[1,3,5,-1,7,9,11,13,15,17,-1,19,21,-1,-1,-1,-1,-1,-1,-1,-1,-1,-1],"loss_changes":[1.4044808E1,7.73662E0,7.630145E0,0E0,3.233468E0,3.7854867E0,9.044205E0,3.8552322E0,4.0614543E0,3.9484787E-1,0E0,1.2071603E1,4.774601E0,0E0,0E0,0E0,0E0,0E0,0E0,0E0,0E0,0E0,0E0],"parents":[2147483647,0,0,1,1,2,2,4,4,5,5,6,6,7,7,8,8,9,9,11,11,12,12],"right_children":[2,4,6,-1,8,10,12,14,16,18,-1,20,22,-1,-1,-1,-1,-1,-1,-1,-1,-1,-1],"split_conditions":[9.999998E-1,2.0000103E0,6.5600187E-1,8.9208595E-2,1E0,7E-1,9.5720756E-1,9.9999976E-1,7.9316086E-1,9.9999994E-1,2.2047363E-2,9.9999994E-1,1E0,-1.1626627E-1,-3.0914485E-2,-8.663172E-2,4.4024695E-2,-4.4954296E-2,-1.3249956E-1,-6.0044356E-2,5.7578485E-2,1.0040609E-1,-3.89212E-2],"split_indices":[3,2,0,0,7,19,1,8,4,7,0,7,23,0,0,0,0,0,0,0,0,0,0],"split_type":[0,0,0,0,0,0,0,0,0,0,0,0,0,0,0,0,0,0,0,0,0,0,0],"sum_hessian":[9.817458E1,3.476723E1,6.3407356E1,2.5585911E0,3.2208637E1,8.363234E0,5.504412E1,2.437309E1,7.835547E0,5.2186604E0,3.1445735E0,3.3095047E1,2.1949078E1,1.5086469E1,9.286623E0,3.0693743E0,4.766173E0,2.3456583E0,2.8730018E0,1.5253414E1,1.784163E1,1.9689178E1,2.2598975E0],"tree_param":{"num_deleted":"0","num_feature":"24","num_nodes":"23","size_leaf_vector":"1"}},{"base_weights":[-3.7842214E-2,-4.3066853E-1,2.0343824E-1,-8.6137724E-1,2.4638638E-2,-8.508419E-2,3.2087168E-1,1.7980656E-2,-9.990954E-1,-7.486003E-1,3.6574402E-1,-4.3305477E-1,5.410251E-1,-5.623293E-2,-1.18008934E-1,-1.1714432E-2,-1.0417604E-1,-5.1962603E-2,7.292332E-2,-1.1012162E-1,-4.085321E-3,-2.7810637E-2,6.9329195E-2],"categories":[],"categories_nodes":[],"categories_segments":[],"categories_sizes":[],"default_left":[1,1,1,1,1,0,0,0,1,0,0,0,0,0,0,0,0,0,0,0,0,0,0],"id":22,"left_children":[1,3,5,7,9,-1,11,-1,13,15,17,19,21,-1,-1,-1,-1,-1,-1,-1,-1,-1,-1],"loss_changes":[8.947504E0,7.059286E0,7.526643E0,2.8281498E0,5.131824E0,0E0,9.104589E0,0E0,6.380291E-1,9.8241997E-1,4.7082148E0,3.2657924E0,5.407398E0,0E0,0E0,0E0,0E0,0E0,0E0,0E0,0E0,0E0,0E0],"parents":[2147483647,0,0,1,1,2,2,3,3,4,4,6,6,8,8,9,9,10,10,11,11,12,12],"right_children":[2,4,6,8,10,-1,12,-1,14,16,18,20,22,-1,-1,-1,-1,-1,-1,-1,-1,-1,-1],"split_conditions":[6.4285713E-1,5.833333E-1,6.923077E-1,5.91941E-1,7.716553E-1,-8.508419E-2,7.218001E-1,1.7980656E-2,5.3333336E-1,5.723521E-1,9.0517724E-1,8.72652E-1,7.066133E-1,-5.623293E-2,-1.18008934E-1,-1.1714432E-2,-1.0417604E-1,-5.1962603E-2,7.292332E-2,-1.1012162E-1,-4.085321E-3,-2.7810637E-2,6.9329195E-2],"split_indices":[17,19,13,4,6,0,22,0,15,7,1,1,21,0,0,0,0,0,0,0,0,0,0],"split_type":[0,0,0,0,0,0,0,0,0,0,0,0,0,0,0,0,0,0,0,0,0,0,0],"sum_hessian":[9.247717E1,3.4889305E1,5.7587864E1,1.747066E1,1.7418648E1,5.1457396E0,5.2442127E1,2.005203E0,1.5465456E1,4.966238E0,1.2452409E1,1.1633965E1,4.0808163E1,5.7343907E0,9.731066E0,2.018359E0,2.947879E0,3.4993367E0,8.953073E0,3.6344578E0,7.9995074E0,6.2671437E0,3.454102E1],"tree_param":{"num_deleted":"0","num_feature":"24","num_nodes":"23","size_leaf_vector":"1"}},{"base_weights":[2.711706E-2,-7.988842E-1,1.6515529E-1,-1.0379916E-1,-4.5624533E-1,-1.4891359E-1,5.63838E-1,-9.336242E-2,-4.4142744E-3,-1.1946433E-1,-8.269884E-3,-6.713893E-2,6.725283E-1,-4.170675E-2,4.8028354E-2,-6.648885E-2,8.03281E-2],"categories":[],"categories_nodes":[],"categories_segments":[],"categories_sizes":[],"default_left":[0,1,1,0,0,0,0,0,0,0,1,0,0,0,0,0,0],"id":23,"left_children":[1,3,5,-1,7,9,11,-1,-1,-1,13,-1,15,-1,-1,-1,-1],"loss_changes":[1.0127612E1,5.688667E-1,9.592972E0,0E0,1.3386532E0,6.354048E0,4.9722767E0,0E0,0E0,0E0,8.018771E0,0E0,6.033535E0,0E0,0E0,0E0,0E0],"parents":[2147483647,0,0,1,1,2,2,4,4,5,5,6,6,10,10,12,12],"right_children":[2,4,6,-1,8,10,12,-1,-1,-1,14,-1,16,-1,-1,-1,-1],"split_conditions":[7.426232E-1,8.75E-1,9.025993E-1,-1.0379916E-1,4.843976E-1,5.959804E-1,7.777778E-1,-9.336242E-2,-4.4142744E-3,-1.1946433E-1,9.8515993E-1,-6.713893E-2,6.618458E-1,-4.170675E-2,4.8028354E-2,-6.648885E-2,8.03281E-2],"split_indices":[21,14,9,0,21,0,18,0,0,0,4,0,6,0,0,0,0],"split_type":[0,0,0,0,0,0,0,0,0,0,0,0,0,0,0,0,0],"sum_hessian":[8.6666145E1,1.1723995E1,7.494215E1,5.7099533E0,6.014042E0,4.2269855E1,3.267229E1,2.2000241E0,3.8140178E0,4.12264E0,3.8147217E1,2.2236946E0,3.0448595E1,2.0848518E1,1.7298698E1,2.3478894E0,2.8100706E1],"tree_param":{"num_deleted":"0","num_feature":"24","num_nodes":"17","size_leaf_vector":"1"}},{"base_weights":[-1.2040723E-1,-4.1653827E-1,2.050969E-1,-5.168337E-1,9.280263E-2,-7.8927433E-1,4.4951016E-1,-8.219387E-1,-2.3799635E-1,-2.6585802E-3,-1.1215635E-1,-9.880037E-2,5.8187634E-1,-1.16766356E-1,-4.5107443E-2,-7.186406E-2,2.0982375E-2,-4.1009136E-2,7.152742E-2],"categories":[],"categories_nodes":[],"categories_segments":[],"categories_sizes":[],"default_left":[1,1,0,1,0,0,0,0,1,0,0,0,0,0,0,0,0,0,0],"id":24,"left_children":[1,3,5,7,-1,9,11,13,15,-1,-1,-1,17,-1,-1,-1,-1,-1,-1],"loss_changes":[8.77437E0,6.8892984E0,1.0953974E1,3.621976E0,0E0,2.2428217E0,7.3571568E0,2.1684036E0,5.500324E0,0E0,0E0,0E0,4.695547E0,0E0,0E0,0E0,0E0,0E0,0E0],"parents":[2147483647,0,0,1,1,2,2,3,3,5,5,6,6,7,7,8,8,12,12],"right_children":[2,4,6,8,-1,10,12,14,16,-1,-1,-1,18,-1,-1,-1,-1,-1,-1],"split_conditions":[7.812269E-1,9.4705635E-1,6.25E-1,7.2727275E-1,9.280263E-2,7.3815244E-1,7.336754E-1,9.6482736E-1,9.999997E-1,-2.6585802E-3,-1.1215635E-1,-9.880037E-2,6.687019E-1,-1.16766356E-1,-4.5107443E-2,-7.186406E-2,2.0982375E-2,-4.1009136E-2,7.152742E-2],"split_indices":[9,2,14,17,0,3,3,1,4,0,0,0,21,0,0,0,0,0,0],"split_type":[0,0,0,0,0,0,0,0,0,0,0,0,0,0,0,0,0,0,0],"sum_hessian":[8.914182E1,4.6530506E1,4.261132E1,4.3873455E1,2.657051E0,7.967415E0,3.4643906E1,2.0019882E1,2.385357E1,2.74559E0,5.2218246E0,2.3760064E0,3.22679E1,9.249177E0,1.0770705E1,1.121345E1,1.2640121E1,3.579082E0,2.8688818E1],"tree_param":{"num_deleted":"0","num_feature":"24","num_nodes":"19","size_leaf_vector":"1"}},{"base_weights":[-3.795957E-2,-7.080133E-1,1.1551921E-1,-1.16218545E-1,-2.6902956E-1,-2.2101526E-1,4.7413132E-1,-9.422322E-2,1.705831E-1,-8.438245E-1,3.8930383E-1,-9.7703755E-2,6.011412E-1,9.6938334E-2,-5.41995E-2,-1.316286E-1,-2.8145945E-2,-8.66035E-2,8.454526E-2,1.1417938E-2,9.278623E-2],"categories":[],"categories_nodes":[],"categories_segments":[],"categories_sizes":[],"default_left":[0,1,0,0,1,1,0,0,0,1,0,0,0,0,0,0,0,0,0,0,0],"id":25,"left_children":[1,3,5,-1,7,9,11,-1,13,15,17,-1,19,-1,-1,-1,-1,-1,-1,-1,-1],"loss_changes":[8.921842E0,2.9092932E0,8.6492815E0,0E0,2.9778E0,1.447105E1,6.9633675E0,0E0,4.2851E0,4.606103E0,1.188447E1,0E0,5.053465E0,0E0,0E0,0E0,0E0,0E0,0E0,0E0,0E0],"parents":[2147483647,0,0,1,1,2,2,4,4,5,5,6,6,8,8,9,9,10,10,12,12],"right_children":[2,4,6,-1,8,10,12,-1,14,16,18,-1,20,-1,-1,-1,-1,-1,-1,-1,-1],"split_conditions":[7.1428573E-1,8.985652E-1,9.5984995E-1,-1.16218545E-1,7.5E-1,9.822893E-1,4.6153846E-1,-9.422322E-2,1.0000001E0,9.9999994E-1,8.666667E-1,-9.7703755E-2,9.4671005E-1,9.6938334E-2,-5.41995E-2,-1.316286E-1,-2.8145945E-2,-8.66035E-2,8.454526E-2,1.1417938E-2,9.278623E-2],"split_indices":[10,4,1,0,17,6,19,0,4,7,14,0,3,0,0,0,0,0,0,0,0],"split_type":[0,0,0,0,0,0,0,0,0,0,0,0,0,0,0,0,0,0,0,0,0],"sum_hessian":[8.496009E1,1.5160345E1,6.979974E1,6.641554E0,8.518791E0,3.6206223E1,3.3593525E1,2.9136453E0,5.605146E0,1.7730387E1,1.8475834E1,2.164953E0,3.1428572E1,2.4727752E0,3.1323707E0,8.906836E0,8.82355E0,4.684722E0,1.3791113E1,1.3161487E1,1.8267084E1],"tree_param":{"num_deleted":"0","num_feature":"24","num_nodes":"21","size_leaf_vector":"1"}},{"base_weights":[-9.676117E-2,-6.999458E-1,6.115258E-2,-1.0995606E-1,-3.9125964E-1,-2.8649244E-1,3.8604805E-1,3.5512332E-2,-7.686938E-1,-9.7682756E-1,8.38769E-2,-2.729795E-1,7.964449E-1,-1.13631286E-1,6.7863367E-3,-3.5787147E-2,-1.1742146E-1,-9.659008E-2,2.9549206E-2,-1.0451831E-1,4.5156356E-2,9.543029E-2,-2.5830377E-2],"categories":[],"categories_nodes":[],"categories_segments":[],"categories_sizes":[],"default_left":[0,1,0,0,0,0,0,0,1,1,0,1,0,0,0,0,0,0,0,0,0,0,0],"id":26,"left_children":[1,3,5,-1,7,9,11,-1,13,15,17,19,21,-1,-1,-1,-1,-1,-1,-1,-1,-1,-1],"loss_changes":[8.45048E0,1.8388405E0,8.115707E0,0E0,3.633871E0,8.98272E0,1.0241235E1,0E0,2.6110444E0,1.0745325E0,5.523185E0,8.846126E0,4.0917244E0,0E0,0E0,0E0,0E0,0E0,0E0,0E0,0E0,0E0,0E0],"parents":[2147483647,0,0,1,1,2,2,4,4,5,5,6,6,8,8,9,9,10,10,11,11,12,12],"right_children":[2,4,6,-1,8,10,12,-1,14,16,18,20,22,-1,-1,-1,-1,-1,-1,-1,-1,-1,-1],"split_conditions":[9.4266456E-1,7.2727275E-1,9.734343E-1,-1.0995606E-1,1E0,1E0,8.199329E-1,3.5512332E-2,9.980182E-1,9.370047E-1,6.875E-1,9.822893E-1,1E0,-1.13631286E-1,6.7863367E-3,-3.5787147E-2,-1.1742146E-1,-9.659008E-2,2.9549206E-2,-1.0451831E-1,4.5156356E-2,9.543029E-2,-2.5830377E-2],"split_indices":[0,17,4,0,7,11,22,0,5,7,13,6,20,0,0,0,0,0,0,0,0,0,0],"split_type":[0,0,0,0,0,0,0,0,0,0,0,0,0,0,0,0,0,0,0,0,0,0,0],"sum_hessian":[8.726851E1,1.739442E1,6.987409E1,6.46412E0,1.0930301E1,3.3812355E1,3.6061733E1,3.690796E0,7.239505E0,1.1234611E1,2.2577745E1,1.3967363E1,2.209437E1,4.7804503E0,2.4590547E0,3.3966417E0,7.837969E0,3.1897335E0,1.9388012E1,6.547078E0,7.4202857E0,1.9300945E1,2.7934258E0],"tree_param":{"num_deleted":"0","num_feature":"24","num_nodes":"23","size_leaf_vector":"1"}},{"base_weights":[-9.627494E-2,-4.183494E-1,1.3457535E-1,-8.6267453E-1,-5.6106176E-2,5.641748E-1,-1.6148934E-1,-1.1185455E-1,-9.349385E-3,-4.1841364E-1,6.0039806E-1,-2.1639993E-2,7.714804E-1,-9.699884E-2,7.704125E-2,-8.537375E-2,2.0943012E-3,1.1106908E-1,-4.702388E-3,3.0267298E-2,1.08052015E-1,-4.71057E-2,6.1865147E-2],"categories":[],"categories_nodes":[],"categories_segments":[],"categories_sizes":[],"default_left":[1,1,1,0,1,0,0,0,0,1,0,0,1,0,1,0,0,0,0,0,0,0,0],"id":27,"left_children":[1,3,5,7,9,11,13,-1,-1,15,17,-1,19,-1,21,-1,-1,-1,-1,-1,-1,-1,-1],"loss_changes":[6.1935005E0,5.537659E0,6.302731E0,2.9494324E0,5.053182E0,3.4272285E0,5.800454E0,0E0,0E0,2.618749E0,2.5598001E0,0E0,2.0111656E0,0E0,7.3721304E0,0E0,0E0,0E0,0E0,0E0,0E0,0E0,0E0],"parents":[2147483647,0,0,1,1,2,2,3,3,4,4,5,5,6,6,9,9,10,10,12,12,14,14],"right_children":[2,4,6,8,10,12,14,-1,-1,16,18,-1,20,-1,22,-1,-1,-1,-1,-1,-1,-1,-1],"split_conditions":[8.80201E-1,9.6313244E-1,7.1030843E-1,1.0000002E0,7.077571E-1,7.1428573E-1,8.6885905E-1,-1.1185455E-1,-9.349385E-3,5E-1,7.1783215E-1,-2.1639993E-2,8.016936E-1,-9.699884E-2,5.833333E-1,-8.537375E-2,2.0943012E-3,1.1106908E-1,-4.702388E-3,3.0267298E-2,1.08052015E-1,-4.71057E-2,6.1865147E-2],"split_indices":[6,22,5,0,5,10,5,0,0,19,6,0,22,0,19,0,0,0,0,0,0,0,0],"split_type":[0,0,0,0,0,0,0,0,0,0,0,0,0,0,0,0,0,0,0,0,0,0,0],"sum_hessian":[8.154364E1,3.370599E1,4.7837654E1,1.4517473E1,1.9188515E1,1.9147882E1,2.8689774E1,1.0552829E1,3.9646442E0,1.2598434E1,6.590081E0,4.0089564E0,1.5138926E1,5.8373995E0,2.2852373E1,5.8545094E0,6.743925E0,3.2851737E0,3.3049076E0,6.8011346E0,8.3377905E0,1.1422901E1,1.1429472E1],"tree_param":{"num_deleted":"0","num_feature":"24","num_nodes":"23","size_leaf_vector":"1"}},{"base_weights":[5.972898E-3,-4.875985E-1,2.5931102E-1,-7.485214E-1,2.6962903E-1,-6.134108E-1,3.6649317E-1,-1.11129485E-1,-4.1354436E-1,-5.7580348E-2,7.2522275E-2,5.3117527E-3,-9.633371E-2,2.4891427E-2,6.809675E-1,-7.044021E-2,5.698293E-2,-9.286692E-2,4.5353703E-2,2.5066321E-3,9.809953E-2],"categories":[],"categories_nodes":[],"categories_segments":[],"categories_sizes":[],"default_left":[1,1,1,1,0,0,0,0,0,0,0,0,0,1,0,0,0,0,0,0,0],"id":28,"left_children":[1,3,5,7,9,11,13,-1,15,-1,-1,-1,-1,17,19,-1,-1,-1,-1,-1,-1],"loss_changes":[9.669658E0,5.385063E0,5.0035133E0,1.9435911E0,3.2902784E0,1.4417064E0,4.9380503E0,0E0,3.797739E0,0E0,0E0,0E0,0E0,9.882263E0,4.6940565E0,0E0,0E0,0E0,0E0,0E0,0E0],"parents":[2147483647,0,0,1,1,2,2,3,3,4,4,5,5,6,6,8,8,13,13,14,14],"right_children":[2,4,6,8,10,12,14,-1,16,-1,-1,-1,-1,18,20,-1,-1,-1,-1,-1,-1],"split_conditions":[6.363636E-1,9.9999994E-1,6.923077E-1,8.7690777E-1,9.5720756E-1,9.9999994E-1,9E-1,-1.11129485E-1,1.0000001E0,-5.7580348E-2,7.2522275E-2,5.3117527E-3,-9.633371E-2,9.230769E-1,7.889174E-1,-7.044021E-2,5.698293E-2,-9.286692E-2,4.5353703E-2,2.5066321E-3,9.809953E-2],"split_indices":[17,8,13,4,1,22,11,0,3,0,0,0,0,14,0,0,0,0,0,0,0],"split_type":[0,0,0,0,0,0,0,0,0,0,0,0,0,0,0,0,0,0,0,0,0],"sum_hessian":[7.5321045E1,2.523389E1,5.008716E1,1.8775715E1,6.458175E0,4.961934E0,4.512522E1,7.90127E0,1.0874445E1,2.1691294E0,4.289046E0,2.0002077E0,2.9617267E0,2.214696E1,2.2978262E1,8.611163E0,2.263282E0,6.5063906E0,1.564057E1,7.5520377E0,1.5426225E1],"tree_param":{"num_deleted":"0","num_feature":"24","num_nodes":"21","size_leaf_vector":"1"}},{"base_weights":[-2.020168E-3,-3.3151734E-1,2.8465042E-1,-6.8899745E-1,7.84304E-2,-4.2738682E-1,4.679278E-1,-2.687492E-1,-1.1295512E0,-7.4195623E-1,4.5656413E-1,-8.908693E-2,1.0340164E-1,-6.426739E-2,5.6519365E-1,-7.940211E-2,4.5106232E-2,-1.280924E-1,-4.047986E-2,-2.8369231E-2,-1.0392978E-1,9.3310274E-2,-6.026977E-3,-4.335998E-2,6.2255736E-2,1.3904668E-2,7.854282E-2],"categories":[],"categories_nodes":[],"categories_segments":[],"categories_sizes":[],"default_left":[1,1,0,0,0,1,0,0,0,0,1,0,0,0,0,0,0,0,0,0,0,0,0,0,0,0,0],"id":29,"left_children":[1,3,5,7,9,11,13,15,17,19,21,-1,23,-1,25,-1,-1,-1,-1,-1,-1,-1,-1,-1,-1,-1,-1],"loss_changes":[7.585136E0,5.5287366E0,5.8044133E0,3.4100266E0,6.015577E0,2.3834496E0,4.104284E0,4.735689E0,5.2154064E-1,5.437732E-1,3.2937686E0,0E0,1.7301514E0,0E0,2.9292593E0,0E0,0E0,0E0,0E0,0E0,0E0,0E0,0E0,0E0,0E0,0E0,0E0],"parents":[2147483647,0,0,1,1,2,2,3,3,4,4,5,5,6,6,7,7,8,8,9,9,10,10,12,12,14,14],"right_children":[2,4,6,8,10,12,14,16,18,20,22,-1,24,-1,26,-1,-1,-1,-1,-1,-1,-1,-1,-1,-1,-1,-1],"split_conditions":[8.199329E-1,9.6919316E-1,6.25E-1,1E0,9.838295E-1,7E-1,6.170147E-1,1E0,1E0,8.258814E-1,1.0000001E0,-8.908693E-2,1E0,-6.426739E-2,1E0,-7.940211E-2,4.5106232E-2,-1.280924E-1,-4.047986E-2,-2.8369231E-2,-1.0392978E-1,9.3310274E-2,-6.026977E-3,-4.335998E-2,6.2255736E-2,1.3904668E-2,7.854282E-2],"split_indices":[22,6,10,21,4,19,9,11,23,4,5,0,1,0,11,0,0,0,0,0,0,0,0,0,0,0,0],"split_type":[0,0,0,0,0,0,0,0,0,0,0,0,0,0,0,0,0,0,0,0,0,0,0,0,0,0,0],"sum_hessian":[7.830337E1,3.6357674E1,4.1945694E1,1.9058073E1,1.72996E1,8.313936E0,3.363176E1,1.057782E1,8.480252E0,5.154472E0,1.2145128E1,4.0762134E0,4.237723E0,2.2567153E0,3.1375044E1,6.0556803E0,4.5221395E0,6.380267E0,2.0999854E0,2.7973228E0,2.3571494E0,5.8998466E0,6.245282E0,2.164066E0,2.0736568E0,1.1245913E1,2.0129131E1],"tree_param":{"num_deleted":"0","num_feature":"24","num_nodes":"27","size_leaf_vector":"1"}},{"base_weights":[-7.6094545E-2,-5.9793884E-1,6.259029E-2,-8.3372813E-1,3.210005E-2,3.199124E-1,-2.6021606E-1,-3.005227E-1,-1.135967E-1,-2.3902214E-1,6.0693264E-1,-1.1613687E0,4.8659455E-2,-5.628955E-2,-2.7987363E-3,6.793955E-3,-9.116682E-2,-1.46699725E-2,9.165427E-2,-2.724317E-2,-1.4740601E-1,6.302966E-2,-2.3770424E-2],"categories":[],"categories_nodes":[],"categories_segments":[],"categories_sizes":[],"default_left":[0,1,0,0,0,1,0,1,0,1,0,0,1,0,0,0,0,0,0,0,0,0,0],"id":30,"left_children":[1,3,5,7,-1,9,11,13,-1,15,17,19,21,-1,-1,-1,-1,-1,-1,-1,-1,-1,-1],"loss_changes":[5.54334E0,3.7492065E0,5.151051E0,1.7641268E0,0E0,5.663211E0,7.7424426E0,4.1945058E-1,0E0,2.6197338E0,5.503214E0,1.5688448E0,3.7348988E0,0E0,0E0,0E0,0E0,0E0,0E0,0E0,0E0,0E0,0E0],"parents":[2147483647,0,0,1,1,2,2,3,3,5,5,6,6,7,7,9,9,10,10,11,11,12,12],"right_children":[2,4,6,8,-1,10,12,14,-1,16,18,20,22,-1,-1,-1,-1,-1,-1,-1,-1,-1,-1],"split_conditions":[6.363636E-1,1E0,1.0000001E0,5.6507885E-1,3.210005E-2,7.358301E-1,6.715665E-1,6.363636E-1,-1.135967E-1,5.9219676E-1,9.326375E-1,4.7411123E-1,6.4329845E-1,-5.628955E-2,-2.7987363E-3,6.793955E-3,-9.116682E-2,-1.46699725E-2,9.165427E-2,-2.724317E-2,-1.4740601E-1,6.302966E-2,-2.3770424E-2],"split_indices":[17,8,7,7,0,22,0,19,0,22,3,0,5,0,0,0,0,0,0,0,0,0,0],"split_type":[0,0,0,0,0,0,0,0,0,0,0,0,0,0,0,0,0,0,0,0,0,0,0],"sum_hessian":[7.5078094E1,1.5068131E1,6.000996E1,1.2065094E1,3.003037E0,3.3396896E1,2.6613064E1,5.086278E0,6.978816E0,1.1387825E1,2.2009073E1,6.088809E0,2.0524256E1,2.048633E0,3.0376449E0,8.436726E0,2.951099E0,6.562135E0,1.5446938E1,2.0713902E0,4.017419E0,6.374958E0,1.4149297E1],"tree_param":{"num_deleted":"0","num_feature":"24","num_nodes":"23","size_leaf_vector":"1"}},{"base_weights":[-1.6323108E-2,-3.0795017E-1,2.762798E-1,-9.5824486E-1,-2.5963502E-2,-7.4914265E-1,4.322843E-1,-3.1815477E-2,-1.058469E-1,-4.195245E-1,4.6588692E-1,-1.4518025E-2,-1.1988311E-1,-2.4748863E-1,6.005887E-1,1.3220658E-3,-8.91761E-2,-3.0308506E-2,7.888848E-2,-7.542386E-2,5.0352376E-2,3.2056912E-3,8.744415E-2],"categories":[],"categories_nodes":[],"categories_segments":[],"categories_sizes":[],"default_left":[0,0,0,0,1,0,0,0,0,0,1,0,0,1,1,0,0,0,0,0,0,0,0],"id":31,"left_children":[1,3,5,7,9,11,13,-1,-1,15,17,-1,-1,19,21,-1,-1,-1,-1,-1,-1,-1,-1],"loss_changes":[6.623718E0,7.0992727E0,6.5269423E0,4.1531372E-1,5.640106E0,1.315989E0,4.0717463E0,0E0,0E0,3.3123634E0,3.4620764E0,0E0,0E0,3.2391248E0,4.29669E0,0E0,0E0,0E0,0E0,0E0,0E0,0E0,0E0],"parents":[2147483647,0,0,1,1,2,2,3,3,4,4,5,5,6,6,9,9,10,10,13,13,14,14],"right_children":[2,4,6,8,10,12,14,-1,-1,16,18,-1,-1,20,22,-1,-1,-1,-1,-1,-1,-1,-1],"split_conditions":[9.9521846E-1,1E0,6.25E-1,6.7289716E-1,7.5E-1,9.9999994E-1,9.576248E-1,-3.1815477E-2,-1.058469E-1,1E0,9.999999E-1,-1.4518025E-2,-1.1988311E-1,9.9999994E-1,5.833333E-1,1.3220658E-3,-8.91761E-2,-3.0308506E-2,7.888848E-2,-7.542386E-2,5.0352376E-2,3.2056912E-3,8.744415E-2],"split_indices":[4,11,11,4,17,6,0,0,0,21,22,0,0,5,17,0,0,0,0,0,0,0,0],"split_type":[0,0,0,0,0,0,0,0,0,0,0,0,0,0,0,0,0,0,0,0,0,0,0],"sum_hessian":[7.5626816E1,3.78503E1,3.7776516E1,1.0723181E1,2.712712E1,4.486243E0,3.3290276E1,2.0168464E0,8.706334E0,1.5150935E1,1.1976184E1,2.4792657E0,2.006977E0,6.513221E0,2.6777054E1,8.413254E0,6.7376814E0,3.5607169E0,8.415467E0,3.8864923E0,2.6267285E0,9.068164E0,1.7708889E1],"tree_param":{"num_deleted":"0","num_feature":"24","num_nodes":"23","size_leaf_vector":"1"}},{"base_weights":[-2.0200225E-2,-5.288092E-1,1.4020911E-1,-1.01892225E-1,-1.2990196E-2,-8.778125E-2,2.2476189E-1,2.5394222E-1,-7.279468E-2,-7.7993505E-2,3.0789936E-1,-5.035439E-2,6.691884E-2,3.7600752E-3,5.7163697E-2],"categories":[],"categories_nodes":[],"categories_segments":[],"categories_sizes":[],"default_left":[0,1,0,0,0,0,1,0,0,0,0,0,0,0,0],"id":32,"left_children":[1,3,5,-1,7,-1,9,11,-1,-1,13,-1,-1,-1,-1],"loss_changes":[6.3505907E0,4.702961E0,5.299543E0,0E0,2.1127965E0,0E0,4.878129E0,2.8838763E0,0E0,0E0,3.6854448E0,0E0,0E0,0E0,0E0],"parents":[2147483647,0,0,1,1,2,2,4,4,6,6,7,7,10,10],"right_children":[2,4,6,-1,8,-1,10,12,-1,-1,14,-1,-1,-1,-1],"split_conditions":[7.2727275E-1,6.23878E-1,6E-1,-1.01892225E-1,1.0000001E0,-8.778125E-2,6.923077E-1,7.1428573E-1,-7.279468E-2,-7.7993505E-2,1E0,-5.035439E-2,6.691884E-2,3.7600752E-3,5.7163697E-2],"split_indices":[17,8,11,0,0,0,13,14,0,0,0,0,0,0,0],"split_type":[0,0,0,0,0,0,0,0,0,0,0,0,0,0,0],"sum_hessian":[7.593079E1,1.7655134E1,5.8275658E1,8.553014E0,9.102121E0,3.7495058E0,5.4526154E1,7.0971727E0,2.0049484E0,3.5266118E0,5.0999542E1,2.4377055E0,4.659467E0,2.5750753E1,2.5248789E1],"tree_param":{"num_deleted":"0","num_feature":"24","num_nodes":"15","size_leaf_vector":"1"}},{"base_weights":[-1.2563123E-2,-6.356861E-1,1.3468477E-1,-1.0658659E-1,-2.8190875E-1,-2.1625504E-1,3.662128E-1,4.4138793E-2,-7.037827E-1,-1.00482695E-1,6.027182E-2,-2.066775E-1,6.7018896E-1,-1.1101911E-1,-5.7794596E-3,-5.8752682E-2,5.5198397E-2,-8.243512E-2,2.2829754E-2,-7.846826E-3,8.30219E-2],"categories":[],"categories_nodes":[],"categories_segments":[],"categories_sizes":[],"default_left":[0,1,0,0,0,0,0,0,1,0,1,1,0,0,0,0,0,0,0,0,0],"id":33,"left_children":[1,3,5,-1,7,9,11,-1,13,-1,15,17,19,-1,-1,-1,-1,-1,-1,-1,-1],"loss_changes":[6.4015174E0,1.7284875E0,4.670241E0,0E0,2.9578028E0,5.0952897E0,6.131701E0,0E0,1.4755433E0,0E0,6.0698338E0,3.5989008E0,2.7872076E0,0E0,0E0,0E0,0E0,0E0,0E0,0E0,0E0],"parents":[2147483647,0,0,1,1,2,2,4,4,5,5,6,6,8,8,10,10,11,11,12,12],"right_children":[2,4,6,-1,8,10,12,-1,14,-1,16,18,20,-1,-1,-1,-1,-1,-1,-1,-1],"split_conditions":[9.576248E-1,9.2190427E-1,8E-1,-1.0658659E-1,1E0,8.666667E-1,9.230769E-1,4.4138793E-2,9.9999994E-1,-1.00482695E-1,7.6614314E-1,7.2727275E-1,9.0517724E-1,-1.1101911E-1,-5.7794596E-3,-5.8752682E-2,5.5198397E-2,-8.243512E-2,2.2829754E-2,-7.846826E-3,8.30219E-2],"split_indices":[0,4,11,0,4,14,13,0,5,0,9,17,1,0,0,0,0,0,0,0,0],"split_type":[0,0,0,0,0,0,0,0,0,0,0,0,0,0,0,0,0,0,0,0,0],"sum_hessian":[6.7835495E1,1.2331976E1,5.5503513E1,4.6567407E0,7.6752357E0,2.2088589E1,3.341493E1,2.81047E0,4.8647656E0,5.050976E0,1.7037613E1,1.1694643E1,2.1720284E1,2.5450268E0,2.3197389E0,7.2678432E0,9.769769E0,4.462554E0,7.232089E0,3.9149427E0,1.7805342E1],"tree_param":{"num_deleted":"0","num_feature":"24","num_nodes":"21","size_leaf_vector":"1"}},{"base_weights":[1.9370662E-2,-1.01831175E-1,8.249552E-2,-3.4684834E-1,2.6068154E-1,-8.0228555E-1,1.591149E-2,3.3170438E-1,-6.652264E-2,-1.0226589E-1,-1.3830808E-2,4.622936E-2,-4.590651E-2,-1.4572213E-2,5.0361942E-2],"categories":[],"categories_nodes":[],"categories_segments":[],"categories_sizes":[],"default_left":[0,0,1,1,0,1,1,0,0,0,0,0,0,0,0],"id":34,"left_children":[1,-1,3,5,7,9,11,13,-1,-1,-1,-1,-1,-1,-1],"loss_changes":[4.5600033E0,0E0,5.0890307E0,3.2497547E0,3.2947085E0,1.1324658E0,2.7324152E0,3.691586E0,0E0,0E0,0E0,0E0,0E0,0E0,0E0],"parents":[2147483647,0,0,2,2,3,3,4,4,5,5,6,6,7,7],"right_children":[2,-1,4,6,8,10,12,14,-1,-1,-1,-1,-1,-1,-1],"split_conditions":[5.3846157E-1,-1.01831175E-1,9.960308E-1,9.999997E-1,1.0000002E0,7.542168E-1,9.874879E-1,9.333889E-1,-6.652264E-2,-1.0226589E-1,-1.3830808E-2,4.622936E-2,-4.590651E-2,-1.4572213E-2,5.0361942E-2],"split_indices":[11,0,3,8,4,5,7,22,0,0,0,0,0,0,0],"split_type":[0,0,0,0,0,0,0,0,0,0,0,0,0,0,0],"sum_hessian":[6.733212E1,2.993388E0,6.433873E1,1.8592667E1,4.5746067E1,7.7061467E0,1.088652E1,4.308308E1,2.6629846E0,5.380249E0,2.3258982E0,5.625958E0,5.260562E0,1.1446707E1,3.1636374E1],"tree_param":{"num_deleted":"0","num_feature":"24","num_nodes":"15","size_leaf_vector":"1"}},{"base_weights":[5.750476E-2,-7.1380293E-1,1.6631427E-1,-9.1271855E-2,-1.3144259E-2,2.885505E-1,-4.3763813E-1,-4.398979E-1,3.8575003E-1,5.5517968E-2,-9.0161604E-1,1.2471234E-2,-8.030314E-2,-8.691158E-3,6.254067E-2,-2.77731E-2,-1.1420291E-1],"categories":[],"categories_nodes":[],"categories_segments":[],"categories_sizes":[],"default_left":[0,1,0,0,0,0,1,1,0,0,0,0,0,0,0,0,0],"id":35,"left_children":[1,3,5,-1,-1,7,9,11,13,-1,15,-1,-1,-1,-1,-1,-1],"loss_changes":[6.13568E0,9.286823E-1,4.824603E0,0E0,0E0,3.9599886E0,5.6182594E0,1.488035E0,5.464713E0,0E0,8.756256E-1,0E0,0E0,0E0,0E0,0E0,0E0],"parents":[2147483647,0,0,1,1,2,2,5,5,6,6,7,7,8,8,10,10],"right_children":[2,4,6,-1,-1,8,10,12,14,-1,16,-1,-1,-1,-1,-1,-1],"split_conditions":[6.5600187E-1,9.9999994E-1,1E0,-9.1271855E-2,-1.3144259E-2,6.25E-1,6.720324E-1,7.9826075E-1,9.999998E-1,5.5517968E-2,9.9999994E-1,1.2471234E-2,-8.030314E-2,-8.691158E-3,6.254067E-2,-2.77731E-2,-1.1420291E-1],"split_indices":[0,5,23,0,0,11,4,5,3,0,0,0,0,0,0,0,0],"split_type":[0,0,0,0,0,0,0,0,0,0,0,0,0,0,0,0,0],"sum_hessian":[7.069402E1,8.05255E0,6.2641468E1,5.5794983E0,2.473052E0,5.2531624E1,1.0109845E1,5.7692275E0,4.6762398E1,3.1573014E0,6.9525437E0,2.5151565E0,3.254071E0,1.5947459E1,3.0814938E1,2.5334148E0,4.4191284E0],"tree_param":{"num_deleted":"0","num_feature":"24","num_nodes":"17","size_leaf_vector":"1"}},{"base_weights":[-1.4141194E-2,-5.9965366E-1,1.1339749E-1,-9.79138E-1,1.2353662E-2,-1.603333E-1,3.871333E-1,-4.424109E-2,-1.21399276E-1,-5.0201565E-2,4.4173338E-2,-6.17573E-1,1.7526142E-1,-5.989146E-2,5.280513E-1,-1.4668243E-2,-9.9783085E-2,-5.7650108E-2,3.9179575E-2,-5.6258934E-3,7.2844855E-2],"categories":[],"categories_nodes":[],"categories_segments":[],"categories_sizes":[],"default_left":[0,1,1,0,1,0,0,0,0,0,0,0,0,0,0,0,0,0,0,0,0],"id":36,"left_children":[1,3,5,7,9,11,13,-1,-1,-1,-1,15,17,-1,19,-1,-1,-1,-1,-1,-1],"loss_changes":[5.4900064E0,3.065186E0,4.592463E0,4.873314E-1,1.5511118E0,4.8556294E0,4.5575504E0,0E0,0E0,0E0,0E0,2.238132E0,3.2571254E0,0E0,3.2304125E0,0E0,0E0,0E0,0E0,0E0,0E0],"parents":[2147483647,0,0,1,1,2,2,3,3,4,4,5,5,6,6,11,11,12,12,14,14],"right_children":[2,4,6,8,10,12,14,-1,-1,-1,-1,16,18,-1,20,-1,-1,-1,-1,-1,-1],"split_conditions":[9.576248E-1,9.980182E-1,8.199329E-1,9.9999994E-1,9.999999E-1,9.670029E-1,7.1244997E-1,-4.424109E-2,-1.21399276E-1,-5.0201565E-2,4.4173338E-2,1E0,9.9999976E-1,-5.989146E-2,8.999865E-1,-1.4668243E-2,-9.9783085E-2,-5.7650108E-2,3.9179575E-2,-5.6258934E-3,7.2844855E-2],"split_indices":[0,5,22,7,7,6,9,0,0,0,0,21,5,0,21,0,0,0,0,0,0],"split_type":[0,0,0,0,0,0,0,0,0,0,0,0,0,0,0,0,0,0,0,0,0],"sum_hessian":[7.160759E1,1.2145865E1,5.9461727E1,7.1268654E0,5.0189996E0,2.9938276E1,2.9523453E1,3.0470433E0,4.079822E0,2.2065406E0,2.8124592E0,1.2316757E1,1.762152E1,3.2852728E0,2.6238178E1,6.1217093E0,6.1950483E0,3.56884E0,1.4052679E1,6.884343E0,1.9353836E1],"tree_param":{"num_deleted":"0","num_feature":"24","num_nodes":"21","size_leaf_vector":"1"}},{"base_weights":[2.1049165E-4,-5.1393074E-1,1.4265917E-1,-2.5059393E-1,-1.00267686E-1,-7.363014E-1,2.52606E-1,-8.9716166E-2,7.811434E-2,-9.191432E-2,-2.3593364E-2,3.1571773E-1,-6.391584E-2,-5.5138655E-2,3.662054E-2,6.0713296E-3,6.97461E-2],"categories":[],"categories_nodes":[],"categories_segments":[],"categories_sizes":[],"default_left":[0,1,0,1,0,0,0,0,1,0,0,0,0,0,0,0,0],"id":37,"left_children":[1,3,5,7,-1,9,11,-1,13,-1,-1,15,-1,-1,-1,-1,-1],"loss_changes":[5.177291E0,1.7226276E0,5.535245E0,2.4716473E0,0E0,3.6954427E-1,3.012647E0,0E0,1.7273203E0,0E0,0E0,4.5632772E0,0E0,0E0,0E0,0E0,0E0],"parents":[2147483647,0,0,1,1,2,2,3,3,5,5,6,6,8,8,11,11],"right_children":[2,4,6,8,-1,10,12,-1,14,-1,-1,16,-1,-1,-1,-1,-1],"split_conditions":[7.692308E-1,9.164918E-1,7.879322E-1,7.366211E-1,-1.00267686E-1,6.8421054E-1,1.0000002E0,-8.9716166E-2,5.3333336E-1,-9.191432E-2,-2.3593364E-2,9.8464394E-1,-6.391584E-2,-5.5138655E-2,3.662054E-2,6.0713296E-3,6.97461E-2],"split_indices":[19,7,8,6,0,16,1,0,18,0,0,1,0,0,0,0,0],"split_type":[0,0,0,0,0,0,0,0,0,0,0,0,0,0,0,0,0],"sum_hessian":[6.868954E1,1.4336577E1,5.4352962E1,1.0299777E1,4.0368E0,5.4095874E0,4.8943375E1,2.8885858E0,7.4111915E0,3.3489113E0,2.0606763E0,4.631177E1,2.6316028E0,2.039907E0,5.3712845E0,2.8459723E1,1.7852049E1],"tree_param":{"num_deleted":"0","num_feature":"24","num_nodes":"17","size_leaf_vector":"1"}},{"base_weights":[-3.6623243E-2,-6.939222E-1,1.0445989E-1,-8.828978E-1,8.4015244E-4,-1.8097234E-1,4.153333E-1,-2.5193816E-2,-1.0728524E0,-5.9360224E-1,2.4348263E-1,-8.525908E-2,8.177326E-1,-1.3509017E-1,-4.7998287E-2,-1.2881114E-1,-4.6502748E-3,-5.840546E-2,4.3609638E-2,-5.565914E-2,4.808448E-2,2.1251237E-2,9.3598545E-2],"categories":[],"categories_nodes":[],"categories_segments":[],"categories_sizes":[],"default_left":[0,1,0,0,0,1,1,0,0,1,0,1,0,0,0,0,0,0,0,0,0,0,0],"id":38,"left_children":[1,3,5,7,-1,9,11,-1,13,15,17,19,21,-1,-1,-1,-1,-1,-1,-1,-1,-1,-1],"loss_changes":[6.142285E0,1.5599065E0,4.9339056E0,8.355546E-1,0E0,5.2662234E0,5.4105954E0,0E0,4.700346E-1,5.684758E0,2.665403E0,3.6618567E0,8.598032E-1,0E0,0E0,0E0,0E0,0E0,0E0,0E0,0E0,0E0,0E0],"parents":[2147483647,0,0,1,1,2,2,3,3,5,5,6,6,8,8,9,9,10,10,11,11,12,12],"right_children":[2,4,6,8,-1,10,12,-1,14,16,18,20,22,-1,-1,-1,-1,-1,-1,-1,-1,-1,-1],"split_conditions":[7.1428573E-1,1.0000001E0,9.5984995E-1,5.538945E-1,8.4015244E-4,9.9999994E-1,7.716553E-1,-2.5193816E-2,6.5319085E-1,9.989246E-1,6E-1,7.5E-1,7.9763675E-1,-1.3509017E-1,-4.7998287E-2,-1.2881114E-1,-4.6502748E-3,-5.840546E-2,4.3609638E-2,-5.565914E-2,4.808448E-2,2.1251237E-2,9.3598545E-2],"split_indices":[10,5,1,0,0,7,6,0,0,6,11,17,4,0,0,0,0,0,0,0,0,0,0],"split_type":[0,0,0,0,0,0,0,0,0,0,0,0,0,0,0,0,0,0,0,0,0,0,0],"sum_hessian":[6.4453995E1,1.0697298E1,5.3756695E1,8.226634E0,2.4706647E0,2.8242947E1,2.5513748E1,2.441887E0,5.7847466E0,1.4118893E1,1.4124054E1,1.1720876E1,1.3792871E1,3.0675282E0,2.7172184E0,5.6245E0,8.494393E0,2.2830403E0,1.1841013E1,6.4049683E0,5.315908E0,2.7116585E0,1.1081213E1],"tree_param":{"num_deleted":"0","num_feature":"24","num_nodes":"23","size_leaf_vector":"1"}},{"base_weights":[-4.5027256E-2,-5.819792E-1,7.139375E-2,-8.277101E-1,-4.201739E-3,-1.9834283E-1,3.623726E-1,-2.7958905E-2,-1.00398056E-1,-8.401906E-1,7.142645E-2,-3.8125787E-2,8.457583E-1,1.2003124E-2,-1.1820922E-1,-6.627949E-2,4.2940672E-2,-4.778723E-2,3.7976068E-2,4.587266E-3,1.0038109E-1],"categories":[],"categories_nodes":[],"categories_segments":[],"categories_sizes":[],"default_left":[0,1,0,0,0,1,1,0,0,0,1,1,0,0,0,0,0,0,0,0,0],"id":39,"left_children":[1,3,5,7,-1,9,11,-1,-1,13,15,17,19,-1,-1,-1,-1,-1,-1,-1,-1],"loss_changes":[4.057564E0,1.4985926E0,4.2856345E0,4.814763E-1,0E0,4.995966E0,5.1006165E0,0E0,0E0,2.937098E0,5.8022146E0,2.9883888E0,1.4591208E0,0E0,0E0,0E0,0E0,0E0,0E0,0E0,0E0],"parents":[2147483647,0,0,1,1,2,2,3,3,5,5,6,6,9,9,10,10,11,11,12,12],"right_children":[2,4,6,8,-1,10,12,-1,-1,14,16,18,20,-1,-1,-1,-1,-1,-1,-1,-1],"split_conditions":[7.1428573E-1,9.9999994E-1,9.5984995E-1,1.0000001E0,-4.201739E-3,8.2217646E-1,8.508481E-1,-2.7958905E-2,-1.00398056E-1,1E0,9.230769E-1,8E-1,5.3333336E-1,1.2003124E-2,-1.1820922E-1,-6.627949E-2,4.2940672E-2,-4.778723E-2,3.7976068E-2,4.587266E-3,1.0038109E-1],"split_indices":[10,5,1,8,0,7,6,0,0,9,14,19,17,0,0,0,0,0,0,0,0],"split_type":[0,0,0,0,0,0,0,0,0,0,0,0,0,0,0,0,0,0,0,0,0],"sum_hessian":[6.324338E1,1.0556451E1,5.268693E1,6.8886123E0,3.6678386E0,2.750668E1,2.5180254E1,2.3055465E0,4.5830655E0,7.514159E0,1.999252E1,1.4274535E1,1.0905718E1,2.1434016E0,5.3707576E0,6.2736697E0,1.3718849E1,6.8854036E0,7.3891315E0,2.0122397E0,8.893478E0],"tree_param":{"num_deleted":"0","num_feature":"24","num_nodes":"21","size_leaf_vector":"1"}},{"base_weights":[-6.932037E-2,-3.604279E-1,1.3494505E-1,-7.5347865E-1,-7.107647E-2,-3.0113634E-1,3.43368E-1,-9.0388946E-2,-2.2388127E-2,2.2820304E-1,-5.8329946E-1,-8.558821E-1,3.2073396E-1,-3.651943E-2,4.6585137E-1,-4.5962427E-2,4.2436734E-2,7.576966E-3,-9.029616E-2,-1.1168196E-1,-3.0412838E-2,7.598422E-2,-2.4311382E-2,-6.2234737E-3,6.499303E-2],"categories":[],"categories_nodes":[],"categories_segments":[],"categories_sizes":[],"default_left":[1,1,1,0,1,0,1,0,0,1,1,0,0,0,0,0,0,0,0,0,0,0,0,0,0],"id":40,"left_children":[1,3,5,7,9,11,13,-1,-1,15,17,19,21,-1,23,-1,-1,-1,-1,-1,-1,-1,-1,-1,-1],"loss_changes":[3.9735508E0,3.0728388E0,3.6949916E0,7.178345E-1,2.7296207E0,4.8667665E0,2.5311186E0,0E0,0E0,1.7345561E0,1.4436843E0,7.1251774E-1,1.9187343E0,0E0,2.3379307E0,0E0,0E0,0E0,0E0,0E0,0E0,0E0,0E0,0E0,0E0],"parents":[2147483647,0,0,1,1,2,2,3,3,4,4,5,5,6,6,9,9,10,10,11,11,12,12,14,14],"right_children":[2,4,6,8,10,12,14,-1,-1,16,18,20,22,-1,24,-1,-1,-1,-1,-1,-1,-1,-1,-1,-1],"split_conditions":[6.875E-1,8.2256025E-1,5.833333E-1,1.0000001E0,5.625E-1,1.0000002E0,9.9999976E-1,-9.0388946E-2,-2.2388127E-2,8.999865E-1,6.1538464E-1,9.850591E-1,9.999999E-1,-3.651943E-2,7.160019E-1,-4.5962427E-2,4.2436734E-2,7.576966E-3,-9.029616E-2,-1.1168196E-1,-3.0412838E-2,7.598422E-2,-2.4311382E-2,-6.2234737E-3,6.499303E-2],"split_indices":[16,22,17,4,16,5,3,0,0,21,17,1,9,0,22,0,0,0,0,0,0,0,0,0,0],"split_type":[0,0,0,0,0,0,0,0,0,0,0,0,0,0,0,0,0,0,0,0,0,0,0,0,0],"sum_hessian":[6.500574E1,2.6489662E1,3.8516075E1,1.055198E1,1.5937681E1,1.2311663E1,2.6204412E1,7.6675677E0,2.8844123E0,1.0409908E1,5.5277734E0,6.308129E0,6.0035334E0,3.5700734E0,2.2634338E1,2.0120013E0,8.397907E0,2.0546112E0,3.473162E0,3.5874236E0,2.7207053E0,3.1796856E0,2.8238478E0,6.0215664E0,1.6612772E1],"tree_param":{"num_deleted":"0","num_feature":"24","num_nodes":"25","size_leaf_vector":"1"}},{"base_weights":[-7.572477E-2,-3.1047168E-1,1.9052339E-1,-1.0297859E-1,-1.4715593E-1,3.016693E-1,-6.241398E-2,-4.8736352E-1,3.0252132E-1,-6.382995E-2,4.633965E-1,5.192512E-3,-9.793416E-2,-2.4549201E-2,8.7547004E-2,1.5505115E-2,8.069938E-2],"categories":[],"categories_nodes":[],"categories_segments":[],"categories_sizes":[],"default_left":[1,1,0,0,1,0,0,0,0,0,0,0,0,0,0,0,0],"id":41,"left_children":[1,3,5,-1,7,9,-1,11,13,-1,15,-1,-1,-1,-1,-1,-1],"loss_changes":[3.8543177E0,3.6840508E0,2.8206124E0,0E0,4.396639E0,4.287123E0,0E0,4.347802E0,4.1648583E0,0E0,2.3096018E0,0E0,0E0,0E0,0E0,0E0,0E0],"parents":[2147483647,0,0,1,1,2,2,4,4,5,5,7,7,8,8,10,10],"right_children":[2,4,6,-1,8,10,-1,12,14,-1,16,-1,-1,-1,-1,-1,-1],"split_conditions":[9.999999E-1,6.8454754E-1,1.0000002E0,-1.0297859E-1,9.908015E-1,7.2618234E-1,-6.241398E-2,1E0,1.0000002E0,-6.382995E-2,8.857346E-1,5.192512E-3,-9.793416E-2,-2.4549201E-2,8.7547004E-2,1.5505115E-2,8.069938E-2],"split_indices":[22,21,4,0,6,3,0,21,5,0,4,0,0,0,0,0,0],"split_type":[0,0,0,0,0,0,0,0,0,0,0,0,0,0,0,0,0],"sum_hessian":[5.972174E1,3.1650173E1,2.807157E1,4.874638E0,2.6775536E1,2.5255604E1,2.8159657E0,1.5195459E1,1.1580076E1,3.2749007E0,2.1980703E1,7.675886E0,7.519573E0,6.2109566E0,5.369119E0,1.2349488E1,9.631215E0],"tree_param":{"num_deleted":"0","num_feature":"24","num_nodes":"17","size_leaf_vector":"1"}},{"base_weights":[1.6159227E-2,1.1495274E-1,-5.3194124E-1,1.9798742E-1,-6.547184E-1,3.878988E-2,-1.02043964E-1,-8.2558386E-2,2.7480212E-1,3.6590144E-3,-1.1020007E-1,-6.4577297E-3,4.528453E-2],"categories":[],"categories_nodes":[],"categories_segments":[],"categories_sizes":[],"default_left":[0,0,1,1,1,0,0,0,0,0,0,0,0],"id":42,"left_children":[1,3,5,7,9,-1,-1,-1,11,-1,-1,-1,-1],"loss_changes":[3.4166198E0,3.537675E0,4.7280912E0,4.07175E0,1.7177825E0,0E0,0E0,0E0,2.82313E0,0E0,0E0,0E0,0E0],"parents":[2147483647,0,0,1,1,2,2,3,3,4,4,8,8],"right_children":[2,4,6,8,10,-1,-1,-1,12,-1,-1,-1,-1],"split_conditions":[1E0,1.0000002E0,7.317566E-1,7.2618234E-1,9.897737E-1,3.878988E-2,-1.02043964E-1,-8.2558386E-2,8E-1,3.6590144E-3,-1.1020007E-1,-6.4577297E-3,4.528453E-2],"split_indices":[23,4,4,3,7,0,0,0,11,0,0,0,0],"split_type":[0,0,0,0,0,0,0,0,0,0,0,0,0],"sum_hessian":[6.0967644E1,5.232626E1,8.641385E0,4.7901276E1,4.4249854E0,3.0687952E0,5.5725894E0,2.6633866E0,4.523789E1,2.099007E0,2.3259785E0,1.5785477E1,2.9452412E1],"tree_param":{"num_deleted":"0","num_feature":"24","num_nodes":"13","size_leaf_vector":"1"}},{"base_weights":[-9.902652E-3,-3.3591723E-1,2.143996E-1,7.79188E-2,-6.0301733E-1,-8.422484E-2,3.002432E-1,-5.626914E-1,6.3372195E-1,-1.8846887E-1,-9.0324885E-1,-1.7502451E-1,4.452369E-1,-8.571071E-2,-3.8166859E-3,2.3437273E-2,7.893548E-2,-4.7178287E-2,4.046962E-2,-3.1105021E-2,-1.264839E-1,-5.534177E-2,5.1045705E-2,-1.8497579E-2,5.924436E-2],"categories":[],"categories_nodes":[],"categories_segments":[],"categories_sizes":[],"default_left":[1,0,0,0,0,0,0,1,0,0,0,0,0,0,0,0,0,0,0,0,0,0,0,0,0],"id":43,"left_children":[1,3,5,7,9,-1,11,13,15,17,19,21,23,-1,-1,-1,-1,-1,-1,-1,-1,-1,-1,-1,-1],"loss_changes":[4.513676E0,2.8265626E0,3.5721455E0,4.183934E0,1.7460918E0,0E0,2.4609437E0,8.2025373E-1,2.019527E-1,1.4901309E0,1.4622722E0,2.5654666E0,2.5939698E0,0E0,0E0,0E0,0E0,0E0,0E0,0E0,0E0,0E0,0E0,0E0,0E0],"parents":[2147483647,0,0,1,1,2,2,3,3,4,4,6,6,7,7,8,8,9,9,10,10,11,11,12,12],"right_children":[2,4,6,8,10,-1,12,14,16,18,20,22,24,-1,-1,-1,-1,-1,-1,-1,-1,-1,-1,-1,-1],"split_conditions":[7.5E-1,9.9999994E-1,7.064679E-1,1.0000002E0,1E0,-8.422484E-2,7.218001E-1,6.68671E-1,9.415091E-1,9.052999E-1,6.777773E-1,8E-1,6.3182765E-1,-8.571071E-2,-3.8166859E-3,2.3437273E-2,7.893548E-2,-4.7178287E-2,4.046962E-2,-3.1105021E-2,-1.264839E-1,-5.534177E-2,5.1045705E-2,-1.8497579E-2,5.924436E-2],"split_indices":[17,21,9,5,9,0,22,22,21,9,7,11,0,0,0,0,0,0,0,0,0,0,0,0,0],"split_type":[0,0,0,0,0,0,0,0,0,0,0,0,0,0,0,0,0,0,0,0,0,0,0,0,0],"sum_hessian":[5.9739918E1,2.4146423E1,3.5593494E1,9.749363E0,1.4397061E1,2.0123284E0,3.3581165E1,4.5233855E0,5.225978E0,6.730955E0,7.6661057E0,7.8015924E0,2.5779573E1,2.491078E0,2.0323074E0,2.168249E0,3.0577288E0,4.6937227E0,2.0372324E0,3.6115212E0,4.0545845E0,5.1508994E0,2.650693E0,4.832857E0,2.0946716E1],"tree_param":{"num_deleted":"0","num_feature":"24","num_nodes":"25","size_leaf_vector":"1"}},{"base_weights":[5.7830572E-2,-8.127494E-2,1.455833E-1,-6.2329906E-1,2.31405E-1,-8.233644E-3,-9.1748804E-2,-6.4002955E-1,3.251663E-1,-8.6067006E-2,-2.0445164E-2,3.9265383E-2,-7.132852E-2],"categories":[],"categories_nodes":[],"categories_segments":[],"categories_sizes":[],"default_left":[0,0,0,0,0,0,0,1,1,0,0,0,0],"id":44,"left_children":[1,-1,3,5,7,-1,-1,9,11,-1,-1,-1,-1],"loss_changes":[4.777649E0,0E0,3.8561716E0,8.664596E-1,4.402424E0,0E0,0E0,3.356607E-1,3.574656E0,0E0,0E0,0E0,0E0],"parents":[2147483647,0,0,2,2,3,3,4,4,7,7,8,8],"right_children":[2,-1,4,6,8,-1,-1,10,12,-1,-1,-1,-1],"split_conditions":[6E-1,-8.127494E-2,5.714286E-1,9.9999994E-1,6.687019E-1,-8.233644E-3,-9.1748804E-2,6.25E-1,1.0000002E0,-8.6067006E-2,-2.0445164E-2,3.9265383E-2,-7.132852E-2],"split_indices":[11,0,19,21,21,0,0,15,1,0,0,0,0],"split_type":[0,0,0,0,0,0,0,0,0,0,0,0,0],"sum_hessian":[5.9989326E1,4.736592E0,5.5252735E1,4.919136E0,5.03336E1,2.1836529E0,2.7354834E0,4.323554E0,4.6010044E1,2.2220538E0,2.1015003E0,4.3786316E1,2.223726E0],"tree_param":{"num_deleted":"0","num_feature":"24","num_nodes":"13","size_leaf_vector":"1"}},{"base_weights":[-2.6238386E-2,-2.727884E-1,1.8475384E-1,-9.899963E-2,-2.2371197E-2,-7.786225E-2,2.8460944E-1,-6.5061516E-1,3.4371358E-1,-3.9263573E-1,4.3987915E-1,-9.41134E-3,-8.924817E-2,-4.8077326E-2,5.4422356E-2,1.7443452E-2,-9.30421E-2,6.833798E-2,-3.0369101E-2],"categories":[],"categories_nodes":[],"categories_segments":[],"categories_sizes":[],"default_left":[0,0,0,0,0,0,0,0,0,0,0,0,0,0,0,0,0,0,0],"id":45,"left_children":[1,3,5,-1,7,-1,9,11,13,15,17,-1,-1,-1,-1,-1,-1,-1,-1],"loss_changes":[3.0484912E0,4.8236675E0,3.2665117E0,0E0,5.0583787E0,0E0,3.2655463E0,1.0042701E0,2.565567E0,1.99631E0,4.625043E0,0E0,0E0,0E0,0E0,0E0,0E0,0E0,0E0],"parents":[2147483647,0,0,1,1,2,2,4,4,6,6,7,7,8,8,9,9,10,10],"right_children":[2,4,6,-1,8,-1,10,12,14,16,18,-1,-1,-1,-1,-1,-1,-1,-1],"split_conditions":[8.75E-1,1E0,5.6859016E-1,-9.899963E-2,7.5E-1,-7.786225E-2,6.5600187E-1,5.4545456E-1,6.715665E-1,1.0000001E0,1.0000004E0,-9.41134E-3,-8.924817E-2,-4.8077326E-2,5.4422356E-2,1.7443452E-2,-9.30421E-2,6.833798E-2,-3.0369101E-2],"split_indices":[14,11,22,0,17,0,0,16,0,4,7,0,0,0,0,0,0,0,0],"split_type":[0,0,0,0,0,0,0,0,0,0,0,0,0,0,0,0,0,0,0],"sum_hessian":[5.663331E1,2.598097E1,3.065234E1,5.9594393E0,2.002153E1,2.240378E0,2.841196E1,7.085229E0,1.2936301E1,5.0139055E0,2.3398056E1,2.5673108E0,4.517918E0,2.2571716E0,1.067913E1,2.7693713E0,2.2445343E0,1.7686966E1,5.7110906E0],"tree_param":{"num_deleted":"0","num_feature":"24","num_nodes":"19","size_leaf_vector":"1"}},{"base_weights":[-4.3512393E-2,-4.6979338E-1,6.951872E-2,-2.9831866E-2,-8.256199E-1,-9.0236954E-2,6.3338584E-1,-5.009648E-2,3.5742536E-2,-1.1021209E-1,-1.5250228E-2,-8.9457893E-1,1.01089634E-1,-8.995682E-3,8.362946E-2,-1.2587242E-2,-1.1866235E-1,-3.0871024E-2,4.004025E-2],"categories":[],"categories_nodes":[],"categories_segments":[],"categories_sizes":[],"default_left":[0,0,1,1,1,0,0,0,0,0,0,1,1,0,0,0,0,0,0],"id":46,"left_children":[1,3,5,7,9,11,13,-1,-1,-1,-1,15,17,-1,-1,-1,-1,-1,-1],"loss_changes":[2.651724E0,1.7790086E0,4.0058923E0,1.3082436E0,1.0104465E0,5.4817457E0,1.5139441E0,0E0,0E0,0E0,0E0,1.3847222E0,3.7051885E0,0E0,0E0,0E0,0E0,0E0,0E0],"parents":[2147483647,0,0,1,1,2,2,3,3,4,4,5,5,6,6,11,11,12,12],"right_children":[2,4,6,8,10,12,14,-1,-1,-1,-1,16,18,-1,-1,-1,-1,-1,-1],"split_conditions":[9.733053E-1,1.0000001E0,1.0000001E0,9.999999E-1,8.6946136E-1,7.444428E-1,8.181818E-1,-5.009648E-2,3.5742536E-2,-1.1021209E-1,-1.5250228E-2,6.311844E-1,8.6875117E-1,-8.995682E-3,8.362946E-2,-1.2587242E-2,-1.1866235E-1,-3.0871024E-2,4.004025E-2],"split_indices":[0,7,4,6,5,22,17,0,0,0,0,8,8,0,0,0,0,0,0],"split_type":[0,0,0,0,0,0,0,0,0,0,0,0,0,0,0,0,0,0,0],"sum_hessian":[5.3356594E1,1.0521168E1,4.2835426E1,5.1890306E0,5.3321366E0,3.403309E1,8.802338E0,2.208532E0,2.9804986E0,3.3278115E0,2.0043254E0,5.8334494E0,2.8199638E1,2.0502248E0,6.7521133E0,2.0000396E0,3.83341E0,1.188967E1,1.6309967E1],"tree_param":{"num_deleted":"0","num_feature":"24","num_nodes":"19","size_leaf_vector":"1"}},{"base_weights":[-4.7483582E-2,-3.3626688E-1,1.2157418E-1,-4.8106554E-1,2.9425517E-2,-6.588783E-2,2.0113784E-1,-9.30727E-2,-2.8505522E-1,-1.1678324E-1,4.0233892E-1,-7.591572E-2,1.6203556E-2,1.4835878E-2,-7.458996E-2,7.3401034E-3,6.295851E-2],"categories":[],"categories_nodes":[],"categories_segments":[],"categories_sizes":[],"default_left":[1,0,0,0,0,0,0,0,0,0,1,0,0,0,0,0,0],"id":47,"left_children":[1,3,5,7,-1,-1,9,-1,11,13,15,-1,-1,-1,-1,-1,-1],"loss_changes":[2.7869453E0,2.0620198E0,2.3811707E0,1.2758751E0,0E0,0E0,2.1980724E0,0E0,3.009815E0,2.4140353E0,1.5100629E0,0E0,0E0,0E0,0E0,0E0,0E0],"parents":[2147483647,0,0,1,1,2,2,3,3,6,6,8,8,9,9,10,10],"right_children":[2,4,6,8,-1,-1,10,-1,12,14,16,-1,-1,-1,-1,-1,-1],"split_conditions":[6.4285713E-1,1.0000002E0,7.205933E-1,7.7678525E-1,2.9425517E-2,-6.588783E-2,9.9999994E-1,-9.30727E-2,9.6482736E-1,1.0000001E0,8.985652E-1,-7.591572E-2,1.6203556E-2,1.4835878E-2,-7.458996E-2,7.3401034E-3,6.295851E-2],"split_indices":[17,0,9,6,0,0,21,0,1,6,4,0,0,0,0,0,0],"split_type":[0,0,0,0,0,0,0,0,0,0,0,0,0,0,0,0,0],"sum_hessian":[5.524753E1,2.0034933E1,3.52126E1,1.6485981E1,3.5489507E0,2.5840545E0,3.2628544E1,3.8668356E0,1.2619146E1,1.280877E1,1.9819775E1,5.7858005E0,6.833346E0,9.548655E0,3.2601151E0,8.638535E0,1.118124E1],"tree_param":{"num_deleted":"0","num_feature":"24","num_nodes":"17","size_leaf_vector":"1"}},{"base_weights":[-6.1152954E-2,-4.0583304E-1,9.767061E-2,-8.6012416E-2,-1.4301805E-2,-7.006217E-2,2.0361355E-1,-6.1185617E-2,2.6305357E-1,-3.4945682E-1,3.3512712E-1,6.0262185E-2,-1.1471438E-2,2.8027564E-2,-7.108354E-2,1.1861863E-3,6.450294E-2],"categories":[],"categories_nodes":[],"categories_segments":[],"categories_sizes":[],"default_left":[0,1,0,0,1,0,0,0,0,0,1,0,0,0,0,0,0],"id":48,"left_children":[1,3,5,-1,7,-1,9,-1,11,13,15,-1,-1,-1,-1,-1,-1],"loss_changes":[2.9829876E0,3.0388434E0,3.3236742E0,0E0,1.856461E0,0E0,2.588729E0,0E0,1.0551378E0,1.7962016E0,2.7937086E0,0E0,0E0,0E0,0E0,0E0,0E0],"parents":[2147483647,0,0,1,1,2,2,4,4,6,6,8,8,9,9,10,10],"right_children":[2,4,6,-1,8,-1,10,-1,12,14,16,-1,-1,-1,-1,-1,-1],"split_conditions":[9.9999976E-1,8E-1,5.833333E-1,-8.6012416E-2,7.426232E-1,-7.006217E-2,6.4782137E-1,-6.1185617E-2,7.956893E-1,9.9999994E-1,9.9521846E-1,6.0262185E-2,-1.1471438E-2,2.8027564E-2,-7.108354E-2,1.1861863E-3,6.450294E-2],"split_indices":[5,19,17,0,21,0,0,0,4,7,4,0,0,0,0,0,0],"split_type":[0,0,0,0,0,0,0,0,0,0,0,0,0,0,0,0,0],"sum_hessian":[5.2766376E1,1.6153873E1,3.6612503E1,6.9236207E0,9.230254E0,3.6319728E0,3.298053E1,2.5437593E0,6.6864944E0,6.0174413E0,2.6963089E1,3.2078254E0,3.4786692E0,2.2759075E0,3.7415335E0,1.3705199E1,1.325789E1],"tree_param":{"num_deleted":"0","num_feature":"24","num_nodes":"17","size_leaf_vector":"1"}},{"base_weights":[1.8314173E-3,-4.4781625E-1,1.5787944E-1,-8.9020915E-2,-8.67496E-2,-3.2310122E-1,3.556543E-1,-7.591511E-2,2.6405528E-1,-5.85652E-1,4.630111E-2,-4.8470866E-2,4.9141648E-1,7.128962E-2,-2.6088258E-2,-9.300724E-2,2.8615972E-2,-2.832129E-2,6.270647E-2],"categories":[],"categories_nodes":[],"categories_segments":[],"categories_sizes":[],"default_left":[1,1,0,0,0,0,0,0,0,0,0,0,0,0,0,0,0,0,0],"id":49,"left_children":[1,3,5,7,-1,9,11,-1,13,15,-1,-1,17,-1,-1,-1,-1,-1,-1],"loss_changes":[3.722511E0,1.98107E0,3.8605545E0,2.2077093E0,0E0,2.7473183E0,3.4758754E0,0E0,1.6698848E0,3.0992002E0,0E0,0E0,2.7969599E0,0E0,0E0,0E0,0E0,0E0,0E0],"parents":[2147483647,0,0,1,1,2,2,3,3,5,5,6,6,8,8,9,9,12,12],"right_children":[2,4,6,8,-1,10,12,-1,14,16,-1,-1,18,-1,-1,-1,-1,-1,-1],"split_conditions":[9.5565027E-1,6.4285713E-1,8.199329E-1,9.9999964E-1,-8.67496E-2,1.0000002E0,6.4285713E-1,-7.591511E-2,1E0,2.0000105E0,4.630111E-2,-4.8470866E-2,6.714984E-1,7.128962E-2,-2.6088258E-2,-9.300724E-2,2.8615972E-2,-2.832129E-2,6.270647E-2],"split_indices":[3,14,22,1,0,0,14,0,1,8,0,0,21,0,0,0,0,0,0],"split_type":[0,0,0,0,0,0,0,0,0,0,0,0,0,0,0,0,0,0,0],"sum_hessian":[5.1044827E1,1.2669193E1,3.8375633E1,7.483482E0,5.1857114E0,1.0997198E1,2.7378433E1,2.185448E0,5.298034E0,8.4350195E0,2.5621793E0,3.4503868E0,2.3928047E1,2.6630075E0,2.6350265E0,5.998434E0,2.436585E0,3.4036129E0,2.0524433E1],"tree_param":{"num_deleted":"0","num_feature":"24","num_nodes":"19","size_leaf_vector":"1"}},{"base_weights":[-5.4280836E-2,-5.6147474E-1,2.903416E-2,-1.0881399E-2,-7.742039E-2,-2.858792E-1,2.6585472E-1,-1.0190563E-1,-9.1687925E-2,-9.720325E-2,5.6343544E-1,7.637918E-3,-7.061916E-2,5.453257E-2,-3.561763E-2,-3.170411E-2,7.504078E-2],"categories":[],"categories_nodes":[],"categories_segments":[],"categories_sizes":[],"default_left":[0,0,1,0,0,0,0,1,0,0,1,0,0,0,0,0,0],"id":50,"left_children":[1,3,5,-1,-1,7,9,11,-1,13,15,-1,-1,-1,-1,-1,-1],"loss_changes":[2.3332756E0,6.654291E-1,3.6591349E0,0E0,0E0,2.3565168E0,3.0734944E0,1.9355611E0,0E0,2.4304097E0,2.7899752E0,0E0,0E0,0E0,0E0,0E0,0E0],"parents":[2147483647,0,0,1,1,2,2,5,5,6,6,7,7,9,9,10,10],"right_children":[2,4,6,-1,-1,8,10,12,-1,14,16,-1,-1,-1,-1,-1,-1],"split_conditions":[6.5600187E-1,1.0000001E0,8.269837E-1,-1.0881399E-2,-7.742039E-2,1E0,8E-1,5.833333E-1,-9.1687925E-2,9.999999E-1,6.714984E-1,7.637918E-3,-7.061916E-2,5.453257E-2,-3.561763E-2,-3.170411E-2,7.504078E-2],"split_indices":[0,8,6,0,0,23,11,16,0,0,21,0,0,0,0,0,0],"split_type":[0,0,0,0,0,0,0,0,0,0,0,0,0,0,0,0,0],"sum_hessian":[5.3830704E1,6.7852407E0,4.7045464E1,2.6525226E0,4.132718E0,2.010439E1,2.6941072E1,1.646529E1,3.6391003E0,1.2438753E1,1.4502319E1,1.3388757E1,3.0765326E0,3.2556217E0,9.183132E0,2.4183486E0,1.2083971E1],"tree_param":{"num_deleted":"0","num_feature":"24","num_nodes":"17","size_leaf_vector":"1"}},{"base_weights":[-4.35324E-2,-3.655541E-1,1.7239481E-1,-7.905236E-1,-1.17545545E-1,-2.1860157E-1,3.492045E-1,-2.7067248E-2,-9.69419E-2,-7.928175E-2,6.743185E-2,-8.229299E-2,2.8082296E-1,4.503691E-1,-4.2135905E-2,-5.427412E-2,2.7985612E-2,-8.03539E-3,5.9534963E-2,-2.3575848E-2,5.596255E-2],"categories":[],"categories_nodes":[],"categories_segments":[],"categories_sizes":[],"default_left":[1,0,1,1,0,1,0,0,0,0,1,0,0,1,0,0,0,0,0,0,0],"id":51,"left_children":[1,3,5,7,9,11,13,-1,-1,-1,15,-1,17,19,-1,-1,-1,-1,-1,-1,-1],"loss_changes":[3.7939675E0,2.2108095E0,2.3438082E0,4.704814E-1,1.924286E0,3.4992785E0,1.9804277E0,0E0,0E0,0E0,1.7952123E0,0E0,8.060424E-1,1.6903138E0,0E0,0E0,0E0,0E0,0E0,0E0,0E0],"parents":[2147483647,0,0,1,1,2,2,3,3,4,4,5,5,6,6,10,10,12,12,13,13],"right_children":[2,4,6,8,10,12,14,-1,-1,-1,16,-1,18,20,-1,-1,-1,-1,-1,-1,-1],"split_conditions":[6.875E-1,9.5984995E-1,5.833333E-1,5.8799803E-1,7.6090306E-1,5.833333E-1,1.0000002E0,-2.7067248E-2,-9.69419E-2,-7.928175E-2,4.2857143E-1,-8.229299E-2,9.9999994E-1,9.9999976E-1,-4.2135905E-2,-5.427412E-2,2.7985612E-2,-8.03539E-3,5.9534963E-2,-2.3575848E-2,5.596255E-2],"split_indices":[16,1,17,6,8,19,4,0,0,0,16,0,0,3,0,0,0,0,0,0,0],"split_type":[0,0,0,0,0,0,0,0,0,0,0,0,0,0,0,0,0,0,0,0,0],"sum_hessian":[5.2657036E1,2.0857853E1,3.1799181E1,6.8804784E0,1.3977375E1,9.828376E0,2.1970804E1,2.4049547E0,4.4755235E0,2.2989361E0,1.1678438E1,4.154034E0,5.674342E0,1.978839E1,2.1824157E0,2.61424E0,9.0641985E0,2.987856E0,2.686486E0,2.5591493E0,1.722924E1],"tree_param":{"num_deleted":"0","num_feature":"24","num_nodes":"21","size_leaf_vector":"1"}},{"base_weights":[-1.4270358E-3,-5.7619E-1,9.737472E-2,-9.4129354E-2,-7.4379975E-3,-2.3116396E-1,3.085804E-1,-3.81151E-1,6.0737997E-2,-5.513489E-2,6.2995154E-1,-9.7908355E-2,-1.5392095E-2,-7.44028E-2,2.3049777E-2,5.948312E-3,7.551275E-2],"categories":[],"categories_nodes":[],"categories_segments":[],"categories_sizes":[],"default_left":[1,1,1,0,0,0,0,0,0,1,0,0,0,0,0,0,0],"id":52,"left_children":[1,3,5,-1,-1,7,9,11,-1,13,15,-1,-1,-1,-1,-1,-1],"loss_changes":[2.8836184E0,1.2945831E0,3.0788608E0,0E0,0E0,2.436525E0,3.1685808E0,1.9534097E0,0E0,2.8271782E0,9.77262E-1,0E0,0E0,0E0,0E0,0E0,0E0],"parents":[2147483647,0,0,1,1,2,2,5,5,6,6,7,7,9,9,10,10],"right_children":[2,4,6,-1,-1,8,10,12,-1,14,16,-1,-1,-1,-1,-1,-1],"split_conditions":[6.714984E-1,1E0,5.4545456E-1,-9.4129354E-2,-7.4379975E-3,1.0000001E0,9.9999994E-1,6.7526203E-1,6.0737997E-2,8.8137734E-1,7.739778E-1,-9.7908355E-2,-1.5392095E-2,-7.44028E-2,2.3049777E-2,5.948312E-3,7.551275E-2],"split_indices":[21,17,19,0,0,3,0,22,0,6,3,0,0,0,0,0,0],"split_type":[0,0,0,0,0,0,0,0,0,0,0,0,0,0,0,0,0],"sum_hessian":[4.879102E1,6.4481564E0,4.2342865E1,3.2255416E0,3.2226148E0,1.6532076E1,2.581079E1,1.448641E1,2.0456655E0,1.2496349E1,1.331444E1,3.078053E0,1.1408358E1,3.192291E0,9.304058E0,2.661283E0,1.0653156E1],"tree_param":{"num_deleted":"0","num_feature":"24","num_nodes":"17","size_leaf_vector":"1"}},{"base_weights":[-2.6176888E-2,-3.6299342E-1,1.6593581E-1,-8.079138E-2,-1.6434406E-1,-1.7472306E-1,3.6518165E-1,4.2986095E-1,-5.0568914E-1,-8.329501E-2,1.0628685E-1,-2.3867676E-1,6.23582E-1,8.173866E-3,6.985646E-2,2.3308028E-2,-7.500131E-2,-5.3301167E-2,7.099726E-2,-6.7722365E-2,5.373279E-2,-1.8409772E-3,7.8547075E-2],"categories":[],"categories_nodes":[],"categories_segments":[],"categories_sizes":[],"default_left":[1,0,0,0,1,0,0,1,0,0,0,1,0,0,0,0,0,0,0,0,0,0,0],"id":53,"left_children":[1,3,5,-1,7,9,11,13,15,-1,17,19,21,-1,-1,-1,-1,-1,-1,-1,-1,-1,-1],"loss_changes":[3.2700129E0,1.4873571E0,2.254415E0,0E0,3.0423832E0,2.416696E0,3.3768394E0,4.688207E-1,1.854486E0,0E0,4.125015E0,2.7198079E0,1.5489674E0,0E0,0E0,0E0,0E0,0E0,0E0,0E0,0E0,0E0,0E0],"parents":[2147483647,0,0,1,1,2,2,4,4,5,5,6,6,7,7,8,8,10,10,11,11,12,12],"right_children":[2,4,6,-1,8,10,12,14,16,-1,18,20,22,-1,-1,-1,-1,-1,-1,-1,-1,-1,-1],"split_conditions":[6.666667E-1,7.6295525E-1,8E-1,-8.079138E-2,6.897554E-1,8.666667E-1,9.576248E-1,8.324796E-1,5.6507885E-1,-8.329501E-2,7.218001E-1,9.980182E-1,7.3333335E-1,8.173866E-3,6.985646E-2,2.3308028E-2,-7.500131E-2,-5.3301167E-2,7.099726E-2,-6.7722365E-2,5.373279E-2,-1.8409772E-3,7.8547075E-2],"split_indices":[17,6,11,0,5,14,0,4,7,0,22,5,13,0,0,0,0,0,0,0,0,0,0],"split_type":[0,0,0,0,0,0,0,0,0,0,0,0,0,0,0,0,0,0,0,0,0,0,0],"sum_hessian":[4.8605022E1,1.733079E1,3.1274233E1,4.4027643E0,1.2928025E1,1.1586829E1,1.9687403E1,4.6223097E0,8.305716E0,2.8790114E0,8.707818E0,5.922765E0,1.3764639E1,2.5817227E0,2.0405867E0,2.0756202E0,6.2300954E0,4.286023E0,4.4217944E0,3.8655205E0,2.057244E0,2.9504614E0,1.08141775E1],"tree_param":{"num_deleted":"0","num_feature":"24","num_nodes":"23","size_leaf_vector":"1"}},{"base_weights":[-2.2879262E-2,-4.580984E-1,8.287933E-2,-7.020075E-1,1.6895732E-2,-1.8287334E-1,3.480824E-1,-1.3251925E-2,-9.4243966E-2,-6.5780926E-1,2.7728343E-1,-1.10980526E-1,7.144512E-1,6.144366E-3,-8.5251816E-2,-2.3724234E-2,6.96651E-2,-5.0784346E-2,4.9043026E-2,-3.7342627E-3,8.7284476E-2],"categories":[],"categories_nodes":[],"categories_segments":[],"categories_sizes":[],"default_left":[0,1,0,0,0,1,1,0,0,1,0,1,1,0,0,0,0,0,0,0,0],"id":54,"left_children":[1,3,5,7,-1,9,11,-1,-1,13,15,17,19,-1,-1,-1,-1,-1,-1,-1,-1],"loss_changes":[2.4238908E0,1.6919396E0,3.0624585E0,9.1574216E-1,0E0,4.9703226E0,3.719022E0,0E0,0E0,1.6037283E0,2.7180471E0,2.7482457E0,1.4818015E0,0E0,0E0,0E0,0E0,0E0,0E0,0E0,0E0],"parents":[2147483647,0,0,1,1,2,2,3,3,5,5,6,6,9,9,10,10,11,11,12,12],"right_children":[2,4,6,8,-1,10,12,-1,-1,14,16,18,20,-1,-1,-1,-1,-1,-1,-1,-1],"split_conditions":[9.576248E-1,9.9999994E-1,9E-1,1.0000001E0,1.6895732E-2,9.822893E-1,7.788836E-1,-1.3251925E-2,-9.4243966E-2,4.1666666E-1,1.0000002E0,8.181818E-1,8.999865E-1,6.144366E-3,-8.5251816E-2,-2.3724234E-2,6.96651E-2,-5.0784346E-2,4.9043026E-2,-3.7342627E-3,8.7284476E-2],"split_indices":[0,5,11,8,0,6,6,0,0,16,5,17,21,0,0,0,0,0,0,0,0],"split_type":[0,0,0,0,0,0,0,0,0,0,0,0,0,0,0,0,0,0,0,0,0],"sum_hessian":[5.0836178E1,9.286931E0,4.1549248E1,6.600119E0,2.6868114E0,2.0908178E1,2.0641068E1,2.4197843E0,4.180335E0,1.007749E1,1.0830688E1,9.470961E0,1.1170107E1,2.2927015E0,7.7847886E0,5.05857E0,5.772119E0,5.799517E0,3.6714437E0,2.0768516E0,9.093256E0],"tree_param":{"num_deleted":"0","num_feature":"24","num_nodes":"21","size_leaf_vector":"1"}},{"base_weights":[-2.977102E-2,-2.9766682E-1,1.7811742E-1,-8.076191E-1,5.39686E-2,-1.8330443E-1,4.3745926E-1,-9.271446E-2,-2.8369963E-2,-2.1319285E-1,4.7302553E-1,-7.474421E-1,4.6647018E-1,7.3252815E-1,-2.4610246E-2,1.3038101E-2,-5.168698E-2,7.829711E-2,3.290613E-3,-1.1647131E-1,1.3085174E-2,6.410784E-2,8.44629E-3,1.3381848E-2,8.878085E-2,6.258486E-2,-4.4740614E-2],"categories":[],"categories_nodes":[],"categories_segments":[],"categories_sizes":[],"default_left":[0,1,0,1,0,0,1,0,0,0,0,1,1,1,0,0,0,0,0,0,0,0,0,0,0,0,0],"id":55,"left_children":[1,3,5,7,9,11,13,-1,-1,15,17,19,21,23,25,-1,-1,-1,-1,-1,-1,-1,-1,-1,-1,-1,-1],"loss_changes":[2.6553721E0,3.7718225E0,2.6049418E0,2.7226496E-1,1.5835E0,4.732001E0,2.1965003E0,0E0,0E0,9.831033E-1,7.1994793E-1,2.639035E0,3.575964E-1,7.907553E-1,2.2585392E0,0E0,0E0,0E0,0E0,0E0,0E0,0E0,0E0,0E0,0E0,0E0,0E0],"parents":[2147483647,0,0,1,1,2,2,3,3,4,4,5,5,6,6,9,9,10,10,11,11,12,12,13,13,14,14],"right_children":[2,4,6,8,10,12,14,-1,-1,16,18,20,22,24,26,-1,-1,-1,-1,-1,-1,-1,-1,-1,-1,-1,-1],"split_conditions":[9.3840665E-1,9.6313244E-1,9.8701805E-1,8.3882004E-1,1.0000001E0,9.5984995E-1,1.0000001E0,-9.271446E-2,-2.8369963E-2,1E0,9.999999E-1,9.9999994E-1,7.6339436E-1,9.999999E-1,1.0000001E0,1.3038101E-2,-5.168698E-2,7.829711E-2,3.290613E-3,-1.1647131E-1,1.3085174E-2,6.410784E-2,8.44629E-3,1.3381848E-2,8.878085E-2,6.258486E-2,-4.4740614E-2],"split_indices":[4,22,6,5,0,1,8,0,0,22,8,7,9,21,7,0,0,0,0,0,0,0,0,0,0,0,0],"split_type":[0,0,0,0,0,0,0,0,0,0,0,0,0,0,0,0,0,0,0,0,0,0,0,0,0,0,0],"sum_hessian":[4.5727215E1,1.9791285E1,2.5935932E1,7.54808E0,1.2243205E1,1.095797E1,1.4977962E1,5.519293E0,2.0287871E0,7.7766266E0,4.4665785E0,5.7850494E0,5.17292E0,8.7836E0,6.194362E0,3.9163766E0,3.8602498E0,2.163781E0,2.3027976E0,3.7007444E0,2.0843053E0,3.0847542E0,2.0881658E0,2.192362E0,6.5912375E0,2.2510014E0,3.9433606E0],"tree_param":{"num_deleted":"0","num_feature":"24","num_nodes":"27","size_leaf_vector":"1"}},{"base_weights":[-3.0220313E-2,-5.6813884E-1,6.9194645E-2,-8.169373E-2,-3.7477582E-3,-1.5699722E-1,3.4372854E-1,-3.9891994E-1,1.9996281E-1,4.080456E-2,6.893765E-1,-6.887718E-2,1.33862225E-2,-2.6835928E-2,6.651484E-2,-5.8376145E-2,2.8414577E-2,1.6199235E-2,8.5144125E-2],"categories":[],"categories_nodes":[],"categories_segments":[],"categories_sizes":[],"default_left":[0,1,1,0,0,1,1,1,0,0,0,0,0,0,0,0,0,0,0],"id":56,"left_children":[1,3,5,-1,-1,7,9,11,13,15,17,-1,-1,-1,-1,-1,-1,-1,-1],"loss_changes":[2.5671546E0,9.5720816E-1,2.586768E0,0E0,0E0,2.0702212E0,1.9338813E0,2.2653408E0,2.3520496E0,1.8451798E0,6.047363E-1,0E0,0E0,0E0,0E0,0E0,0E0,0E0,0E0],"parents":[2147483647,0,0,1,1,2,2,5,5,6,6,7,7,8,8,9,9,10,10],"right_children":[2,4,6,-1,-1,8,10,12,14,16,18,-1,-1,-1,-1,-1,-1,-1,-1],"split_conditions":[6.5600187E-1,9.9999994E-1,9.6313244E-1,-8.169373E-2,-3.7477582E-3,9.908015E-1,6.875E-1,9.9999994E-1,1.0000002E0,1E0,6.687019E-1,-6.887718E-2,1.33862225E-2,-2.6835928E-2,6.651484E-2,-5.8376145E-2,2.8414577E-2,1.6199235E-2,8.5144125E-2],"split_indices":[0,5,22,0,0,6,16,7,5,11,21,0,0,0,0,0,0,0,0],"split_type":[0,0,0,0,0,0,0,0,0,0,0,0,0,0,0,0,0,0,0],"sum_hessian":[4.626959E1,6.4819527E0,3.9787636E1,4.0456805E0,2.4362721E0,2.2049177E1,1.7738457E1,1.30722E1,8.976977E0,1.004933E1,7.689127E0,8.27664E0,4.7955604E0,4.6842537E0,4.292724E0,2.4253697E0,7.62396E0,2.2774627E0,5.4116645E0],"tree_param":{"num_deleted":"0","num_feature":"24","num_nodes":"19","size_leaf_vector":"1"}},{"base_weights":[-7.112525E-2,-3.1410906E-1,1.5313786E-1,-6.1706513E-1,-6.735603E-2,-2.4023187E-1,3.6593202E-1,-7.5518386E-3,-7.959418E-2,5.9031766E-2,-2.6441666E-1,-7.334339E-1,3.095404E-1,-1.8187372E-1,5.788126E-1,9.800953E-3,-8.379611E-2,-1.08191244E-1,-1.4376499E-2,1.6667051E-3,4.922158E-2,-5.4433804E-2,2.764309E-2,2.7003416E-3,8.701507E-2],"categories":[],"categories_nodes":[],"categories_segments":[],"categories_sizes":[],"default_left":[0,1,0,0,0,1,0,0,0,0,1,0,0,1,1,0,0,0,0,0,0,0,0,0,0],"id":57,"left_children":[1,3,5,7,9,11,13,-1,-1,-1,15,17,19,21,23,-1,-1,-1,-1,-1,-1,-1,-1,-1,-1],"loss_changes":[2.5834196E0,1.6523004E0,2.1694777E0,9.1329265E-1,1.9199996E0,2.7577665E0,2.033419E0,0E0,0E0,0E0,2.4025578E0,9.164021E-1,2.6554847E-1,1.0455217E0,1.9291301E0,0E0,0E0,0E0,0E0,0E0,0E0,0E0,0E0,0E0,0E0],"parents":[2147483647,0,0,1,1,2,2,3,3,4,4,5,5,6,6,10,10,11,11,12,12,13,13,14,14],"right_children":[2,4,6,8,10,12,14,-1,-1,-1,16,18,20,22,24,-1,-1,-1,-1,-1,-1,-1,-1,-1,-1],"split_conditions":[9.734343E-1,9.999998E-1,8.199329E-1,5.2380955E-1,9.9999994E-1,9.9999994E-1,9.576248E-1,-7.5518386E-3,-7.959418E-2,5.9031766E-2,9.948831E-1,9.8701805E-1,5.9072435E-1,9.999998E-1,5.3333336E-1,9.800953E-3,-8.379611E-2,-1.08191244E-1,-1.4376499E-2,1.6667051E-3,4.922158E-2,-5.4433804E-2,2.764309E-2,2.7003416E-3,8.701507E-2],"split_indices":[4,3,22,16,3,7,0,0,0,0,7,6,22,5,17,0,0,0,0,0,0,0,0,0,0],"split_type":[0,0,0,0,0,0,0,0,0,0,0,0,0,0,0,0,0,0,0,0,0,0,0,0,0],"sum_hessian":[4.5526157E1,2.1658768E1,2.3867392E1,9.048521E0,1.2610247E1,8.333396E0,1.5533996E1,2.5998106E0,6.4487104E0,2.447224E0,1.0163023E1,4.2166023E0,4.116793E0,4.3880014E0,1.1145994E1,6.7357664E0,3.427256E0,2.125632E0,2.0909705E0,2.0005927E0,2.1162004E0,2.3453715E0,2.0426302E0,4.2289104E0,6.9170837E0],"tree_param":{"num_deleted":"0","num_feature":"24","num_nodes":"25","size_leaf_vector":"1"}},{"base_weights":[-3.583284E-2,-2.7888238E-1,1.2767744E-1,-6.718704E-1,-4.3702826E-2,2.4657947E-1,-5.4135572E-2,-8.937374E-2,-1.0916976E-2,-3.9142177E-1,3.9189485E-1,3.3189483E-2,6.531464E-1,-7.297944E-2,-9.82812E-3,-1.1319504E-2,8.221569E-2,2.577042E-2,-4.6042196E-2,8.618056E-3,9.548601E-2],"categories":[],"categories_nodes":[],"categories_segments":[],"categories_sizes":[],"default_left":[1,0,0,1,1,1,0,0,0,1,0,0,0,0,0,0,0,0,0,0,0],"id":58,"left_children":[1,3,5,7,9,11,-1,-1,-1,13,15,17,19,-1,-1,-1,-1,-1,-1,-1,-1],"loss_changes":[1.8216553E0,1.6701864E0,2.3253303E0,7.532513E-1,2.0578983E0,2.0676475E0,0E0,0E0,0E0,6.7146504E-1,1.4146575E0,1.9856607E0,1.3265138E0,0E0,0E0,0E0,0E0,0E0,0E0,0E0,0E0],"parents":[2147483647,0,0,1,1,2,2,3,3,4,4,5,5,9,9,10,10,11,11,12,12],"right_children":[2,4,6,8,10,12,-1,-1,-1,14,16,18,20,-1,-1,-1,-1,-1,-1,-1,-1],"split_conditions":[7.1428573E-1,9.999998E-1,1.0000002E0,9.999997E-1,8.199329E-1,8.333333E-1,-5.4135572E-2,-8.937374E-2,-1.0916976E-2,9.927646E-1,9.999999E-1,9.999999E-1,8E-1,-7.297944E-2,-9.82812E-3,-1.1319504E-2,8.221569E-2,2.577042E-2,-4.6042196E-2,8.618056E-3,9.548601E-2],"split_indices":[17,3,4,8,22,15,0,0,0,9,0,6,11,0,0,0,0,0,0,0,0],"split_type":[0,0,0,0,0,0,0,0,0,0,0,0,0,0,0,0,0,0,0,0,0],"sum_hessian":[4.3942093E1,1.738886E1,2.6553232E1,5.8150306E0,1.157383E1,2.3082415E1,3.4708178E0,3.7486696E0,2.066361E0,6.492533E0,5.0812964E0,1.5846751E1,7.235664E0,2.3223124E0,4.170221E0,2.6763787E0,2.4049177E0,1.1220932E1,4.6258187E0,2.9596565E0,4.2760077E0],"tree_param":{"num_deleted":"0","num_feature":"24","num_nodes":"21","size_leaf_vector":"1"}},{"base_weights":[-3.94379E-2,-3.0280322E-1,1.518913E-1,-6.621223E-1,2.310894E-2,-6.613663E-2,2.5046146E-1,-1.0290692E-1,-1.3516336E-3,-3.540853E-1,4.5519975E-1,-8.523701E-2,5.1694673E-1,-6.711164E-2,1.1602913E-2,1.1727303E-3,7.000865E-2,-4.8092544E-2,2.6238842E-2,-2.7207194E-3,8.7111644E-2],"categories":[],"categories_nodes":[],"categories_segments":[],"categories_sizes":[],"default_left":[0,0,1,1,0,0,1,0,0,0,1,0,0,0,0,0,0,0,0,0,0],"id":59,"left_children":[1,3,5,7,9,-1,11,-1,-1,13,15,17,19,-1,-1,-1,-1,-1,-1,-1,-1],"loss_changes":[2.3928742E0,2.3494782E0,2.381569E0,2.2504358E0,2.022142E0,0E0,2.314509E0,0E0,0E0,1.0703082E0,6.1725914E-1,1.789161E0,2.7777085E0,0E0,0E0,0E0,0E0,0E0,0E0,0E0,0E0],"parents":[2147483647,0,0,1,1,2,2,3,3,4,4,6,6,9,9,10,10,11,11,12,12],"right_children":[2,4,6,8,10,-1,12,-1,-1,14,16,18,20,-1,-1,-1,-1,-1,-1,-1,-1],"split_conditions":[9E-1,9.8701805E-1,6.923077E-1,1E0,1.0000002E0,-6.613663E-2,8.400387E-1,-1.0290692E-1,-1.3516336E-3,8.659786E-1,9.415091E-1,9.9999994E-1,9.576248E-1,-6.711164E-2,1.1602913E-2,1.1727303E-3,7.000865E-2,-4.8092544E-2,2.6238842E-2,-2.7207194E-3,8.7111644E-2],"split_indices":[11,6,13,7,5,0,7,0,0,22,21,3,0,0,0,0,0,0,0,0,0],"split_type":[0,0,0,0,0,0,0,0,0,0,0,0,0,0,0,0,0,0,0,0,0],"sum_hessian":[4.5574825E1,1.8932096E1,2.6642727E1,8.513901E0,1.0418197E1,2.2629073E0,2.437982E1,5.06296E0,3.4509404E0,5.6588373E0,4.759359E0,1.1089824E1,1.3289996E1,3.1243258E0,2.5345116E0,2.0659533E0,2.6934059E0,5.0070434E0,6.0827804E0,5.603633E0,7.686363E0],"tree_param":{"num_deleted":"0","num_feature":"24","num_nodes":"21","size_leaf_vector":"1"}},{"base_weights":[-8.238292E-3,-3.3566E-1,1.2681544E-1,-9.1528855E-2,-1.0487618E-1,-2.979714E-1,3.685799E-1,-4.5523936E-1,3.366765E-1,-7.352499E-2,-5.0035294E-2,5.614173E-1,-6.5893956E-2,-9.735347E-2,3.7335042E-2,7.9631105E-2,-2.2188509E-2,-3.0882467E-2,5.367936E-2,-1.1484097E-2,6.889241E-2,-3.8347997E-2,3.930838E-2],"categories":[],"categories_nodes":[],"categories_segments":[],"categories_sizes":[],"default_left":[0,0,1,0,1,1,1,0,1,0,1,0,1,0,0,0,0,0,0,0,0,0,0],"id":60,"left_children":[1,3,5,-1,7,9,11,13,15,-1,17,19,21,-1,-1,-1,-1,-1,-1,-1,-1,-1,-1],"loss_changes":[1.9766762E0,1.6492872E0,3.3645263E0,0E0,1.7716179E0,1.2694097E0,1.7666011E0,3.0509562E0,1.5124888E0,0E0,1.4963472E0,1.3210492E0,1.206219E0,0E0,0E0,0E0,0E0,0E0,0E0,0E0,0E0,0E0,0E0],"parents":[2147483647,0,0,1,1,2,2,4,4,5,5,6,6,7,7,8,8,10,10,11,11,12,12],"right_children":[2,4,6,-1,8,10,12,14,16,-1,18,20,22,-1,-1,-1,-1,-1,-1,-1,-1,-1,-1],"split_conditions":[9.999999E-1,9.9999976E-1,8.181818E-1,-9.1528855E-2,9.9999994E-1,7.657767E-1,1.0000001E0,2.0000105E0,1.0000002E0,-7.352499E-2,7.5E-1,5.555556E-1,7.1428573E-1,-9.735347E-2,3.7335042E-2,7.9631105E-2,-2.2188509E-2,-3.0882467E-2,5.367936E-2,-1.1484097E-2,6.889241E-2,-3.8347997E-2,3.930838E-2],"split_indices":[22,5,18,0,7,21,7,8,8,0,17,14,15,0,0,0,0,0,0,0,0,0,0],"split_type":[0,0,0,