{"learner":{"attributes":{"scikit_learn":"{\"_estimator_type\": \"classifier\"}"},"feature_names":["xing_stroke","ming_stroke","zihao_stroke","diqu_stroke","jigou_1_stroke","jigou_2_stroke","guanzhi_1_stroke","ren_xian_stroke","ren_sheng_stroke","chushen_1_stroke","xing_pinyin","ming_pinyin","zihao_pinyin","diqu_pinyin","jigou_1_pinyin","jigou_2_pinyin","guanzhi_1_pinyin","ren_xian_pinyin","ren_sheng_pinyin","chushen_1_pinyin","ming_cnt_diff","ming_sim1","ming_sim2","same_year"],"feature_types":["float","float","float","float","float","float","float","float","float","float","float","float","float","float","float","float","float","float","float","float","float","float","float","float"],"gradient_booster":{"model":{"gbtree_model_param":{"num_parallel_tree":"1","num_trees":"180"},"iteration_indptr":[0,1,2,3,4,5,6,7,8,9,10,11,12,13,14,15,16,17,18,19,20,21,22,23,24,25,26,27,28,29,30,31,32,33,34,35,36,37,38,39,40,41,42,43,44,45,46,47,48,49,50,51,52,53,54,55,56,57,58,59,60,61,62,63,64,65,66,67,68,69,70,71,72,73,74,75,76,77,78,79,80,81,82,83,84,85,86,87,88,89,90,91,92,93,94,95,96,97,98,99,100,101,102,103,104,105,106,107,108,109,110,111,112,113,114,115,116,117,118,119,120,121,122,123,124,125,126,127,128,129,130,131,132,133,134,135,136,137,138,139,140,141,142,143,144,145,146,147,148,149,150,151,152,153,154,155,156,157,158,159,160,161,162,163,164,165,166,167,168,169,170,171,172,173,174,175,176,177,178,179,180],"tree_info":[0,0,0,0,0,0,0,0,0,0,0,0,0,0,0,0,0,0,0,0,0,0,0,0,0,0,0,0,0,0,0,0,0,0,0,0,0,0,0,0,0,0,0,0,0,0,0,0,0,0,0,0,0,0,0,0,0,0,0,0,0,0,0,0,0,0,0,0,0,0,0,0,0,0,0,0,0,0,0,0,0,0,0,0,0,0,0,0,0,0,0,0,0,0,0,0,0,0,0,0,0,0,0,0,0,0,0,0,0,0,0,0,0,0,0,0,0,0,0,0,0,0,0,0,0,0,0,0,0,0,0,0,0,0,0,0,0,0,0,0,0,0,0,0,0,0,0,0,0,0,0,0,0,0,0,0,0,0,0,0,0,0,0,0,0,0,0,0,0,0,0,0,0,0,0,0,0,0,0,0],"trees":[{"base_weights":[2.7574228E-2,-9.097571E-1,9.259731E-1,-1.8276048E0,-1.7488189E-1,9.495584E-3,1.5233974E0,-1.9252948E-1,-6.634995E-2,-1.3445275E0,8.966947E-1,-8.5542685E-1,9.234972E-1,1.9545464E-2,1.6403129E0,5.9477906E-3,-1.8087596E-1,-1.5040462E-1,1.2840985E-1,-1.8460676E-1,4.179574E-2,-9.1772996E-2,1.3129953E-1,6.960799E-2,1.7292884E-1],"categories":[],"categories_nodes":[],"categories_segments":[],"categories_sizes":[],"default_left":[0,0,1,0,1,1,0,0,0,0,0,0,0,0,0,0,0,0,0,0,0,0,0,0,0],"id":0,"left_children":[1,3,5,7,9,11,13,-1,-1,15,17,19,21,-1,23,-1,-1,-1,-1,-1,-1,-1,-1,-1,-1],"loss_changes":[1.3346474E2,5.2008102E1,4.428633E1,2.6334076E0,5.6591866E1,2.682704E1,7.283119E0,0E0,0E0,1.4139389E1,2.393809E1,2.2773256E1,1.3034014E1,0E0,2.566536E0,0E0,0E0,0E0,0E0,0E0,0E0,0E0,0E0,0E0,0E0],"parents":[2147483647,0,0,1,1,2,2,3,3,4,4,5,5,6,6,9,9,10,10,11,11,12,12,14,14],"right_children":[2,4,6,8,10,12,14,-1,-1,16,18,20,22,-1,24,-1,-1,-1,-1,-1,-1,-1,-1,-1,-1],"split_conditions":[9.8169285E-1,9.54673E-1,9.7732097E-1,9.4006526E-1,8.6875117E-1,8.143091E-1,8.181818E-1,-1.9252948E-1,-6.634995E-2,9.9999994E-1,5.555556E-1,9.5984995E-1,9.576248E-1,1.9545464E-2,5E-1,5.9477906E-3,-1.8087596E-1,-1.5040462E-1,1.2840985E-1,-1.8460676E-1,4.179574E-2,-9.1772996E-2,1.3129953E-1,6.960799E-2,1.7292884E-1],"split_indices":[4,1,6,4,8,7,18,0,0,1,10,1,0,0,10,0,0,0,0,0,0,0,0,0,0],"split_type":[0,0,0,0,0,0,0,0,0,0,0,0,0,0,0,0,0,0,0,0,0,0,0,0,0],"sum_hessian":[1.5649048E2,7.657962E1,7.9910866E1,3.3389587E1,4.3190033E1,3.1935762E1,4.79751E1,3.0201254E1,3.1883328E0,2.0528297E1,2.2661736E1,1.644135E1,1.5494412E1,4.0982566E0,4.3876842E1,5.3176575E0,1.521064E1,2.748279E0,1.9913456E1,8.994368E0,7.446983E0,2.4686189E0,1.3025793E1,4.53831E0,3.9338535E1],"tree_param":{"num_deleted":"0","num_feature":"24","num_nodes":"25","size_leaf_vector":"1"}},{"base_weights":[-2.274956E-3,-8.125812E-1,8.208727E-1,-1.6714536E-1,-2.0834859E-1,-4.7332212E-1,1.4011537E0,-1.7344612E-1,2.3811229E-1,-1.7130594E-1,7.624014E-2,5.9079045E-1,1.6554945E0,-7.99435E-2,1.0046089E-1,-1.6029952E-1,7.788519E-2,-1.1649907E-1,1.2408023E-1,6.662134E-2,1.6986047E-1],"categories":[],"categories_nodes":[],"categories_segments":[],"categories_sizes":[],"default_left":[0,0,1,0,0,0,1,0,1,0,0,0,0,0,0,0,0,0,0,0,0],"id":1,"left_children":[1,3,5,-1,7,9,11,-1,13,-1,15,17,19,-1,-1,-1,-1,-1,-1,-1,-1],"loss_changes":[1.05460396E2,4.1000122E1,5.956795E1,0E0,3.3058933E1,1.7182999E1,1.02356415E1,0E0,3.0982607E1,0E0,2.2838392E1,1.8053165E1,6.107483E-1,0E0,0E0,0E0,0E0,0E0,0E0,0E0,0E0],"parents":[2147483647,0,0,1,1,2,2,4,4,5,5,6,6,8,8,10,10,11,11,12,12],"right_children":[2,4,6,-1,8,10,12,-1,14,-1,16,18,20,-1,-1,-1,-1,-1,-1,-1,-1],"split_conditions":[9.0909094E-1,1E0,7.058824E-1,-1.6714536E-1,6.25E-1,9.7061193E-1,6.1538464E-1,-1.7344612E-1,8.6875117E-1,-1.7130594E-1,8.4495E-1,8.333333E-1,7.858011E-1,-7.99435E-2,1.0046089E-1,-1.6029952E-1,7.788519E-2,-1.1649907E-1,1.2408023E-1,6.662134E-2,1.6986047E-1],"split_indices":[14,11,16,0,10,0,17,0,8,0,1,11,1,0,0,0,0,0,0,0,0],"split_type":[0,0,0,0,0,0,0,0,0,0,0,0,0,0,0,0,0,0,0,0,0],"sum_hessian":[1.5611111E2,7.867566E1,7.743545E1,3.1762026E1,4.6913635E1,2.402873E1,5.340672E1,9.965206E0,3.694843E1,6.729889E0,1.7298841E1,1.3551788E1,3.985493E1,1.5680276E1,2.1268152E1,4.7248983E0,1.2573943E1,3.4474468E0,1.01043415E1,2.3513129E0,3.750362E1],"tree_param":{"num_deleted":"0","num_feature":"24","num_nodes":"21","size_leaf_vector":"1"}},{"base_weights":[6.5136924E-2,-6.7402303E-1,7.433535E-1,-1.5408493E0,-3.1304E-2,9.6046925E-1,-1.0524786E0,-1.6297953E-1,-5.832029E-2,-9.7435665E-1,7.7669907E-1,2.4697998E-1,1.3748857E0,-1.624252E-1,3.9346954E-3,-1.562217E-1,1.3814392E-2,-1.3120507E-1,1.1083038E-1,-1.3627969E-1,7.070821E-2,2.1742344E-2,1.5087394E-1],"categories":[],"categories_nodes":[],"categories_segments":[],"categories_sizes":[],"default_left":[0,0,0,0,1,1,0,0,0,0,0,0,0,0,0,0,0,0,0,0,0,0,0],"id":2,"left_children":[1,3,5,7,9,11,13,-1,-1,15,17,19,21,-1,-1,-1,-1,-1,-1,-1,-1,-1,-1],"loss_changes":[8.237676E1,4.378359E1,3.4405502E1,1.9009933E0,3.595935E1,2.2408203E1,6.128853E0,0E0,0E0,1.4447508E1,1.9072865E1,2.2802687E1,7.177948E0,0E0,0E0,0E0,0E0,0E0,0E0,0E0,0E0,0E0,0E0],"parents":[2147483647,0,0,1,1,2,2,3,3,4,4,5,5,6,6,9,9,10,10,11,11,12,12],"right_children":[2,4,6,8,10,12,14,-1,-1,16,18,20,22,-1,-1,-1,-1,-1,-1,-1,-1,-1,-1],"split_conditions":[9.8169285E-1,1E0,1E0,8E-1,8.6875117E-1,9.822893E-1,8.333333E-1,-1.6297953E-1,-5.832029E-2,9.7078204E-1,5.555556E-1,9.7061193E-1,6.1538464E-1,-1.624252E-1,3.9346954E-3,-1.562217E-1,1.3814392E-2,-1.3120507E-1,1.1083038E-1,-1.3627969E-1,7.070821E-2,2.1742344E-2,1.5087394E-1],"split_indices":[4,11,23,14,8,6,11,0,0,3,10,0,11,0,0,0,0,0,0,0,0,0,0],"split_type":[0,0,0,0,0,0,0,0,0,0,0,0,0,0,0,0,0,0,0,0,0,0,0],"sum_hessian":[1.6232336E2,7.767491E1,8.464846E1,3.2476673E1,4.5198235E1,7.5933304E1,8.715153E0,2.907438E1,3.4022925E0,2.0761168E1,2.4437069E1,2.8485899E1,4.7447407E1,5.3997393E0,3.3154135E0,1.3318992E1,7.442175E0,2.942958E0,2.149411E1,5.895866E0,2.2590033E1,5.190282E0,4.2257126E1],"tree_param":{"num_deleted":"0","num_feature":"24","num_nodes":"23","size_leaf_vector":"1"}},{"base_weights":[-1.0830791E-1,-8.563022E-1,4.4393456E-1,-1.4345801E0,-2.6363012E-1,-8.9157724E-1,7.2777855E-1,-1.6290556E-1,4.8182122E-2,4.1234893E-1,-1.1571498E0,1.2636733E-1,-1.3459089E0,-6.245195E-1,8.7513936E-1,-1.229818E-1,7.374176E-2,-1.426661E-1,8.729189E-3,-1.5554896E-1,-5.8949646E-2,-1.4402443E-1,5.3259045E-2,-6.213485E-2,1.0329906E-1],"categories":[],"categories_nodes":[],"categories_segments":[],"categories_sizes":[],"default_left":[1,1,0,1,1,0,0,0,0,0,1,0,1,0,0,0,0,0,0,0,0,0,0,0,0],"id":3,"left_children":[1,3,5,7,9,11,13,-1,-1,15,17,-1,19,21,23,-1,-1,-1,-1,-1,-1,-1,-1,-1,-1],"loss_changes":[6.3544235E1,2.1997566E1,3.424466E1,1.3016571E1,2.0691456E1,1.735214E1,1.52214775E1,0E0,0E0,1.1471301E1,5.047079E0,0E0,1.2525616E0,8.148014E0,1.6426609E1,0E0,0E0,0E0,0E0,0E0,0E0,0E0,0E0,0E0,0E0],"parents":[2147483647,0,0,1,1,2,2,3,3,4,4,5,5,6,6,9,9,10,10,12,12,13,13,14,14],"right_children":[2,4,6,8,10,12,14,-1,-1,16,18,-1,20,22,24,-1,-1,-1,-1,-1,-1,-1,-1,-1,-1],"split_conditions":[8.80201E-1,9.999997E-1,8.4180105E-1,9.9999976E-1,9.999999E-1,9.021652E-1,5.833333E-1,-1.6290556E-1,4.8182122E-2,6.923077E-1,6.4285713E-1,1.2636733E-1,1E0,1.0000001E0,8.181818E-1,-1.229818E-1,7.374176E-2,-1.426661E-1,8.729189E-3,-1.5554896E-1,-5.8949646E-2,-1.4402443E-1,5.3259045E-2,-6.213485E-2,1.0329906E-1],"split_indices":[6,8,5,7,7,6,19,0,0,11,16,0,9,4,18,0,0,0,0,0,0,0,0,0,0],"split_type":[0,0,0,0,0,0,0,0,0,0,0,0,0,0,0,0,0,0,0,0,0,0,0,0,0],"sum_hessian":[1.5191223E2,6.4287E1,8.762523E1,3.181964E1,3.246736E1,1.4983836E1,7.264139E1,2.9024214E1,2.7954247E0,1.8790329E1,1.3677032E1,2.2985632E0,1.2685273E1,6.8197727E0,6.582162E1,2.6450295E0,1.6145298E1,1.1121911E1,2.5551212E0,9.1058855E0,3.5793881E0,3.856427E0,2.9633458E0,6.0002966E0,5.982132E1],"tree_param":{"num_deleted":"0","num_feature":"24","num_nodes":"25","size_leaf_vector":"1"}},{"base_weights":[-3.759731E-2,-8.531178E-1,4.1370368E-1,-1.4292023E0,-2.1402714E-1,-1.6318983E-1,1.0185021E0,-1.5201685E-1,-2.6001329E-2,-1.521262E-1,3.934016E-1,-1.1391133E0,4.0656808E-1,-1.4676222E-1,1.3635645E0,-1.22694924E-1,7.917204E-2,-1.4749663E-1,-3.5123736E-2,-1.4200257E-1,7.659672E-2,-1.0724007E-1,8.293637E-2,1.349886E-2,1.4384905E-1],"categories":[],"categories_nodes":[],"categories_segments":[],"categories_sizes":[],"default_left":[0,1,0,1,0,0,0,0,0,0,0,0,0,1,0,0,0,0,0,0,0,0,0,0,0],"id":4,"left_children":[1,3,5,7,9,11,13,-1,-1,-1,15,17,19,21,23,-1,-1,-1,-1,-1,-1,-1,-1,-1,-1],"loss_changes":[5.8124634E1,2.0402317E1,3.5657722E1,2.7321663E0,2.2705742E1,2.989119E1,2.02235E1,0E0,0E0,0E0,1.3752584E1,4.713711E0,2.350814E1,1.1985062E1,3.3515167E0,0E0,0E0,0E0,0E0,0E0,0E0,0E0,0E0,0E0,0E0],"parents":[2147483647,0,0,1,1,2,2,3,3,4,4,5,5,6,6,10,10,11,11,12,12,13,13,14,14],"right_children":[2,4,6,8,10,12,14,-1,-1,-1,16,18,20,22,24,-1,-1,-1,-1,-1,-1,-1,-1,-1,-1],"split_conditions":[9.960308E-1,9.999997E-1,9.470631E-1,9E-1,1E0,9.6509033E-1,7.1428573E-1,-1.5201685E-1,-2.6001329E-2,-1.521262E-1,7.6614314E-1,9.059172E-1,8.557767E-1,9.999999E-1,6.034446E-1,-1.22694924E-1,7.917204E-2,-1.4749663E-1,-3.5123736E-2,-1.4200257E-1,7.659672E-2,-1.0724007E-1,8.293637E-2,1.349886E-2,1.4384905E-1],"split_indices":[3,8,1,17,11,6,10,0,0,0,9,1,5,7,9,0,0,0,0,0,0,0,0,0,0],"split_type":[0,0,0,0,0,0,0,0,0,0,0,0,0,0,0,0,0,0,0,0,0,0,0,0,0],"sum_hessian":[1.5596902E2,5.524627E1,1.0072276E2,2.8405172E1,2.6841095E1,5.1924347E1,4.8798416E1,2.6076185E1,2.3289883E0,8.03808E0,1.8803015E1,1.8771624E1,3.315272E1,1.1280206E1,3.751821E1,3.2996798E0,1.5503334E1,1.2549844E1,6.221781E0,4.965447E0,2.8187275E1,5.7392106E0,5.540995E0,2.3176017E0,3.5200607E1],"tree_param":{"num_deleted":"0","num_feature":"24","num_nodes":"25","size_leaf_vector":"1"}},{"base_weights":[-8.744461E-2,-6.355264E-1,5.012462E-1,-1.3645823E0,-2.2665255E-1,7.117099E-1,-1.083482E0,-1.4421687E-1,-6.216518E-2,-9.607239E-1,4.482009E-1,7.29153E-2,1.0865461E0,2.2108624E-2,-1.5064727E-1,-1.3920708E-1,-1.2083317E-2,-1.3083877E-1,7.0640095E-2,-1.3039283E-1,4.6440702E-2,2.0939302E-2,1.3526122E-1],"categories":[],"categories_nodes":[],"categories_segments":[],"categories_sizes":[],"default_left":[0,0,0,0,1,1,0,0,0,0,0,0,1,0,0,0,0,0,0,0,0,0,0],"id":5,"left_children":[1,3,5,7,9,11,13,-1,-1,15,17,19,21,-1,-1,-1,-1,-1,-1,-1,-1,-1,-1],"loss_changes":[4.853323E1,2.2890177E1,2.4987408E1,7.038841E-1,2.5726025E1,1.5412243E1,5.249035E0,0E0,0E0,8.80769E0,1.3299731E1,1.4079457E1,9.215576E0,0E0,0E0,0E0,0E0,0E0,0E0,0E0,0E0,0E0,0E0],"parents":[2147483647,0,0,1,1,2,2,3,3,4,4,5,5,6,6,9,9,10,10,11,11,12,12],"right_children":[2,4,6,8,10,12,14,-1,-1,16,18,20,22,-1,-1,-1,-1,-1,-1,-1,-1,-1,-1],"split_conditions":[9.838295E-1,8E-1,1E0,8.181818E-1,9.9999976E-1,6.666667E-1,8.576707E-1,-1.4421687E-1,-6.216518E-2,9.7078204E-1,7.1428573E-1,7.4553305E-1,7.5E-1,2.2108624E-2,-1.5064727E-1,-1.3920708E-1,-1.2083317E-2,-1.3083877E-1,7.0640095E-2,-1.3039283E-1,4.6440702E-2,2.0939302E-2,1.3526122E-1],"split_indices":[4,11,23,14,8,17,3,0,0,3,10,0,16,0,0,0,0,0,0,0,0,0,0],"split_type":[0,0,0,0,0,0,0,0,0,0,0,0,0,0,0,0,0,0,0,0,0,0,0],"sum_hessian":[1.4843304E2,7.682657E1,7.160648E1,2.676498E1,5.006159E1,6.369783E1,7.908653E0,2.3381948E1,3.3830302E0,2.3775837E1,2.6285751E1,2.3996904E1,3.9700924E1,2.0532963E0,5.8553567E0,1.5274033E1,8.501805E0,2.8473427E0,2.3438408E1,4.7966876E0,1.9200218E1,9.655652E0,3.0045273E1],"tree_param":{"num_deleted":"0","num_feature":"24","num_nodes":"23","size_leaf_vector":"1"}},{"base_weights":[-2.9402873E-2,-5.8543754E-1,5.174637E-1,-1.1954864E0,-1.1073612E-1,7.130701E-1,-9.089101E-1,-1.3962076E0,-3.821307E-1,-7.3991174E-1,5.658228E-1,-6.1591315E-1,8.938369E-1,5.692644E-2,-1.4386861E-1,-5.432854E-2,-1.4668131E-1,-1.2514174E-1,8.596957E-2,-1.2358966E-1,7.409627E-3,-5.7666432E-2,9.0146765E-2,-1.4647144E-1,5.7799827E-2,-1.7255878E-2,1.02361195E-1],"categories":[],"categories_nodes":[],"categories_segments":[],"categories_sizes":[],"default_left":[0,0,0,1,1,0,0,0,1,0,0,1,0,0,0,0,0,0,0,0,0,0,0,0,0,0,0],"id":6,"left_children":[1,3,5,7,9,11,13,15,17,19,21,23,25,-1,-1,-1,-1,-1,-1,-1,-1,-1,-1,-1,-1,-1,-1],"loss_changes":[4.5656403E1,2.1420408E1,2.1776382E1,4.7669983E0,1.8704632E1,1.668343E1,8.314863E0,7.4861526E-1,9.499451E0,9.252983E0,8.674736E0,9.594858E0,8.413933E0,0E0,0E0,0E0,0E0,0E0,0E0,0E0,0E0,0E0,0E0,0E0,0E0,0E0,0E0],"parents":[2147483647,0,0,1,1,2,2,3,3,4,4,5,5,6,6,7,7,8,8,9,9,10,10,11,11,12,12],"right_children":[2,4,6,8,10,12,14,16,18,20,22,24,26,-1,-1,-1,-1,-1,-1,-1,-1,-1,-1,-1,-1,-1,-1],"split_conditions":[9.838295E-1,9.470631E-1,1E0,8.4180105E-1,8.6875117E-1,6.25E-1,7.0148355E-1,6.676639E-1,9.9999994E-1,9.7078204E-1,6.666667E-1,1E0,5E-1,5.692644E-2,-1.4386861E-1,-5.432854E-2,-1.4668131E-1,-1.2514174E-1,8.596957E-2,-1.2358966E-1,7.409627E-3,-5.7666432E-2,9.0146765E-2,-1.4647144E-1,5.7799827E-2,-1.7255878E-2,1.02361195E-1],"split_indices":[4,1,23,5,8,11,3,4,9,3,17,17,10,0,0,0,0,0,0,0,0,0,0,0,0,0,0],"split_type":[0,0,0,0,0,0,0,0,0,0,0,0,0,0,0,0,0,0,0,0,0,0,0,0,0,0,0],"sum_hessian":[1.4815134E2,7.342493E1,7.472641E1,3.1467274E1,4.1957653E1,6.615438E1,8.572028E0,2.4664042E1,6.8032327E0,2.16916E1,2.0266052E1,7.632634E0,5.8521748E1,2.2419713E0,6.3300576E0,2.5503376E0,2.2113703E1,3.9973428E0,2.8058898E0,1.3156749E1,8.534852E0,4.4388304E0,1.5827223E1,4.3285027E0,3.304132E0,6.313374E0,5.2208374E1],"tree_param":{"num_deleted":"0","num_feature":"24","num_nodes":"27","size_leaf_vector":"1"}},{"base_weights":[-5.155801E-2,-6.213589E-1,5.365434E-1,-1.2185926E0,-1.3418382E-1,7.278117E-1,-8.7304E-1,-1.3534217E-1,-3.9530903E-1,-1.3410467E-1,2.0088333E-1,-5.7086027E-1,9.3056E-1,-1.261382E-1,-1.1945928E-2,-1.06104195E-1,5.4939013E-2,-3.702768E-2,9.5747255E-2,-1.4860561E-1,5.6106724E-2,-5.9701145E-2,1.1003136E-1],"categories":[],"categories_nodes":[],"categories_segments":[],"categories_sizes":[],"default_left":[0,0,0,1,0,0,0,0,0,0,1,1,0,0,0,0,0,0,0,0,0,0,0],"id":7,"left_children":[1,3,5,7,9,11,13,-1,15,-1,17,19,21,-1,-1,-1,-1,-1,-1,-1,-1,-1,-1],"loss_changes":[4.5565796E1,1.9918608E1,1.8688593E1,2.893196E0,1.6095491E1,1.6199266E1,2.323659E0,0E0,4.204683E0,0E0,1.3967539E1,9.800101E0,1.4102257E1,0E0,0E0,0E0,0E0,0E0,0E0,0E0,0E0,0E0,0E0],"parents":[2147483647,0,0,1,1,2,2,3,3,4,4,5,5,6,6,8,8,10,10,11,11,12,12],"right_children":[2,4,6,8,10,12,14,-1,16,-1,18,20,22,-1,-1,-1,-1,-1,-1,-1,-1,-1,-1],"split_conditions":[9.838295E-1,9.470631E-1,1E0,9.9999994E-1,6E-1,6.25E-1,8.333333E-1,-1.3534217E-1,8.264821E-1,-1.3410467E-1,8.413816E-1,1E0,5E-1,-1.261382E-1,-1.1945928E-2,-1.06104195E-1,5.4939013E-2,-3.702768E-2,9.5747255E-2,-1.4860561E-1,5.6106724E-2,-5.9701145E-2,1.1003136E-1],"split_indices":[4,1,23,22,10,11,11,0,6,0,6,17,10,0,0,0,0,0,0,0,0,0,0],"split_type":[0,0,0,0,0,0,0,0,0,0,0,0,0,0,0,0,0,0,0,0,0,0,0],"sum_hessian":[1.3398154E2,6.8020836E1,6.596071E1,2.9884148E1,3.813669E1,5.8505665E1,7.4550447E0,2.5125431E1,4.7587175E0,7.634828E0,3.0501858E1,7.655292E0,5.0850372E1,4.4750643E0,2.9799802E0,2.7192788E0,2.039439E0,1.7671776E1,1.2830082E1,4.0598955E0,3.5953963E0,4.8339434E0,4.601643E1],"tree_param":{"num_deleted":"0","num_feature":"24","num_nodes":"23","size_leaf_vector":"1"}},{"base_weights":[-2.6707822E-2,-7.3386693E-1,3.8084814E-1,-1.2328655E0,-2.4266842E-1,-9.024334E-1,6.165133E-1,-1.343298E-1,-6.940634E-1,3.946836E-1,-1.064891E0,5.4382224E-2,-1.2310463E-1,-1.2703715E-1,7.0086443E-1,-1.1358213E-1,1.1251795E-2,-7.747396E-2,6.960633E-2,2.8240965E-3,-1.4022857E-1,3.3252481E-3,9.14793E-2],"categories":[],"categories_nodes":[],"categories_segments":[],"categories_sizes":[],"default_left":[1,1,0,1,1,0,0,0,1,0,0,0,0,0,0,0,0,0,0,0,0,0,0],"id":8,"left_children":[1,3,5,7,9,11,13,-1,15,17,19,-1,-1,-1,21,-1,-1,-1,-1,-1,-1,-1,-1],"loss_changes":[3.9922504E1,1.2111126E1,2.7145065E1,5.47554E-1,1.4444031E1,7.345166E0,1.2807047E1,0E0,2.37244E0,6.1094522E0,4.449151E0,0E0,0E0,0E0,1.0297352E1,0E0,0E0,0E0,0E0,0E0,0E0,0E0,0E0],"parents":[2147483647,0,0,1,1,2,2,3,3,4,4,5,5,6,6,8,8,9,9,10,10,14,14],"right_children":[2,4,6,8,10,12,14,-1,16,18,20,-1,-1,-1,22,-1,-1,-1,-1,-1,-1,-1,-1],"split_conditions":[8.313785E-1,8.6875117E-1,8.4084976E-1,9.9999994E-1,9.999999E-1,9.021652E-1,4.397511E-1,-1.343298E-1,5.3846157E-1,6.875E-1,9.9999994E-1,5.4382224E-2,-1.2310463E-1,-1.2703715E-1,8.6614895E-1,-1.1358213E-1,1.1251795E-2,-7.747396E-2,6.960633E-2,2.8240965E-3,-1.4022857E-1,3.3252481E-3,9.14793E-2],"split_indices":[6,8,5,9,7,6,21,0,16,13,8,0,0,0,22,0,0,0,0,0,0,0,0],"split_type":[0,0,0,0,0,0,0,0,0,0,0,0,0,0,0,0,0,0,0,0,0,0,0],"sum_hessian":[1.3655052E2,4.963212E1,8.691841E1,2.3871569E1,2.5760548E1,1.3046456E1,7.387195E1,1.857195E1,5.2996187E0,1.4804616E1,1.0955931E1,2.2942686E0,1.0752188E1,2.559392E0,7.131256E1,3.1604664E0,2.1391523E0,2.7117503E0,1.2092866E1,2.8001065E0,8.155825E0,1.758623E1,5.372633E1],"tree_param":{"num_deleted":"0","num_feature":"24","num_nodes":"23","size_leaf_vector":"1"}},{"base_weights":[2.884843E-2,-9.042144E-1,2.7143508E-1,-1.2792636E0,1.8986156E-2,-2.4916622E-1,7.3131686E-1,-1.419112E-1,-1.8539172E-2,1.034215E-1,-6.2308735E-1,-1.1720738E0,3.699691E-1,-4.4513482E-1,9.486217E-1,8.165306E-3,-1.2947124E-1,-3.6645934E-2,-1.23741604E-1,-5.811667E-2,8.679742E-2,-1.3759561E-1,5.6778025E-2,4.2455897E-2,1.2426622E-1],"categories":[],"categories_nodes":[],"categories_segments":[],"categories_sizes":[],"default_left":[0,1,0,1,0,0,0,0,0,0,0,0,1,1,0,0,0,0,0,0,0,0,0,0,0],"id":9,"left_children":[1,3,5,7,9,11,13,-1,-1,-1,15,17,19,21,23,-1,-1,-1,-1,-1,-1,-1,-1,-1,-1],"loss_changes":[3.1097502E1,9.842455E0,2.6265831E1,2.8238068E0,6.626523E0,3.0058708E1,1.5275757E1,0E0,0E0,0E0,3.0619614E0,6.549511E-1,1.5562309E1,9.963926E0,7.078865E0,0E0,0E0,0E0,0E0,0E0,0E0,0E0,0E0,0E0,0E0],"parents":[2147483647,0,0,1,1,2,2,3,3,4,4,5,5,6,6,10,10,11,11,12,12,13,13,14,14],"right_children":[2,4,6,8,10,12,14,-1,-1,-1,16,18,20,22,24,-1,-1,-1,-1,-1,-1,-1,-1,-1,-1],"split_conditions":[9.576248E-1,9.999999E-1,9E-1,9.53338E-1,1.0000001E0,8.75E-1,6.875E-1,-1.419112E-1,-1.8539172E-2,1.034215E-1,1.0000001E0,6.7240906E-1,7.8571427E-1,1E0,7.3393863E-1,8.165306E-3,-1.2947124E-1,-3.6645934E-2,-1.23741604E-1,-5.811667E-2,8.679742E-2,-1.3759561E-1,5.6778025E-2,4.2455897E-2,1.2426622E-1],"split_indices":[0,8,11,7,8,14,13,0,0,0,6,4,17,22,7,0,0,0,0,0,0,0,0,0,0],"split_type":[0,0,0,0,0,0,0,0,0,0,0,0,0,0,0,0,0,0,0,0,0,0,0,0,0],"sum_hessian":[1.3530333E2,2.7356073E1,1.0794725E2,1.9178959E1,8.1771145E0,5.0846046E1,5.7101204E1,1.6741302E1,2.4376569E0,2.9313705E0,5.245744E0,2.005628E1,3.0789766E1,8.739358E0,4.8361847E1,2.9884107E0,2.2573335E0,2.0004687E0,1.805581E1,1.0523683E1,2.0266085E1,4.367458E0,4.3719006E0,1.8260462E1,3.0101385E1],"tree_param":{"num_deleted":"0","num_feature":"24","num_nodes":"25","size_leaf_vector":"1"}},{"base_weights":[-2.0849004E-2,-7.255099E-1,3.3400068E-1,-1.2208109E0,-1.5793814E-1,4.8412743E-1,-9.9810266E-1,-1.145073E-2,-1.3162641E-1,-1.19062856E-1,5.825484E-1,2.5284812E-2,8.37569E-1,-2.6186537E-3,-1.2640154E-1,1.01786666E-1,-4.252679E-2,-8.155607E-2,4.6835076E-2,-2.6869122E-3,1.04471944E-1],"categories":[],"categories_nodes":[],"categories_segments":[],"categories_sizes":[],"default_left":[0,1,0,0,1,1,0,0,0,0,1,1,0,0,0,0,0,0,0,0,0],"id":10,"left_children":[1,3,5,7,9,11,13,-1,-1,-1,15,17,19,-1,-1,-1,-1,-1,-1,-1,-1],"loss_changes":[3.4682655E1,1.2863773E1,1.8939653E1,2.4526405E0,1.8122568E1,1.3539061E1,2.4671211E0,0E0,0E0,0E0,6.55104E0,1.4320512E1,8.480373E0,0E0,0E0,0E0,0E0,0E0,0E0,0E0,0E0],"parents":[2147483647,0,0,1,1,2,2,3,3,4,4,5,5,6,6,10,10,11,11,12,12],"right_children":[2,4,6,8,10,12,14,-1,-1,-1,16,18,20,-1,-1,-1,-1,-1,-1,-1,-1],"split_conditions":[9.960308E-1,9.999999E-1,1E0,5.2981514E-1,9.9999976E-1,9.822893E-1,9.015999E-1,-1.145073E-2,-1.3162641E-1,-1.19062856E-1,9.999999E-1,7.895851E-1,7.580638E-1,-2.6186537E-3,-1.2640154E-1,1.01786666E-1,-4.252679E-2,-8.155607E-2,4.6835076E-2,-2.6869122E-3,1.04471944E-1],"split_indices":[3,22,23,7,8,6,4,0,0,0,7,22,0,0,0,0,0,0,0,0,0],"split_type":[0,0,0,0,0,0,0,0,0,0,0,0,0,0,0,0,0,0,0,0,0],"sum_hessian":[1.3673453E2,4.544508E1,9.1289444E1,2.3652977E1,2.1792103E1,8.261534E1,8.6741E0,2.053424E0,2.1599552E1,8.846617E0,1.2945486E1,3.6413887E1,4.6201458E1,2.0993636E0,6.574736E0,9.0335455E0,3.9119403E0,1.227597E1,2.4137917E1,9.099513E0,3.7101944E1],"tree_param":{"num_deleted":"0","num_feature":"24","num_nodes":"21","size_leaf_vector":"1"}},{"base_weights":[5.661141E-2,-5.268998E-1,3.3221635E-1,-1.0900925E0,-4.954732E-2,-1.22506954E-1,7.34936E-1,-1.2200487E-1,-5.005938E-3,-5.085421E-1,7.705035E-1,-1.23256065E-1,2.5600392E-1,-1.059291E-1,8.8242555E-1,-1.4653042E-1,-1.694336E-2,-9.045174E-3,1.0660706E-1,-1.09050654E-1,4.5305703E-2,-4.895055E-2,9.971013E-2],"categories":[],"categories_nodes":[],"categories_segments":[],"categories_sizes":[],"default_left":[0,1,1,1,0,0,0,0,0,1,0,0,0,0,1,0,0,0,0,0,0,0,0],"id":11,"left_children":[1,3,5,7,9,11,13,-1,-1,15,17,-1,19,-1,21,-1,-1,-1,-1,-1,-1,-1,-1],"loss_changes":[2.0782652E1,1.1101488E1,1.614053E1,2.5053425E0,9.239672E0,1.7972178E1,1.3272947E1,0E0,0E0,4.836919E0,2.344183E0,0E0,9.028624E0,0E0,7.3520203E0,0E0,0E0,0E0,0E0,0E0,0E0,0E0,0E0],"parents":[2147483647,0,0,1,1,2,2,3,3,4,4,5,5,6,6,9,9,10,10,12,12,14,14],"right_children":[2,4,6,8,10,12,14,-1,-1,16,18,-1,20,-1,22,-1,-1,-1,-1,-1,-1,-1,-1],"split_conditions":[9.960308E-1,9.999997E-1,9.8338866E-1,9.172039E-1,2.0000105E0,6.923077E-1,8.4180105E-1,-1.2200487E-1,-5.005938E-3,7.141268E-1,9.787769E-1,-1.23256065E-1,7.815038E-1,-1.059291E-1,4.441486E-1,-1.4653042E-1,-1.694336E-2,-9.045174E-3,1.0660706E-1,-1.09050654E-1,4.5305703E-2,-4.895055E-2,9.971013E-2],"split_indices":[3,8,6,7,9,11,5,0,0,6,1,0,22,0,21,0,0,0,0,0,0,0,0],"split_type":[0,0,0,0,0,0,0,0,0,0,0,0,0,0,0,0,0,0,0,0,0,0,0],"sum_hessian":[1.27141975E2,4.049471E1,8.664726E1,1.7988176E1,2.2506535E1,4.1022865E1,4.5624393E1,1.5836286E1,2.1518908E0,1.4673449E1,7.833085E0,9.857518E0,3.1165348E1,2.9959674E0,4.2628426E1,2.9707413E0,1.1702707E1,2.1792204E0,5.653865E0,3.3997784E0,2.776557E1,3.0361865E0,3.959224E1],"tree_param":{"num_deleted":"0","num_feature":"24","num_nodes":"23","size_leaf_vector":"1"}},{"base_weights":[3.246428E-2,-7.6123786E-1,2.3902512E-1,-1.24399476E-1,-2.298048E-1,-1.8272783E-1,6.117733E-1,-8.34159E-1,1.09546505E-1,-1.0300053E0,3.6036813E-1,-1.5968694E-1,8.479474E-1,-1.3066505E-1,2.4842802E-3,-1.1360095E-1,-5.350821E-2,-3.2864936E-2,8.25922E-2,-1.065187E-1,7.534207E-2,-3.947944E-2,9.768759E-2],"categories":[],"categories_nodes":[],"categories_segments":[],"categories_sizes":[],"default_left":[0,1,0,0,1,0,0,0,0,0,1,1,0,0,0,0,0,0,0,0,0,0,0],"id":12,"left_children":[1,3,5,-1,7,9,11,13,-1,15,17,19,21,-1,-1,-1,-1,-1,-1,-1,-1,-1,-1],"loss_changes":[2.1305246E1,6.6014414E0,1.6303547E1,0E0,1.2130976E1,2.2960833E1,1.0138926E1,4.166858E0,0E0,4.117756E-1,1.0105324E1,1.2138445E1,7.146202E0,0E0,0E0,0E0,0E0,0E0,0E0,0E0,0E0,0E0,0E0],"parents":[2147483647,0,0,1,1,2,2,4,4,5,5,6,6,7,7,9,9,10,10,11,11,12,12],"right_children":[2,4,6,-1,8,10,12,14,-1,16,18,20,22,-1,-1,-1,-1,-1,-1,-1,-1,-1,-1],"split_conditions":[9.576248E-1,7.2727275E-1,8.5714287E-1,-1.24399476E-1,8.967583E-1,1E0,7.815038E-1,5.714286E-1,1.09546505E-1,8E-1,8.6875117E-1,9.999998E-1,7.959697E-1,-1.3066505E-1,2.4842802E-3,-1.1360095E-1,-5.350821E-2,-3.2864936E-2,8.25922E-2,-1.065187E-1,7.534207E-2,-3.947944E-2,9.768759E-2],"split_indices":[0,17,14,0,5,11,22,10,0,11,8,6,6,0,0,0,0,0,0,0,0,0,0],"split_type":[0,0,0,0,0,0,0,0,0,0,0,0,0,0,0,0,0,0,0,0,0,0,0],"sum_hessian":[1.2784158E2,2.584559E1,1.0199599E2,1.2840434E1,1.3005156E1,4.8091614E1,5.3904377E1,9.18648E0,3.8186762E0,1.843494E1,2.9656672E1,1.2710271E1,4.1194107E1,5.59038E0,3.596099E0,1.4116171E1,4.318769E0,1.2076934E1,1.7579739E1,6.298096E0,6.412175E0,3.6781616E0,3.7515945E1],"tree_param":{"num_deleted":"0","num_feature":"24","num_nodes":"23","size_leaf_vector":"1"}},{"base_weights":[-3.4599308E-2,1.4292543E-1,-1.0413475E0,-7.659077E-1,3.2454842E-1,-1.2669188E-1,-3.6504716E-1,-1.2511608E-1,-1.7079341E-1,-3.0187767E-2,6.959867E-1,5.9430737E-2,-1.02238014E-1,-1.0476704E-1,5.809151E-2,-1.17185E-1,1.5320024E-2,-7.9902984E-2,7.954E-2],"categories":[],"categories_nodes":[],"categories_segments":[],"categories_sizes":[],"default_left":[0,1,1,1,1,0,0,0,0,0,0,0,0,0,0,0,0,0,0],"id":13,"left_children":[1,3,5,7,9,-1,11,-1,13,15,17,-1,-1,-1,-1,-1,-1,-1,-1],"loss_changes":[2.1366817E1,1.7052696E1,2.270832E0,4.7688313E0,1.1293227E1,0E0,4.3194633E0,0E0,6.4801393E0,9.541792E0,6.8528748E0,0E0,0E0,0E0,0E0,0E0,0E0,0E0,0E0],"parents":[2147483647,0,0,1,1,2,2,3,3,4,4,6,6,8,8,9,9,10,10],"right_children":[2,4,6,8,10,-1,12,-1,14,16,18,-1,-1,-1,-1,-1,-1,-1,-1],"split_conditions":[1E0,6.757184E-1,6.875E-1,8.2217646E-1,9.838295E-1,-1.2669188E-1,9.452972E-1,-1.2511608E-1,9.999999E-1,6E-1,5.6859016E-1,5.9430737E-2,-1.02238014E-1,-1.0476704E-1,5.809151E-2,-1.17185E-1,1.5320024E-2,-7.9902984E-2,7.954E-2],"split_indices":[23,21,16,7,4,0,6,0,4,10,22,0,0,0,0,0,0,0,0],"split_type":[0,0,0,0,0,0,0,0,0,0,0,0,0,0,0,0,0,0,0],"sum_hessian":[1.17720116E2,1.0080306E2,1.6917055E1,1.6253628E1,8.454943E1,1.2030971E1,4.886084E0,8.345977E0,7.9076524E0,4.371697E1,4.0832462E1,2.0256293E0,2.8604546E0,3.468217E0,4.4394355E0,5.304482E0,3.8412483E1,2.1071303E0,3.8725334E1],"tree_param":{"num_deleted":"0","num_feature":"24","num_nodes":"19","size_leaf_vector":"1"}},{"base_weights":[6.4838603E-3,-5.570465E-1,2.7808046E-1,-9.053332E-1,1.4578268E-1,-9.102202E-1,4.048761E-1,-1.1937884E0,-4.441735E-1,-9.8486386E-2,5.7879037E-1,-1.2908714E-1,-1.1667985E-2,-3.4566182E-1,5.7891434E-1,-4.4660233E-2,-1.2890063E-1,-9.392812E-2,6.384226E-2,9.9766724E-2,-4.1468125E-2,-1.3908263E-1,2.7728094E-2,-1.7143354E-2,7.891803E-2],"categories":[],"categories_nodes":[],"categories_segments":[],"categories_sizes":[],"default_left":[0,1,0,1,0,1,0,0,1,0,1,0,0,0,0,0,0,0,0,0,0,0,0,0,0],"id":14,"left_children":[1,3,5,7,9,11,13,15,17,-1,19,-1,-1,21,23,-1,-1,-1,-1,-1,-1,-1,-1,-1,-1],"loss_changes":[1.732312E1,9.143299E0,1.1873599E1,2.7625904E0,6.9635763E0,2.1662078E0,9.303007E0,4.6560287E-1,6.5588627E0,0E0,4.6054115E0,0E0,0E0,9.334085E0,9.119602E0,0E0,0E0,0E0,0E0,0E0,0E0,0E0,0E0,0E0,0E0],"parents":[2147483647,0,0,1,1,2,2,3,3,4,4,5,5,6,6,7,7,8,8,10,10,13,13,14,14],"right_children":[2,4,6,8,10,12,14,16,18,-1,20,-1,-1,22,24,-1,-1,-1,-1,-1,-1,-1,-1,-1,-1],"split_conditions":[9.7078204E-1,1E0,5.833333E-1,9.999999E-1,1E0,1E0,7.408936E-1,6.650972E-1,8.88417E-1,-9.8486386E-2,1.0000001E0,-1.2908714E-1,-1.1667985E-2,1E0,8.07768E-1,-4.4660233E-2,-1.2890063E-1,-9.392812E-2,6.384226E-2,9.9766724E-2,-4.1468125E-2,-1.3908263E-1,2.7728094E-2,-1.7143354E-2,7.891803E-2],"split_indices":[3,8,19,22,11,22,22,3,7,0,7,0,0,5,0,0,0,0,0,0,0,0,0,0,0],"split_type":[0,0,0,0,0,0,0,0,0,0,0,0,0,0,0,0,0,0,0,0,0,0,0,0,0],"sum_hessian":[1.1117176E2,3.5813026E1,7.5358734E1,2.375374E1,1.2059285E1,6.6700325E0,6.8688705E1,1.3635855E1,1.0117885E1,2.986534E0,9.07275E0,4.0841794E0,2.585853E0,1.2744041E1,5.594466E1,2.1844614E0,1.1451393E1,7.033575E0,3.08431E0,6.378967E0,2.6937838E0,4.2988396E0,8.445202E0,1.2285987E1,4.3658672E1],"tree_param":{"num_deleted":"0","num_feature":"24","num_nodes":"25","size_leaf_vector":"1"}},{"base_weights":[-5.906382E-3,-4.2501718E-1,3.7477556E-1,-1.0341274E0,-4.64979E-2,-1.6944948E-1,7.3174876E-1,-1.0911618E0,-3.500776E-2,-1.13821246E-1,2.3407373E-1,-9.8006374E-1,3.0582634E-1,-4.0256582E-2,8.5031545E-1,-3.8779106E-2,-1.16412476E-1,-6.28384E-2,7.264896E-2,-1.2348483E-1,-2.3237731E-2,-8.771535E-2,6.386095E-2,1.0562686E-2,1.0540984E-1],"categories":[],"categories_nodes":[],"categories_segments":[],"categories_sizes":[],"default_left":[0,0,0,1,0,0,0,0,0,0,1,1,0,0,0,0,0,0,0,0,0,0,0,0,0],"id":15,"left_children":[1,3,5,7,9,11,13,15,-1,-1,17,19,21,-1,23,-1,-1,-1,-1,-1,-1,-1,-1,-1,-1],"loss_changes":[1.7537868E1,1.2013364E1,1.1316141E1,3.9840508E-1,1.0469731E1,9.404287E0,5.0466022E0,4.7185326E-1,0E0,0E0,1.206316E1,1.4222784E0,6.724935E0,0E0,4.743206E0,0E0,0E0,0E0,0E0,0E0,0E0,0E0,0E0,0E0,0E0],"parents":[2147483647,0,0,1,1,2,2,3,3,4,4,5,5,6,6,7,7,10,10,11,11,12,12,14,14],"right_children":[2,4,6,8,10,12,14,16,-1,-1,18,20,22,-1,24,-1,-1,-1,-1,-1,-1,-1,-1,-1,-1],"split_conditions":[8.5714287E-1,1E0,9.822893E-1,9E-1,8.07768E-1,9.055954E-1,7.0822555E-1,6.676639E-1,-3.500776E-2,-1.13821246E-1,7.114114E-1,7.8571427E-1,9.576248E-1,-4.0256582E-2,9.7061193E-1,-3.8779106E-2,-1.16412476E-1,-6.28384E-2,7.264896E-2,-1.2348483E-1,-2.3237731E-2,-8.771535E-2,6.386095E-2,1.0562686E-2,1.0540984E-1],"split_indices":[14,11,6,15,0,1,22,4,0,0,6,17,0,0,0,0,0,0,0,0,0,0,0,0,0],"split_type":[0,0,0,0,0,0,0,0,0,0,0,0,0,0,0,0,0,0,0,0,0,0,0,0,0],"sum_hessian":[1.0792391E2,5.1313732E1,5.661018E1,1.9002703E1,3.2311028E1,2.2631914E1,3.3978268E1,1.699089E1,2.0118105E0,5.9811993E0,2.632983E1,7.972387E0,1.4659527E1,2.9888644E0,3.0989403E1,2.1903708E0,1.4800521E1,9.468969E0,1.686086E1,5.460192E0,2.5121949E0,2.8593347E0,1.1800192E1,6.9844165E0,2.4004986E1],"tree_param":{"num_deleted":"0","num_feature":"24","num_nodes":"25","size_leaf_vector":"1"}},{"base_weights":[-5.2316356E-2,1.03036426E-1,-8.86823E-1,-7.284324E-1,2.5096494E-1,-1.2121922E-1,-2.856128E-1,-1.2793416E-1,-2.8014746E-1,-4.4201624E-1,4.3237746E-1,-1.04855634E-1,4.920421E-2,4.3393813E-2,-1.1332343E-1,-9.52264E-2,3.3329852E-2,5.1016673E-3,7.770189E-2],"categories":[],"categories_nodes":[],"categories_segments":[],"categories_sizes":[],"default_left":[0,0,1,0,0,0,0,0,0,1,0,0,0,0,0,0,0,0,0],"id":16,"left_children":[1,3,5,7,9,-1,11,-1,13,15,17,-1,-1,-1,-1,-1,-1,-1,-1],"loss_changes":[1.3989841E1,1.1409611E1,2.965435E0,3.1096282E0,1.00263E1,0E0,4.8192034E0,0E0,5.9882584E0,6.934164E0,8.175936E0,0E0,0E0,0E0,0E0,0E0,0E0,0E0,0E0],"parents":[2147483647,0,0,1,1,2,2,3,3,4,4,6,6,8,8,9,9,10,10],"right_children":[2,4,6,8,10,-1,12,-1,14,16,18,-1,-1,-1,-1,-1,-1,-1,-1],"split_conditions":[1E0,6.25E-1,9.999999E-1,1E0,8.3746904E-1,-1.2121922E-1,8.161124E-1,-1.2793416E-1,1E0,9.999999E-1,9.6989554E-1,-1.04855634E-1,4.920421E-2,4.3393813E-2,-1.1332343E-1,-9.52264E-2,3.3329852E-2,5.1016673E-3,7.770189E-2],"split_indices":[23,11,22,22,0,0,6,0,20,8,4,0,0,0,0,0,0,0,0],"split_type":[0,0,0,0,0,0,0,0,0,0,0,0,0,0,0,0,0,0,0],"sum_hessian":[1.0620574E2,9.027632E1,1.5929421E1,1.304265E1,7.723367E1,9.676396E0,6.253025E0,5.019813E0,8.022838E0,1.5725814E1,6.150786E1,2.9805264E0,3.2724988E0,4.6346693E0,3.3881683E0,9.346498E0,6.379317E0,2.9743456E1,3.1764404E1],"tree_param":{"num_deleted":"0","num_feature":"24","num_nodes":"19","size_leaf_vector":"1"}},{"base_weights":[-3.541659E-2,-4.8866054E-1,2.7902046E-1,-8.4365666E-1,1.1236521E-1,-6.2147036E-2,8.910873E-1,-1.14496015E-1,-2.1621212E-1,-5.993985E-1,4.4560236E-1,-1.1539085E-1,1.4714915E-1,2.1957211E-1,1.1363969E0,-6.172849E-2,6.457333E-2,-9.827096E-2,5.7838573E-3,-1.929119E-2,1.1695496E-1,-3.0020842E-2,8.548697E-2,8.876315E-2,-3.2621834E-2,3.6391653E-2,1.23078205E-1],"categories":[],"categories_nodes":[],"categories_segments":[],"categories_sizes":[],"default_left":[1,0,1,1,0,0,0,0,0,1,1,0,0,0,0,0,0,0,0,0,0,0,0,0,0,0,0],"id":17,"left_children":[1,3,5,7,9,11,13,-1,15,17,19,-1,21,23,25,-1,-1,-1,-1,-1,-1,-1,-1,-1,-1,-1,-1],"loss_changes":[1.4747456E1,9.131915E0,1.2827955E1,4.8087234E0,4.206827E0,9.357694E0,3.367424E0,0E0,3.8243637E0,1.4986684E0,5.7204313E0,0E0,1.1219984E1,2.8836102E0,7.0718765E-1,0E0,0E0,0E0,0E0,0E0,0E0,0E0,0E0,0E0,0E0,0E0,0E0],"parents":[2147483647,0,0,1,1,2,2,3,3,4,4,5,5,6,6,8,8,9,9,10,10,12,12,13,13,14,14],"right_children":[2,4,6,8,10,12,14,-1,16,18,20,-1,22,24,26,-1,-1,-1,-1,-1,-1,-1,-1,-1,-1,-1,-1],"split_conditions":[6.666667E-1,1E0,9.813373E-1,9.9999976E-1,9.960308E-1,7.1428573E-1,9.9999994E-1,-1.14496015E-1,9.7732097E-1,7.6295525E-1,8.9321184E-1,-1.1539085E-1,9.9432224E-1,9.9999994E-1,2.0000103E0,-6.172849E-2,6.457333E-2,-9.827096E-2,5.7838573E-3,-1.929119E-2,1.1695496E-1,-3.0020842E-2,8.548697E-2,8.876315E-2,-3.2621834E-2,3.6391653E-2,1.23078205E-1],"split_indices":[17,0,5,8,3,10,21,0,6,6,22,0,1,5,2,0,0,0,0,0,0,0,0,0,0,0,0],"split_type":[0,0,0,0,0,0,0,0,0,0,0,0,0,0,0,0,0,0,0,0,0,0,0,0,0,0,0],"sum_hessian":[1.0152211E2,4.1355835E1,6.0166275E1,2.5745531E1,1.5610304E1,3.9209354E1,2.095692E1,1.6835972E1,8.909558E0,4.7232227E0,1.0887081E1,5.5814257E0,3.362793E1,6.1143804E0,1.4842541E1,6.2740293E0,2.6355286E0,2.6705198E0,2.0527027E0,6.1746387E0,4.7124424E0,2.0956753E1,1.2671175E1,2.4676275E0,3.6467526E0,2.144757E0,1.2697783E1],"tree_param":{"num_deleted":"0","num_feature":"24","num_nodes":"27","size_leaf_vector":"1"}},{"base_weights":[-4.162815E-2,-5.8232605E-1,2.9027155E-1,-9.947302E-1,-1.5690728E-1,-3.2484767E-1,5.274077E-1,-1.1791909E0,-7.887914E-3,-8.524439E-1,2.6648346E-1,7.458397E-2,-5.869047E-1,-2.6999432E-1,6.7818636E-1,-1.2890454E-1,-4.6540998E-2,-1.8792566E-2,-1.1715032E-1,-7.25618E-2,5.8569618E-2,8.919609E-3,-1.1333207E-1,-1.15332685E-1,6.387512E-2,5.4577994E-3,9.421658E-2],"categories":[],"categories_nodes":[],"categories_segments":[],"categories_sizes":[],"default_left":[1,1,0,0,1,0,0,1,0,0,0,0,0,1,0,0,0,0,0,0,0,0,0,0,0,0,0],"id":18,"left_children":[1,3,5,7,9,11,13,15,-1,17,19,-1,21,23,25,-1,-1,-1,-1,-1,-1,-1,-1,-1,-1,-1,-1],"loss_changes":[1.815233E1,6.5894203E0,9.326113E0,3.1734772E0,6.1500225E0,5.5111628E0,5.675186E0,6.564007E-1,0E0,1.4439096E0,4.625616E0,0E0,5.6743608E0,7.1417303E0,6.319395E0,0E0,0E0,0E0,0E0,0E0,0E0,0E0,0E0,0E0,0E0,0E0,0E0],"parents":[2147483647,0,0,1,1,2,2,3,3,4,4,5,5,6,6,7,7,9,9,10,10,12,12,13,13,14,14],"right_children":[2,4,6,8,10,12,14,16,-1,18,20,-1,22,24,26,-1,-1,-1,-1,-1,-1,-1,-1,-1,-1,-1,-1],"split_conditions":[8.6940676E-1,9.999999E-1,9.9999976E-1,1.0000002E0,6.4285713E-1,9.089649E-1,6.1516786E-1,9.9999976E-1,-7.887914E-3,1E0,8.274313E-1,7.458397E-2,9.9999994E-1,7.2727275E-1,8.0928016E-1,-1.2890454E-1,-4.6540998E-2,-1.8792566E-2,-1.1715032E-1,-7.25618E-2,5.8569618E-2,8.919609E-3,-1.1333207E-1,-1.15332685E-1,6.387512E-2,5.4577994E-3,9.421658E-2],"split_indices":[6,22,5,0,17,6,0,5,0,1,21,0,21,17,22,0,0,0,0,0,0,0,0,0,0,0,0],"split_type":[0,0,0,0,0,0,0,0,0,0,0,0,0,0,0,0,0,0,0,0,0,0,0,0,0,0,0],"sum_hessian":[9.920924E1,3.7448067E1,6.1761177E1,1.8335377E1,1.911269E1,1.7081848E1,4.467933E1,1.5022228E1,3.3131475E0,6.848597E0,1.2264092E1,2.9958003E0,1.4086047E1,6.9791284E0,3.7700203E1,1.2320155E1,2.702073E0,2.7370424E0,4.1115546E0,2.6755214E0,9.588572E0,6.669897E0,7.41615E0,3.4025695E0,3.5765588E0,1.15714E1,2.6128803E1],"tree_param":{"num_deleted":"0","num_feature":"24","num_nodes":"27","size_leaf_vector":"1"}},{"base_weights":[9.6078956E-4,-7.8469545E-1,1.6671886E-1,-1.1879458E-1,-8.456971E-2,-6.504602E-1,3.276324E-1,-9.624455E-2,4.9079743E-1,-1.1676564E-1,-1.3986997E-1,-2.1776927E-1,6.91887E-1,1.0450306E-2,7.060312E-2,-8.756972E-2,8.5651405E-2,-7.669841E-2,2.2059774E-2,1.6381046E-2,1.04090475E-1],"categories":[],"categories_nodes":[],"categories_segments":[],"categories_sizes":[],"default_left":[1,1,0,0,1,1,0,0,1,0,1,0,1,0,0,0,0,0,0,0,0],"id":19,"left_children":[1,3,5,-1,7,9,11,-1,13,-1,15,17,19,-1,-1,-1,-1,-1,-1,-1,-1],"loss_changes":[1.3042944E1,4.8259373E0,1.1087781E1,0E0,4.2373095E0,3.5180511E0,1.4009456E1,0E0,3.5565412E-1,0E0,6.7262287E0,7.0776114E0,7.5824165E0,0E0,0E0,0E0,0E0,0E0,0E0,0E0,0E0],"parents":[2147483647,0,0,1,1,2,2,4,4,5,5,6,6,8,8,10,10,11,11,12,12],"right_children":[2,4,6,-1,8,10,12,-1,14,-1,16,18,20,-1,-1,-1,-1,-1,-1,-1,-1],"split_conditions":[6.714984E-1,9.999999E-1,7.1428573E-1,-1.1879458E-1,8.104515E-1,7.5E-1,8.333333E-1,-9.624455E-2,9.0334314E-1,-1.1676564E-1,8.967583E-1,9.822893E-1,8.6875117E-1,1.0450306E-2,7.060312E-2,-8.756972E-2,8.5651405E-2,-7.669841E-2,2.2059774E-2,1.6381046E-2,1.04090475E-1],"split_indices":[21,22,10,0,5,17,11,0,7,0,5,6,8,0,0,0,0,0,0,0,0],"split_type":[0,0,0,0,0,0,0,0,0,0,0,0,0,0,0,0,0,0,0,0,0],"sum_hessian":[9.814947E1,1.6449331E1,8.1700134E1,9.995484E0,6.453846E0,1.2940608E1,6.875953E1,2.2888484E0,4.164998E0,5.7894144E0,7.151193E0,2.7694485E1,4.1065044E1,2.0218256E0,2.1431723E0,4.183105E0,2.9680882E0,1.1960257E1,1.5734229E1,1.6925497E1,2.4139547E1],"tree_param":{"num_deleted":"0","num_feature":"24","num_nodes":"21","size_leaf_vector":"1"}},{"base_weights":[2.9248095E-4,-4.5728892E-1,3.218291E-1,-1.0799982E-1,-1.6341992E-1,-6.0209924E-1,4.739512E-1,-3.4069622E-1,9.562683E-2,-7.018187E-2,-1.0892651E-1,-5.0808065E-2,7.8245485E-1,-7.602417E-2,2.8782194E-2,-5.1084768E-2,4.0927872E-2,-7.450676E-2,3.4709033E-2,-1.8840818E-2,9.565931E-2],"categories":[],"categories_nodes":[],"categories_segments":[],"categories_sizes":[],"default_left":[1,1,0,0,1,0,1,1,0,1,0,0,0,0,0,0,0,0,0,0,0],"id":20,"left_children":[1,3,5,-1,7,9,11,13,-1,15,-1,17,19,-1,-1,-1,-1,-1,-1,-1,-1],"loss_changes":[1.4545484E1,7.289686E0,8.445948E0,0E0,6.06171E0,2.164708E0,8.20114E0,6.9916444E0,0E0,1.3084462E0,0E0,5.6740403E0,5.558056E0,0E0,0E0,0E0,0E0,0E0,0E0,0E0,0E0],"parents":[2147483647,0,0,1,1,2,2,4,4,5,5,6,6,7,7,9,9,11,11,12,12],"right_children":[2,4,6,-1,8,10,12,14,-1,16,-1,18,20,-1,-1,-1,-1,-1,-1,-1,-1],"split_conditions":[8.80201E-1,8.6461544E-1,6.25E-1,-1.0799982E-1,7.894737E-1,5.714286E-1,6.666667E-1,9.9999994E-1,9.562683E-2,6.923077E-1,-1.0892651E-1,9.9999976E-1,8.0928016E-1,-7.602417E-2,2.8782194E-2,-5.1084768E-2,4.0927872E-2,-7.450676E-2,3.4709033E-2,-1.8840818E-2,9.565931E-2],"split_indices":[6,21,11,0,15,11,18,9,0,19,0,5,22,0,0,0,0,0,0,0,0],"split_type":[0,0,0,0,0,0,0,0,0,0,0,0,0,0,0,0,0,0,0,0,0],"sum_hessian":[9.6861725E1,3.9799927E1,5.70618E1,1.1902787E1,2.7897139E1,7.648697E0,4.94131E1,2.4684631E1,3.2125082E0,4.203319E0,3.4453778E0,1.8603754E1,3.0809347E1,1.4677559E1,1.00070715E1,2.156159E0,2.0471601E0,6.4599037E0,1.2143851E1,4.6731963E0,2.6136152E1],"tree_param":{"num_deleted":"0","num_feature":"24","num_nodes":"21","size_leaf_vector":"1"}},{"base_weights":[-9.0414E-3,-5.0579005E-1,2.9972267E-1,-8.332302E-1,3.942569E-1,-9.83583E-2,7.038888E-1,-1.1199425E0,-3.2554606E-1,-3.2599E-2,7.4739134E-1,-7.3371077E-1,4.2013764E-1,2.0934048E-1,9.2414904E-1,-1.2327448E-1,-3.81709E-2,-1.0559263E-1,1.2657793E-2,1.10843055E-1,2.2324968E-2,-1.1601704E-1,-1.5855346E-2,-9.3132086E-2,7.106797E-2,-3.5425875E-2,9.389624E-2,1.7910251E-4,1.031202E-1],"categories":[],"categories_nodes":[],"categories_segments":[],"categories_sizes":[],"default_left":[1,1,0,1,1,0,0,0,0,0,1,1,0,1,0,0,0,0,0,0,0,0,0,0,0,0,0,0,0],"id":21,"left_children":[1,3,5,7,9,11,13,15,17,-1,19,21,23,25,27,-1,-1,-1,-1,-1,-1,-1,-1,-1,-1,-1,-1,-1,-1],"loss_changes":[1.4106374E1,1.071622E1,9.1975E0,3.44409E0,2.8077326E0,1.001335E1,2.886548E0,8.878498E-1,3.7177415E0,0E0,1.0901096E0,3.1525002E0,7.281225E0,4.447076E0,1.9008675E0,0E0,0E0,0E0,0E0,0E0,0E0,0E0,0E0,0E0,0E0,0E0,0E0,0E0,0E0],"parents":[2147483647,0,0,1,1,2,2,3,3,4,4,5,5,6,6,7,7,8,8,10,10,11,11,12,12,13,13,14,14],"right_children":[2,4,6,8,10,12,14,16,18,-1,20,22,24,26,28,-1,-1,-1,-1,-1,-1,-1,-1,-1,-1,-1,-1,-1,-1],"split_conditions":[8.6875117E-1,8.5714287E-1,9.7826225E-1,9.3641907E-1,7.657767E-1,9.682075E-1,9.9999994E-1,1.0000002E0,8.0567604E-1,-3.2599E-2,9.999999E-1,6.875E-1,7.1428573E-1,9.9555033E-1,5.3333336E-1,-1.2327448E-1,-3.81709E-2,-1.0559263E-1,1.2657793E-2,1.10843055E-1,2.2324968E-2,-1.1601704E-1,-1.5855346E-2,-9.3132086E-2,7.106797E-2,-3.5425875E-2,9.389624E-2,1.7910251E-4,1.031202E-1],"split_indices":[8,17,4,6,21,1,3,0,0,0,6,16,10,6,17,0,0,0,0,0,0,0,0,0,0,0,0,0,0],"split_type":[0,0,0,0,0,0,0,0,0,0,0,0,0,0,0,0,0,0,0,0,0,0,0,0,0,0,0,0,0],"sum_hessian":[8.9982834E1,3.424706E1,5.5735775E1,2.5165867E1,9.081191E0,2.8460457E1,2.7275318E1,1.5312318E1,9.853548E0,3.0129328E0,6.0682583E0,1.2602536E1,1.585792E1,9.005586E0,1.8269733E1,1.2701648E1,2.6106708E0,3.2568371E0,6.596711E0,2.9331162E0,3.1351423E0,6.652671E0,5.9498653E0,2.4157197E0,1.3442201E1,5.371112E0,3.6344733E0,2.0056825E0,1.626405E1],"tree_param":{"num_deleted":"0","num_feature":"24","num_nodes":"29","size_leaf_vector":"1"}},{"base_weights":[7.106375E-2,-4.6791798E-1,2.91885E-1,-7.90821E-1,1.04487866E-1,-7.5260353E-1,4.280853E-1,-1.0818577E0,-3.281234E-1,5.1748216E-1,-9.5102556E-2,-1.1144809E-1,-1.5466163E-2,5.280502E-1,-7.7896304E-2,-4.157023E-2,-1.19834125E-1,-8.8995144E-2,4.9416307E-2,-6.7130052E-3,8.6789005E-2,3.3783794E-3,7.035196E-2],"categories":[],"categories_nodes":[],"categories_segments":[],"categories_sizes":[],"default_left":[0,1,0,1,0,1,0,0,1,0,0,0,0,0,0,0,0,0,0,0,0,0,0],"id":22,"left_children":[1,3,5,7,9,11,13,15,17,19,-1,-1,-1,21,-1,-1,-1,-1,-1,-1,-1,-1,-1],"loss_changes":[1.0997534E1,5.05559E0,9.618692E0,1.9771404E0,5.1072364E0,1.5372648E0,7.4638014E0,2.9301167E-1,4.1921954E0,1.7497702E0,0E0,0E0,0E0,4.7093267E0,0E0,0E0,0E0,0E0,0E0,0E0,0E0,0E0,0E0],"parents":[2147483647,0,0,1,1,2,2,3,3,4,4,5,5,6,6,7,7,8,8,9,9,13,13],"right_children":[2,4,6,8,10,12,14,16,18,20,-1,-1,-1,22,-1,-1,-1,-1,-1,-1,-1,-1,-1],"split_conditions":[9.7078204E-1,1E0,6.1538464E-1,9.999999E-1,9.6249384E-1,9.999999E-1,1E0,7.22593E-1,9.9999976E-1,7.8592455E-1,-9.5102556E-2,-1.1144809E-1,-1.5466163E-2,9.4006526E-1,-7.7896304E-2,-4.157023E-2,-1.19834125E-1,-8.8995144E-2,4.9416307E-2,-6.7130052E-3,8.6789005E-2,3.3783794E-3,7.035196E-2],"split_indices":[3,8,11,22,6,7,23,3,8,6,0,0,0,4,0,0,0,0,0,0,0,0,0],"split_type":[0,0,0,0,0,0,0,0,0,0,0,0,0,0,0,0,0,0,0,0,0,0,0],"sum_hessian":[9.0254265E1,2.590535E1,6.4348915E1,1.6318344E1,9.587006E0,6.901005E0,5.744791E1,9.195945E0,7.1223984E0,7.257193E0,2.329812E0,3.7609797E0,3.1400251E0,5.3573597E1,3.8743117E0,2.0486617E0,7.1472836E0,4.182448E0,2.9399502E0,3.0226684E0,4.2345247E0,1.4348612E1,3.9224987E1],"tree_param":{"num_deleted":"0","num_feature":"24","num_nodes":"23","size_leaf_vector":"1"}},{"base_weights":[-6.610885E-2,-4.3156564E-1,1.8365335E-1,-9.8821014E-1,-9.855097E-2,-2.7038562E-1,4.8526716E-1,-1.2129822E-1,-2.239207E-2,-7.7245E-1,4.5378563E-1,-7.0341974E-1,3.3787966E-1,-5.3640813E-2,6.281E-1,3.163008E-3,-9.560009E-2,-4.133117E-2,7.9948984E-2,-1.18225865E-1,-1.5128814E-2,-7.0247255E-2,8.7315075E-2,1.4633189E-2,8.941315E-2],"categories":[],"categories_nodes":[],"categories_segments":[],"categories_sizes":[],"default_left":[0,1,0,0,0,1,0,0,0,0,0,0,1,0,1,0,0,0,0,0,0,0,0,0,0],"id":23,"left_children":[1,3,5,7,9,11,13,-1,-1,15,17,19,21,-1,23,-1,-1,-1,-1,-1,-1,-1,-1,-1,-1],"loss_changes":[8.339957E0,6.7686563E0,7.589424E0,2.091157E0,9.390152E0,6.1326003E0,5.1644535E0,0E0,0E0,1.6993537E0,4.520053E0,3.363237E0,6.172339E0,0E0,3.6480503E0,0E0,0E0,0E0,0E0,0E0,0E0,0E0,0E0,0E0,0E0],"parents":[2147483647,0,0,1,1,2,2,3,3,4,4,5,5,6,6,9,9,10,10,11,11,12,12,14,14],"right_children":[2,4,6,8,10,12,14,-1,-1,16,18,20,22,-1,24,-1,-1,-1,-1,-1,-1,-1,-1,-1,-1],"split_conditions":[8.333333E-1,8.2217646E-1,9.960308E-1,1.0000004E0,9.9521846E-1,9.9999994E-1,5.833333E-1,-1.2129822E-1,-2.239207E-2,9.999999E-1,6.920646E-1,8.400387E-1,7.141268E-1,-5.3640813E-2,6.4285713E-1,3.163008E-3,-9.560009E-2,-4.133117E-2,7.9948984E-2,-1.18225865E-1,-1.5128814E-2,-7.0247255E-2,8.7315075E-2,1.4633189E-2,8.941315E-2],"split_indices":[11,7,3,5,4,8,19,0,0,0,22,7,6,0,18,0,0,0,0,0,0,0,0,0,0],"split_type":[0,0,0,0,0,0,0,0,0,0,0,0,0,0,0,0,0,0,0,0,0,0,0,0,0],"sum_hessian":[8.950113E1,3.603952E1,5.3461613E1,1.2753753E1,2.3285767E1,2.1380175E1,3.208144E1,9.401707E0,3.3520463E0,1.0309167E1,1.29766E1,1.2397649E1,8.982526E0,3.5969763E0,2.8484463E1,2.0697792E0,8.2393875E0,3.643183E0,9.333416E0,6.028307E0,6.369342E0,2.9454281E0,6.0370984E0,1.0684852E1,1.7799612E1],"tree_param":{"num_deleted":"0","num_feature":"24","num_nodes":"25","size_leaf_vector":"1"}},{"base_weights":[-2.495827E-2,1.0170634E-1,-8.1601584E-1,-4.801453E-1,2.4233584E-1,-1.0457454E0,2.2771021E-2,-9.5013887E-1,1.0237705E-1,-1.28332E-1,5.9171456E-1,-3.681263E-2,-1.1740356E-1,-1.0847008E-1,-3.768869E-2,-8.557951E-2,7.489595E-2,-9.678014E-2,1.9787544E-2,1.814725E-2,1.0145257E-1],"categories":[],"categories_nodes":[],"categories_segments":[],"categories_sizes":[],"default_left":[0,0,0,1,0,0,0,1,1,0,1,0,0,0,0,0,0,0,0,0,0],"id":24,"left_children":[1,3,5,7,9,11,-1,13,15,17,19,-1,-1,-1,-1,-1,-1,-1,-1,-1,-1],"loss_changes":[8.827407E0,6.3444653E0,3.1528168E0,4.2453294E0,8.10043E0,4.4945526E-1,0E0,2.4552488E-1,5.3917437E0,8.649782E0,5.379636E0,0E0,0E0,0E0,0E0,0E0,0E0,0E0,0E0,0E0,0E0],"parents":[2147483647,0,0,1,1,2,2,3,3,4,4,5,5,7,7,8,8,9,9,10,10],"right_children":[2,4,6,8,10,12,-1,14,16,18,20,-1,-1,-1,-1,-1,-1,-1,-1,-1,-1],"split_conditions":[1E0,9.7061193E-1,2.000011E0,9.999999E-1,1E0,7.2293156E-1,2.2771021E-2,9.1923267E-1,8.9351195E-1,9.4006526E-1,6.7765903E-1,-3.681263E-2,-1.1740356E-1,-1.0847008E-1,-3.768869E-2,-8.557951E-2,7.489595E-2,-9.678014E-2,1.9787544E-2,1.814725E-2,1.0145257E-1],"split_indices":[23,0,4,8,11,5,0,7,6,4,7,0,0,0,0,0,0,0,0,0,0],"split_type":[0,0,0,0,0,0,0,0,0,0,0,0,0,0,0,0,0,0,0,0,0],"sum_hessian":[8.627046E1,7.511452E1,1.1155951E1,1.4150959E1,6.0963554E1,9.141848E0,2.0141027E0,7.4826736E0,6.6682854E0,2.9887533E1,3.1076023E1,2.0712326E0,7.0706153E0,5.3375735E0,2.1451E0,2.5563934E0,4.1118917E0,7.8134365E0,2.2074097E1,1.6497831E1,1.4578191E1],"tree_param":{"num_deleted":"0","num_feature":"24","num_nodes":"21","size_leaf_vector":"1"}},{"base_weights":[-4.2873275E-2,-7.3473E-1,1.0539119E-1,-1.1734821E-1,-3.1061579E-2,-2.3909533E-1,3.7566835E-1,-6.226526E-2,4.0464748E-2,-4.642387E-1,6.9533926E-1,1.3445483E-1,8.112155E-1,-1.24636395E-2,-1.3039885E-1,-1.4183308E-2,1.105892E-1,-6.031662E-2,3.403472E-2,3.4735275E-3,9.483E-2],"categories":[],"categories_nodes":[],"categories_segments":[],"categories_sizes":[],"default_left":[1,1,1,0,0,1,1,0,0,1,1,0,0,0,0,0,0,0,0,0,0],"id":25,"left_children":[1,3,5,-1,7,9,11,-1,-1,13,15,17,19,-1,-1,-1,-1,-1,-1,-1,-1],"loss_changes":[8.951309E0,4.715769E0,6.8043375E0,0E0,2.0404985E0,7.1216187E0,4.1773396E0,0E0,0E0,7.4351625E0,2.4510465E0,4.375104E0,1.4938097E0,0E0,0E0,0E0,0E0,0E0,0E0,0E0,0E0],"parents":[2147483647,0,0,1,1,2,2,4,4,5,5,6,6,9,9,10,10,11,11,12,12],"right_children":[2,4,6,-1,8,10,12,-1,-1,14,16,18,20,-1,-1,-1,-1,-1,-1,-1,-1],"split_conditions":[6.714984E-1,9.999999E-1,6.875E-1,-1.1734821E-1,9.1984546E-1,7.692308E-1,9.9999976E-1,-6.226526E-2,4.0464748E-2,9.9999994E-1,8.199329E-1,9.029915E-1,5.555556E-1,-1.24636395E-2,-1.3039885E-1,-1.4183308E-2,1.105892E-1,-6.031662E-2,3.403472E-2,3.4735275E-3,9.483E-2],"split_indices":[21,22,16,0,6,15,9,0,0,7,22,5,10,0,0,0,0,0,0,0,0],"split_type":[0,0,0,0,0,0,0,0,0,0,0,0,0,0,0,0,0,0,0,0,0],"sum_hessian":[8.5508766E1,1.4392502E1,7.1116264E1,8.453749E0,5.938753E0,3.1316559E1,3.9799706E1,2.3368294E0,3.601924E0,2.5641632E1,5.6749268E0,2.6456398E1,1.3343305E1,1.9075678E1,6.5659537E0,2.082651E0,3.5922759E0,5.3522263E0,2.1104172E1,2.1902978E0,1.11530075E1],"tree_param":{"num_deleted":"0","num_feature":"24","num_nodes":"21","size_leaf_vector":"1"}},{"base_weights":[-2.394707E-2,-3.342048E-1,2.819492E-1,-8.91955E-1,-2.3094328E-2,-1.8058299E-1,5.473225E-1,-1.029492E0,-8.550187E-3,4.5592126E-1,-5.3389543E-1,-7.704578E-1,4.9142545E-1,7.845937E-1,-1.1136867E-1,-2.7626324E-2,-1.1511364E-1,-1.6434524E-2,7.984013E-2,-1.0847139E-1,-1.1462743E-2,-1.4225781E-1,-7.987308E-3,-2.5870312E-2,8.03949E-2,-6.0583003E-2,1.0102334E-1,-6.719693E-2,6.2051892E-2],"categories":[],"categories_nodes":[],"categories_segments":[],"categories_sizes":[],"default_left":[0,0,1,1,0,0,0,0,0,0,0,1,0,0,0,0,0,0,0,0,0,0,0,0,0,0,0,0,0],"id":26,"left_children":[1,3,5,7,9,11,13,15,-1,17,19,21,23,25,27,-1,-1,-1,-1,-1,-1,-1,-1,-1,-1,-1,-1,-1,-1],"loss_changes":[7.8081493E0,7.0607324E0,5.1889668E0,1.529808E0,6.9045043E0,6.669712E0,4.2445025E0,8.154173E-1,0E0,3.2301772E0,3.024594E0,3.8679543E0,2.0903234E0,6.7861176E0,3.6664088E0,0E0,0E0,0E0,0E0,0E0,0E0,0E0,0E0,0E0,0E0,0E0,0E0,0E0,0E0],"parents":[2147483647,0,0,1,1,2,2,3,3,4,4,5,5,6,6,7,7,9,9,10,10,11,11,12,12,13,13,14,14],"right_children":[2,4,6,8,10,12,14,16,-1,18,20,22,24,26,28,-1,-1,-1,-1,-1,-1,-1,-1,-1,-1,-1,-1,-1,-1],"split_conditions":[9.838295E-1,9.470631E-1,7.1428573E-1,1.0000001E0,1E0,9.648159E-1,1.0000002E0,6.9377047E-1,-8.550187E-3,9.9999994E-1,9.6249735E-1,9.927646E-1,9.999998E-1,9.045478E-1,1E0,-2.7626324E-2,-1.1511364E-1,-1.6434524E-2,7.984013E-2,-1.0847139E-1,-1.1462743E-2,-1.4225781E-1,-7.987308E-3,-2.5870312E-2,8.03949E-2,-6.0583003E-2,1.0102334E-1,-6.719693E-2,6.2051892E-2],"split_indices":[4,1,17,6,1,1,4,4,0,0,5,9,0,5,0,0,0,0,0,0,0,0,0,0,0,0,0,0,0],"split_type":[0,0,0,0,0,0,0,0,0,0,0,0,0,0,0,0,0,0,0,0,0,0,0,0,0,0,0,0,0],"sum_hessian":[8.0279E1,3.980943E1,4.0469574E1,1.3585937E1,2.6223492E1,1.4870524E1,2.559905E1,1.1370226E1,2.2157102E0,1.3588242E1,1.263525E1,7.841192E0,7.029332E0,1.867932E1,6.919731E0,2.0357594E0,9.334467E0,5.018804E0,8.569438E0,4.7749453E0,7.860305E0,3.4877458E0,4.353446E0,2.1179578E0,4.9113746E0,2.372807E0,1.6306513E1,3.964743E0,2.9549882E0],"tree_param":{"num_deleted":"0","num_feature":"24","num_nodes":"29","size_leaf_vector":"1"}},{"base_weights":[3.1157257E-2,-3.2316422E-1,3.1410906E-1,-7.8274524E-1,3.9138805E-2,4.690665E-1,-5.127461E-1,-1.3236271E-1,-9.940085E-2,-8.7951094E-2,2.7128455E-1,-8.575811E-2,5.8301806E-1,-1.01441674E-1,3.9476003E-2,-7.710855E-2,4.4713214E-2,-5.6079265E-2,6.1630208E-2,-5.678756E-2,6.80847E-2],"categories":[],"categories_nodes":[],"categories_segments":[],"categories_sizes":[],"default_left":[1,1,0,1,0,0,0,0,0,0,0,0,0,0,0,0,0,0,0,0,0],"id":27,"left_children":[1,3,5,7,9,11,13,-1,15,-1,17,-1,19,-1,-1,-1,-1,-1,-1,-1,-1],"loss_changes":[7.959009E0,5.906929E0,5.888749E0,5.636099E0,4.650245E0,6.1913223E0,3.7855058E0,0E0,3.2726145E0,0E0,5.305769E0,0E0,4.357154E0,0E0,0E0,0E0,0E0,0E0,0E0,0E0,0E0],"parents":[2147483647,0,0,1,1,2,2,3,3,4,4,5,5,6,6,8,8,10,10,12,12],"right_children":[2,4,6,8,10,12,14,-1,16,-1,18,-1,20,-1,-1,-1,-1,-1,-1,-1,-1],"split_conditions":[7.800883E-1,6.170147E-1,1E0,9.999998E-1,7.1428573E-1,5.431483E-1,9.999998E-1,-1.3236271E-1,9.4006526E-1,-8.7951094E-2,9.7078204E-1,-8.575811E-2,6.875E-1,-1.01441674E-1,3.9476003E-2,-7.710855E-2,4.4713214E-2,-5.6079265E-2,6.1630208E-2,-5.678756E-2,6.80847E-2],"split_indices":[7,9,23,22,10,22,1,0,4,0,3,0,13,0,0,0,0,0,0,0,0],"split_type":[0,0,0,0,0,0,0,0,0,0,0,0,0,0,0,0,0,0,0,0,0],"sum_hessian":[7.7374435E1,3.4291447E1,4.308299E1,1.4604802E1,1.9686646E1,3.6647705E1,6.4352813E0,7.629168E0,6.9756336E0,3.4087777E0,1.6277868E1,2.3826427E0,3.4265064E1,4.068437E0,2.3668447E0,2.945173E0,4.030461E0,4.5878844E0,1.1689983E1,2.308013E0,3.195705E1],"tree_param":{"num_deleted":"0","num_feature":"24","num_nodes":"21","size_leaf_vector":"1"}},{"base_weights":[-1.5873559E-2,-6.719319E-1,1.4303188E-1,-3.5705465E-1,-1.2615423E-1,-6.2625825E-1,2.5630417E-1,-7.825401E-1,1.08807094E-1,-9.833653E-2,1.0271105E-2,-3.9166504E-1,3.8408232E-1,-1.0084659E-1,-2.6216635E-2,-4.3086328E-2,5.162413E-2,2.687372E-2,-9.1532044E-2,8.133967E-3,7.435912E-2],"categories":[],"categories_nodes":[],"categories_segments":[],"categories_sizes":[],"default_left":[0,1,0,1,0,1,0,0,0,0,0,0,0,0,0,0,0,0,0,0,0],"id":28,"left_children":[1,3,5,7,-1,9,11,13,15,-1,-1,17,19,-1,-1,-1,-1,-1,-1,-1,-1],"loss_changes":[8.057694E0,2.3466983E0,5.58954E0,2.3083687E0,0E0,2.2581868E0,4.705573E0,4.3914557E-1,1.5927091E0,0E0,0E0,3.551074E0,4.9960575E0,0E0,0E0,0E0,0E0,0E0,0E0,0E0,0E0],"parents":[2147483647,0,0,1,1,2,2,3,3,5,5,6,6,7,7,8,8,11,11,12,12],"right_children":[2,4,6,8,-1,10,12,14,16,-1,-1,18,20,-1,-1,-1,-1,-1,-1,-1,-1],"split_conditions":[7.812269E-1,9.999998E-1,8.6875117E-1,8.689128E-1,-1.2615423E-1,9.950956E-1,6.1538464E-1,9.3219435E-1,6.923077E-1,-9.833653E-2,1.0271105E-2,7.850909E-1,9.5984995E-1,-1.0084659E-1,-2.6216635E-2,-4.3086328E-2,5.162413E-2,2.687372E-2,-9.1532044E-2,8.133967E-3,7.435912E-2],"split_indices":[9,7,8,22,0,6,14,6,17,0,0,3,1,0,0,0,0,0,0,0,0],"split_type":[0,0,0,0,0,0,0,0,0,0,0,0,0,0,0,0,0,0,0,0,0],"sum_hessian":[7.5369225E1,1.4066335E1,6.130289E1,1.0216084E1,3.8502512E0,7.286661E0,5.401623E1,4.9841456E0,5.2319384E0,4.6565385E0,2.630123E0,8.557176E0,4.5459053E1,2.8212886E0,2.1628573E0,2.225986E0,3.005952E0,3.9997458E0,4.5574303E0,2.5343515E1,2.0115538E1],"tree_param":{"num_deleted":"0","num_feature":"24","num_nodes":"21","size_leaf_vector":"1"}},{"base_weights":[1.5838379E-2,-6.1473465E-1,1.6534914E-1,-1.18499435E-1,-2.3557727E-1,-3.7439364E-1,3.7992448E-1,-9.4020635E-2,3.0449826E-1,-1.2604086E0,-3.7529152E-3,-5.2729235E-3,6.972135E-1,-5.290554E-2,7.658907E-2,-5.0825037E-2,-1.5962218E-1,-1.00456014E-1,2.8651213E-2,-9.004978E-2,2.8409457E-2,1.5475195E-3,8.5050106E-2],"categories":[],"categories_nodes":[],"categories_segments":[],"categories_sizes":[],"default_left":[0,1,0,0,1,0,1,0,1,0,0,1,0,0,0,0,0,0,0,0,0,0,0],"id":29,"left_children":[1,3,5,-1,7,9,11,-1,13,15,17,19,21,-1,-1,-1,-1,-1,-1,-1,-1,-1,-1],"loss_changes":[7.7164636E0,3.113822E0,7.7950864E0,0E0,4.3481746E0,6.333379E0,5.8429947E0,0E0,3.0195725E0,6.2580013E-1,4.5322638E0,6.103073E0,2.7253742E0,0E0,0E0,0E0,0E0,0E0,0E0,0E0,0E0,0E0,0E0],"parents":[2147483647,0,0,1,1,2,2,4,4,5,5,6,6,8,8,9,9,10,10,11,11,12,12],"right_children":[2,4,6,-1,8,10,12,-1,14,16,18,20,22,-1,-1,-1,-1,-1,-1,-1,-1,-1,-1],"split_conditions":[9.5360625E-1,9.9999994E-1,9.9999976E-1,-1.18499435E-1,9.5211107E-1,9.9999976E-1,8.313785E-1,-9.4020635E-2,7.2727275E-1,8E-1,9.4671005E-1,8.6461544E-1,7.2727275E-1,-5.290554E-2,7.658907E-2,-5.0825037E-2,-1.5962218E-1,-1.00456014E-1,2.8651213E-2,-9.004978E-2,2.8409457E-2,1.5475195E-3,8.5050106E-2],"split_indices":[0,21,22,0,4,5,6,0,17,14,3,21,19,0,0,0,0,0,0,0,0,0,0],"split_type":[0,0,0,0,0,0,0,0,0,0,0,0,0,0,0,0,0,0,0,0,0,0,0],"sum_hessian":[7.97703E1,1.46923895E1,6.507791E1,5.018754E0,9.6736355E0,1.8300364E1,4.6777546E1,3.87591E0,5.7977257E0,4.6895037E0,1.3610859E1,2.1571974E1,2.5205574E1,2.013492E0,3.7842333E0,2.2232757E0,2.4662282E0,2.5068016E0,1.1104057E1,4.753616E0,1.6818357E1,4.8291492E0,2.0376425E1],"tree_param":{"num_deleted":"0","num_feature":"24","num_nodes":"23","size_leaf_vector":"1"}},{"base_weights":[-9.3697645E-3,-8.039433E-1,1.4636941E-1,-1.0522878E-1,-4.406585E-1,-1.6127695E-1,5.3892815E-1,1.7114138E-2,-8.5175365E-2,-8.084301E-1,1.3574807E-1,-2.7497107E-2,6.8340206E-1,-1.2565029E-1,-4.211444E-3,-8.5027955E-2,3.0984392E-2,2.9309778E-2,9.9738054E-2],"categories":[],"categories_nodes":[],"categories_segments":[],"categories_sizes":[],"default_left":[0,1,1,0,1,0,0,0,0,1,1,0,1,0,0,0,0,0,0],"id":30,"left_children":[1,3,5,-1,7,9,11,-1,-1,13,15,-1,17,-1,-1,-1,-1,-1,-1],"loss_changes":[8.998013E0,6.1123466E-1,7.435474E0,0E0,1.7952218E0,6.8149896E0,3.3586345E0,0E0,0E0,3.7644424E0,4.5147943E0,0E0,2.5491505E0,0E0,0E0,0E0,0E0,0E0,0E0],"parents":[2147483647,0,0,1,1,2,2,4,4,5,5,6,6,9,9,10,10,12,12],"right_children":[2,4,6,-1,8,10,12,-1,-1,14,16,-1,18,-1,-1,-1,-1,-1,-1],"split_conditions":[7.1428573E-1,7.5E-1,9.999998E-1,-1.0522878E-1,1.0000002E0,9.999998E-1,5.714286E-1,1.7114138E-2,-8.5175365E-2,1.0000001E0,6.760751E-1,-2.7497107E-2,8.161124E-1,-1.2565029E-1,-4.211444E-3,-8.5027955E-2,3.0984392E-2,2.9309778E-2,9.9738054E-2],"split_indices":[10,17,22,0,8,3,19,0,0,8,21,0,6,0,0,0,0,0,0],"split_type":[0,0,0,0,0,0,0,0,0,0,0,0,0,0,0,0,0,0,0],"sum_hessian":[7.076251E1,1.0914609E1,5.98479E1,5.356362E0,5.558247E0,3.3883068E1,2.596483E1,2.4684079E0,3.0898392E0,1.0117492E1,2.3765577E1,3.7780097E0,2.2186821E1,5.980792E0,4.1366997E0,2.9835658E0,2.0782011E1,1.0753154E1,1.1433667E1],"tree_param":{"num_deleted":"0","num_feature":"24","num_nodes":"19","size_leaf_vector":"1"}},{"base_weights":[-7.839767E-2,-4.6704087E-1,1.739168E-1,-1.0610377E-1,-1.4704144E-1,-2.6694864E-1,5.131011E-1,-7.1292347E-1,1.2432358E-1,-7.402117E-1,1.3025507E-1,-2.3879877E-1,7.3465186E-1,-7.979157E-3,-9.958943E-2,-6.614733E-2,3.1731334E-2,-9.7301275E-2,-1.4558956E-2,-6.359612E-2,4.0102735E-2,4.042215E-2,-9.374423E-2,-1.22705E-2,9.251313E-2],"categories":[],"categories_nodes":[],"categories_segments":[],"categories_sizes":[],"default_left":[1,0,0,0,1,0,0,0,0,0,1,0,0,0,0,0,0,0,0,0,0,0,0,0,0],"id":31,"left_children":[1,3,5,-1,7,9,11,13,15,17,19,21,23,-1,-1,-1,-1,-1,-1,-1,-1,-1,-1,-1,-1],"loss_changes":[6.9160604E0,5.110877E0,6.5656576E0,0E0,3.032189E0,3.7341323E0,4.280041E0,1.0602255E0,2.3037858E0,1.1014156E0,2.614287E0,3.237261E0,3.261674E0,0E0,0E0,0E0,0E0,0E0,0E0,0E0,0E0,0E0,0E0,0E0,0E0],"parents":[2147483647,0,0,1,1,2,2,4,4,5,5,6,6,7,7,8,8,9,9,10,10,11,11,12,12],"right_children":[2,4,6,-1,8,10,12,14,16,18,20,22,24,-1,-1,-1,-1,-1,-1,-1,-1,-1,-1,-1,-1],"split_conditions":[8.6875117E-1,9.999998E-1,1E0,-1.0610377E-1,7.1428573E-1,9.9521846E-1,7.1428573E-1,8.812645E-1,8.557767E-1,7.777778E-1,8.2217646E-1,1.0000001E0,6.875E-1,-7.979157E-3,-9.958943E-2,-6.614733E-2,3.1731334E-2,-9.7301275E-2,-1.4558956E-2,-6.359612E-2,4.0102735E-2,4.042215E-2,-9.374423E-2,-1.22705E-2,9.251313E-2],"split_indices":[8,3,11,0,16,4,10,5,5,11,7,8,13,0,0,0,0,0,0,0,0,0,0,0,0],"split_type":[0,0,0,0,0,0,0,0,0,0,0,0,0,0,0,0,0,0,0,0,0,0,0,0,0],"sum_hessian":[6.870032E1,2.670903E1,4.1991283E1,8.540338E0,1.8168694E1,1.8351418E1,2.3639866E1,5.361367E0,1.2807325E1,7.9799066E0,1.0371511E1,5.3625555E0,1.8277311E1,2.052033E0,3.3093345E0,2.046615E0,1.0760711E1,5.277395E0,2.7025118E0,2.3559842E0,8.015528E0,3.011885E0,2.3506706E0,3.3871946E0,1.4890116E1],"tree_param":{"num_deleted":"0","num_feature":"24","num_nodes":"25","size_leaf_vector":"1"}},{"base_weights":[9.858017E-3,-3.625944E-1,2.6325446E-1,-9.3858767E-1,-9.410363E-2,-3.6188643E-2,7.614124E-1,4.6803253E-3,-1.3138555E-1,-8.793781E-1,2.288973E-1,-4.1015357E-1,6.308425E-1,1.0238069E-1,-1.9444486E-2,-1.2712287E-2,-1.21694185E-1,-8.883158E-2,5.7473518E-2,-8.727538E-2,-3.093181E-3,1.04888394E-1,9.56423E-3],"categories":[],"categories_nodes":[],"categories_segments":[],"categories_sizes":[],"default_left":[1,0,0,0,1,1,0,0,0,0,0,1,0,0,0,0,0,0,0,0,0,0,0],"id":32,"left_children":[1,3,5,7,9,11,13,-1,-1,15,17,19,21,-1,-1,-1,-1,-1,-1,-1,-1,-1,-1],"loss_changes":[6.9478536E0,4.522933E0,6.55944E0,3.5258703E0,5.6417003E0,7.3189316E0,4.333647E0,0E0,0E0,1.4851351E0,6.689161E0,3.260839E0,2.2627048E0,0E0,0E0,0E0,0E0,0E0,0E0,0E0,0E0,0E0,0E0],"parents":[2147483647,0,0,1,1,2,2,3,3,4,4,5,5,6,6,9,9,10,10,11,11,12,12],"right_children":[2,4,6,8,10,12,14,-1,-1,16,18,20,22,-1,-1,-1,-1,-1,-1,-1,-1,-1,-1],"split_conditions":[6.890176E-1,9.648159E-1,9.971456E-1,1E0,7.114114E-1,9.999997E-1,1E0,4.6803253E-3,-1.3138555E-1,7.2727275E-1,8.328912E-1,6.875E-1,9.9999994E-1,1.0238069E-1,-1.9444486E-2,-1.2712287E-2,-1.21694185E-1,-8.883158E-2,5.7473518E-2,-8.727538E-2,-3.093181E-3,1.04888394E-1,9.56423E-3],"split_indices":[7,1,1,9,6,5,7,0,0,18,0,16,0,0,0,0,0,0,0,0,0,0,0],"split_type":[0,0,0,0,0,0,0,0,0,0,0,0,0,0,0,0,0,0,0,0,0,0,0],"sum_hessian":[7.1605804E1,2.8817595E1,4.278821E1,8.368614E0,2.044898E1,2.7303448E1,1.5484766E1,2.5494535E0,5.8191605E0,5.4577255E0,1.4991255E1,1.7741783E1,9.561664E0,1.2093786E1,3.3909795E0,2.1168807E0,3.3408446E0,3.1728666E0,1.1818388E1,7.406006E0,1.0335777E1,4.829542E0,4.7321215E0],"tree_param":{"num_deleted":"0","num_feature":"24","num_nodes":"23","size_leaf_vector":"1"}},{"base_weights":[3.3899784E-2,-5.2851737E-1,1.6834565E-1,1.6896644E-1,-9.748432E-1,-1.938943E-1,4.0096608E-1,-4.223359E-2,6.141309E-2,-4.7570735E-1,-1.3097037E-1,-6.759288E-1,1.3222767E-1,-2.8745413E-1,5.7365745E-1,-9.625977E-2,1.7293917E-2,-5.9890947E-3,-8.9569755E-2,-7.822436E-2,4.1772153E-2,-9.8580785E-2,2.3308514E-2,-2.2292486E-4,7.232828E-2],"categories":[],"categories_nodes":[],"categories_segments":[],"categories_sizes":[],"default_left":[0,0,0,1,0,1,1,0,0,0,0,0,1,1,0,0,0,0,0,0,0,0,0,0,0],"id":33,"left_children":[1,3,5,7,9,11,13,-1,-1,15,-1,17,19,21,23,-1,-1,-1,-1,-1,-1,-1,-1,-1,-1],"loss_changes":[5.4412565E0,4.491195E0,4.955457E0,1.9112144E0,8.181381E-1,3.7538052E0,4.3942637E0,0E0,0E0,1.7558168E0,0E0,1.2420287E0,4.1750445E0,3.065475E0,2.4810572E0,0E0,0E0,0E0,0E0,0E0,0E0,0E0,0E0,0E0,0E0],"parents":[2147483647,0,0,1,1,2,2,3,3,4,4,5,5,6,6,9,9,11,11,12,12,13,13,14,14],"right_children":[2,4,6,8,10,12,14,-1,-1,16,-1,18,20,22,24,-1,-1,-1,-1,-1,-1,-1,-1,-1,-1],"split_conditions":[8.0928016E-1,9.9999994E-1,9.999998E-1,9.999998E-1,8.9959663E-1,9.999997E-1,6.714984E-1,-4.223359E-2,6.141309E-2,6.666667E-1,-1.3097037E-1,9.999999E-1,7.333963E-1,8.143091E-1,8.5714287E-1,-9.625977E-2,1.7293917E-2,-5.9890947E-3,-8.9569755E-2,-7.822436E-2,4.1772153E-2,-9.8580785E-2,2.3308514E-2,-2.2292486E-4,7.232828E-2],"split_indices":[22,0,3,6,1,8,21,0,0,11,0,21,6,7,10,0,0,0,0,0,0,0,0,0,0],"split_type":[0,0,0,0,0,0,0,0,0,0,0,0,0,0,0,0,0,0,0,0,0,0,0,0,0],"sum_hessian":[6.978367E1,1.2897879E1,5.6885788E1,5.2753673E0,7.622511E0,2.2310316E1,3.4575474E1,2.2878056E0,2.9875617E0,4.032447E0,3.590064E0,8.570219E0,1.3740098E1,6.800655E0,2.7774818E1,2.0269544E0,2.0054924E0,2.58807E0,5.9821486E0,2.8550527E0,1.0885045E1,2.5225673E0,4.2780876E0,5.9312754E0,2.1843544E1],"tree_param":{"num_deleted":"0","num_feature":"24","num_nodes":"25","size_leaf_vector":"1"}},{"base_weights":[-1.238761E-1,-4.400472E-1,9.91045E-2,-7.4771124E-1,-1.4827335E-1,-6.169159E-1,2.1885031E-1,-9.729816E-1,-1.8705244E-1,-8.682334E-2,9.402007E-2,-1.6784923E-3,-1.04856335E-1,-6.7510225E-2,3.088998E-1,-4.7579758E-2,-1.2068005E-1,-6.582149E-2,3.3186946E-2,-3.6486447E-2,6.622995E-2,-2.3124678E-2,4.5892533E-2],"categories":[],"categories_nodes":[],"categories_segments":[],"categories_sizes":[],"default_left":[1,1,0,0,0,1,0,0,1,0,0,0,0,0,1,0,0,0,0,0,0,0,0],"id":34,"left_children":[1,3,5,7,9,11,13,15,17,-1,19,-1,-1,-1,21,-1,-1,-1,-1,-1,-1,-1,-1],"loss_changes":[4.8933787E0,2.4595761E0,3.663818E0,1.5470724E0,2.862922E0,1.5777729E0,3.1063895E0,5.334692E-1,1.4805369E0,0E0,3.5878055E0,0E0,0E0,0E0,2.811904E0,0E0,0E0,0E0,0E0,0E0,0E0,0E0,0E0],"parents":[2147483647,0,0,1,1,2,2,3,3,4,4,5,5,6,6,7,7,8,8,10,10,14,14],"right_children":[2,4,6,8,10,12,14,16,18,-1,20,-1,-1,-1,22,-1,-1,-1,-1,-1,-1,-1,-1],"split_conditions":[9.999997E-1,6.202887E-1,7.6614314E-1,1E0,9.195472E-1,9.948831E-1,6.7268825E-1,8.4615386E-1,8.4615386E-1,-8.682334E-2,9.999997E-1,-1.6784923E-3,-1.04856335E-1,-6.7510225E-2,7.114114E-1,-4.7579758E-2,-1.2068005E-1,-6.582149E-2,3.3186946E-2,-3.6486447E-2,6.622995E-2,-2.3124678E-2,4.5892533E-2],"split_indices":[8,7,9,0,3,7,21,11,15,0,1,0,0,0,6,0,0,0,0,0,0,0,0],"split_type":[0,0,0,0,0,0,0,0,0,0,0,0,0,0,0,0,0,0,0,0,0,0,0],"sum_hessian":[6.7791016E1,2.763418E1,4.0156837E1,1.2690212E1,1.4943968E1,5.1586714E0,3.4998165E1,8.528194E0,4.162018E0,3.112366E0,1.1831602E1,2.5927656E0,2.5659056E0,2.6082401E0,3.2389927E1,3.6985755E0,4.829619E0,2.0407043E0,2.1213136E0,6.7438803E0,5.087722E0,6.9230475E0,2.5466877E1],"tree_param":{"num_deleted":"0","num_feature":"24","num_nodes":"23","size_leaf_vector":"1"}},{"base_weights":[-3.717506E-2,-6.333497E-1,1.0910901E-1,2.6070446E-2,-9.135603E-1,-1.3034222E-1,4.6652466E-1,-1.11780725E-1,-2.1877408E-2,-7.3219323E-1,2.9700438E-2,-7.783751E-2,6.3532346E-1,-9.044273E-2,-2.1515494E-2,3.9785713E-2,-4.6069983E-2,-2.8346604E-2,8.4786884E-2],"categories":[],"categories_nodes":[],"categories_segments":[],"categories_sizes":[],"default_left":[0,0,1,0,1,0,0,0,0,1,0,0,0,0,0,0,0,0,0],"id":35,"left_children":[1,3,5,-1,7,9,11,-1,-1,13,15,-1,17,-1,-1,-1,-1,-1,-1],"loss_changes":[5.7457724E0,3.4878764E0,4.6069784E0,0E0,1.1884823E0,3.160943E0,5.0185566E0,0E0,0E0,4.1852474E-1,5.004859E0,0E0,4.05013E0,0E0,0E0,0E0,0E0,0E0,0E0],"parents":[2147483647,0,0,1,1,2,2,4,4,5,5,6,6,9,9,10,10,12,12],"right_children":[2,4,6,-1,8,10,12,-1,-1,14,16,-1,18,-1,-1,-1,-1,-1,-1],"split_conditions":[7.895851E-1,9.999999E-1,9.838295E-1,2.6070446E-2,1.0000002E0,8E-1,4.9892086E-1,-1.11780725E-1,-2.1877408E-2,9.599443E-1,1E0,-7.783751E-2,5.4545456E-1,-9.044273E-2,-2.1515494E-2,3.9785713E-2,-4.6069983E-2,-2.8346604E-2,8.4786884E-2],"split_indices":[22,0,4,0,8,11,0,0,0,6,1,0,17,0,0,0,0,0,0],"split_type":[0,0,0,0,0,0,0,0,0,0,0,0,0,0,0,0,0,0,0],"sum_hessian":[6.40913E1,1.1971669E1,5.2119633E1,2.8733675E0,9.098302E0,3.1590706E1,2.0528927E1,6.560774E0,2.5375283E0,5.8849554E0,2.5705751E1,2.0200074E0,1.8508919E1,3.852408E0,2.0325472E0,1.479069E1,1.0915061E1,3.4146068E0,1.5094313E1],"tree_param":{"num_deleted":"0","num_feature":"24","num_nodes":"19","size_leaf_vector":"1"}},{"base_weights":[-6.281813E-3,-6.984158E-1,9.640762E-2,-9.7215325E-2,-1.5889844E-2,-2.796399E-1,3.182526E-1,-9.878678E-2,3.2415497E-4,-1.7578572E-1,4.9795198E-1,-6.102098E-2,2.9752925E-2,-9.505806E-2,2.7370704E-2,-4.5827352E-3,6.764183E-2],"categories":[],"categories_nodes":[],"categories_segments":[],"categories_sizes":[],"default_left":[0,1,0,0,0,0,1,0,1,1,0,0,0,0,0,0,0],"id":36,"left_children":[1,3,5,-1,-1,7,9,-1,11,13,15,-1,-1,-1,-1,-1,-1],"loss_changes":[4.603193E0,1.0811353E0,4.7984314E0,0E0,0E0,4.2590184E0,3.2811794E0,0E0,3.1561325E0,3.8591058E0,2.6162505E0,0E0,0E0,0E0,0E0,0E0,0E0],"parents":[2147483647,0,0,1,1,2,2,5,5,6,6,8,8,9,9,10,10],"right_children":[2,4,6,-1,-1,8,10,-1,12,14,16,-1,-1,-1,-1,-1,-1],"split_conditions":[6.363636E-1,9.025993E-1,9.999998E-1,-9.7215325E-2,-1.5889844E-2,9.9999976E-1,5.549778E-1,-9.878678E-2,7.4938226E-1,4.2857143E-1,6.8421054E-1,-6.102098E-2,2.9752925E-2,-9.505806E-2,2.7370704E-2,-4.5827352E-3,6.764183E-2],"split_indices":[11,9,3,0,0,22,7,0,6,19,16,0,0,0,0,0,0],"split_type":[0,0,0,0,0,0,0,0,0,0,0,0,0,0,0,0,0],"sum_hessian":[6.281808E1,7.36645E0,5.5451633E1,4.3549595E0,3.0114906E0,2.047838E1,3.497325E1,5.0853553E0,1.5393025E1,9.3338785E0,2.5639372E1,4.6950507E0,1.0697975E1,3.01761E0,6.316268E0,6.519117E0,1.9120256E1],"tree_param":{"num_deleted":"0","num_feature":"24","num_nodes":"17","size_leaf_vector":"1"}},{"base_weights":[-1.5636331E-1,-4.1083843E-1,1.427851E-1,-6.715725E-1,-6.819303E-2,-5.787648E-1,4.0932098E-1,-1.0785141E0,-2.806141E-1,-7.4283324E-2,2.858882E-1,-8.1174985E-2,3.0605535E-3,-3.5110033E-1,6.318835E-1,-3.2837912E-2,-1.3318813E-1,-7.959223E-2,2.5192877E-2,7.827934E-2,-8.824147E-3,-8.1400596E-2,2.5942424E-2,-1.0954104E-2,8.5930906E-2],"categories":[],"categories_nodes":[],"categories_segments":[],"categories_sizes":[],"default_left":[1,1,0,1,1,1,0,0,0,0,1,0,0,0,0,0,0,0,0,0,0,0,0,0,0],"id":37,"left_children":[1,3,5,7,9,11,13,15,17,-1,19,-1,-1,21,23,-1,-1,-1,-1,-1,-1,-1,-1,-1,-1],"loss_changes":[4.6835423E0,2.9100504E0,5.7502007E0,2.668583E0,3.8934863E0,1.1815505E0,3.8639572E0,1.2349787E0,3.18529E0,0E0,2.0820928E0,0E0,0E0,1.7698863E0,2.9614716E0,0E0,0E0,0E0,0E0,0E0,0E0,0E0,0E0,0E0,0E0],"parents":[2147483647,0,0,1,1,2,2,3,3,4,4,5,5,6,6,7,7,8,8,10,10,13,13,14,14],"right_children":[2,4,6,8,10,12,14,16,18,-1,20,-1,-1,22,24,-1,-1,-1,-1,-1,-1,-1,-1,-1,-1],"split_conditions":[9.999999E-1,9.025993E-1,9.9999976E-1,7.5E-1,7.1428573E-1,9.9999994E-1,6.363636E-1,7.384318E-1,7.1244705E-1,-7.4283324E-2,6.666667E-1,-8.1174985E-2,3.0605535E-3,8.802456E-1,8.6364293E-1,-3.2837912E-2,-1.3318813E-1,-7.959223E-2,2.5192877E-2,7.827934E-2,-8.824147E-3,-8.1400596E-2,2.5942424E-2,-1.0954104E-2,8.5930906E-2],"split_indices":[22,9,0,17,16,5,17,9,22,0,15,0,0,4,21,0,0,0,0,0,0,0,0,0,0],"split_type":[0,0,0,0,0,0,0,0,0,0,0,0,0,0,0,0,0,0,0,0,0,0,0,0,0],"sum_hessian":[5.9753113E1,3.208563E1,2.7667484E1,1.7675554E1,1.4410075E1,7.1473026E0,2.0520182E1,7.799035E0,9.876518E0,4.5819845E0,9.828092E0,4.9301934E0,2.2171094E0,4.515319E0,1.6004864E1,2.5488393E0,5.250196E0,4.7681303E0,5.1083884E0,3.7522228E0,6.0758686E0,2.3785727E0,2.1367462E0,3.8786182E0,1.2126245E1],"tree_param":{"num_deleted":"0","num_feature":"24","num_nodes":"25","size_leaf_vector":"1"}},{"base_weights":[-4.3309204E-2,-5.952806E-1,8.195122E-2,-9.301626E-2,2.2538872E-2,-4.915692E-1,2.3393156E-1,-1.13553874E-1,-4.9120933E-2,-1.2061667E-1,5.375401E-1,-8.354272E-2,4.6340443E-2,-9.711929E-2,1.0475262E-2,-3.508789E-2,7.060655E-2],"categories":[],"categories_nodes":[],"categories_segments":[],"categories_sizes":[],"default_left":[0,0,0,0,0,1,1,0,1,1,0,0,0,0,0,0,0],"id":38,"left_children":[1,3,5,-1,-1,7,9,-1,11,13,15,-1,-1,-1,-1,-1,-1],"loss_changes":[4.2639246E0,3.3418798E0,4.5226984E0,0E0,0E0,3.0543306E0,4.4408226E0,0E0,3.415858E0,3.8531358E0,3.55399E0,0E0,0E0,0E0,0E0,0E0,0E0],"parents":[2147483647,0,0,1,1,2,2,5,5,6,6,8,8,9,9,10,10],"right_children":[2,4,6,-1,-1,8,10,-1,12,14,16,-1,-1,-1,-1,-1,-1],"split_conditions":[7.895851E-1,1.0000004E0,9.576248E-1,-9.301626E-2,2.2538872E-2,9.9999994E-1,6.890176E-1,-1.13553874E-1,7.2727275E-1,6.9528806E-1,7.408936E-1,-8.354272E-2,4.6340443E-2,-9.711929E-2,1.0475262E-2,-3.508789E-2,7.060655E-2],"split_indices":[22,5,0,0,0,21,7,0,17,6,21,0,0,0,0,0,0],"split_type":[0,0,0,0,0,0,0,0,0,0,0,0,0,0,0,0,0],"sum_hessian":[5.996514E1,1.0397089E1,4.9568054E1,7.28923E0,3.1078596E0,9.915607E0,3.9652447E1,3.400214E0,6.5153933E0,1.856976E1,2.1082687E1,2.3223968E0,4.1929965E0,3.1964724E0,1.5373287E1,3.1890185E0,1.789367E1],"tree_param":{"num_deleted":"0","num_feature":"24","num_nodes":"17","size_leaf_vector":"1"}},{"base_weights":[-1.602292E-2,-3.2111362E-1,3.134686E-1,-8.981981E-1,-4.0328965E-2,-2.2880502E-1,5.58177E-1,-2.995045E-2,-1.0953496E-1,-4.1221857E-1,3.6895102E-1,5.634272E-2,-7.1429884E-1,-1.4240682E-1,8.1172866E-1,-7.676997E-2,2.45874E-2,-1.6110573E-2,5.774954E-2,-1.0760206E-1,-1.05056465E-2,2.4849704E-2,-6.2119603E-2,9.500284E-2,-4.8863688E-3],"categories":[],"categories_nodes":[],"categories_segments":[],"categories_sizes":[],"default_left":[0,0,1,1,1,0,1,0,0,0,1,0,0,0,1,0,0,0,0,0,0,0,0,0,0],"id":39,"left_children":[1,3,5,7,9,11,13,-1,-1,15,17,-1,19,21,23,-1,-1,-1,-1,-1,-1,-1,-1,-1,-1],"loss_changes":[6.1475635E0,5.1047316E0,4.032538E0,8.921013E-1,3.5599597E0,4.1945405E0,3.7689972E0,0E0,0E0,3.0435207E0,1.3296213E0,0E0,1.3313007E0,1.3365117E0,1.8615646E0,0E0,0E0,0E0,0E0,0E0,0E0,0E0,0E0,0E0,0E0],"parents":[2147483647,0,0,1,1,2,2,3,3,4,4,5,5,6,6,9,9,10,10,12,12,13,13,14,14],"right_children":[2,4,6,8,10,12,14,-1,-1,16,18,-1,20,22,24,-1,-1,-1,-1,-1,-1,-1,-1,-1,-1],"split_conditions":[9.838295E-1,1E0,5.4545456E-1,9.948831E-1,6.890176E-1,9.9999994E-1,6.875E-1,-2.995045E-2,-1.0953496E-1,1E0,8.5174644E-1,5.634272E-2,9.617768E-1,1.0000001E0,1.0000002E0,-7.676997E-2,2.45874E-2,-1.6110573E-2,5.774954E-2,-1.0760206E-1,-1.05056465E-2,2.4849704E-2,-6.2119603E-2,9.500284E-2,-4.8863688E-3],"split_indices":[4,11,17,7,7,21,16,0,0,0,22,0,1,7,4,0,0,0,0,0,0,0,0,0,0],"split_type":[0,0,0,0,0,0,0,0,0,0,0,0,0,0,0,0,0,0,0,0,0,0,0,0,0],"sum_hessian":[5.9153355E1,3.0727156E1,2.8426199E1,9.337439E0,2.1389719E1,8.859202E0,1.9566996E1,2.9371865E0,6.4002514E0,1.1203002E1,1.0186716E1,3.3052113E0,5.553991E0,5.316215E0,1.4250781E1,7.1657405E0,4.037262E0,2.9404519E0,7.246264E0,3.0041773E0,2.5498135E0,3.1915152E0,2.1247E0,1.2188182E1,2.0625994E0],"tree_param":{"num_deleted":"0","num_feature":"24","num_nodes":"25","size_leaf_vector":"1"}},{"base_weights":[-8.255903E-3,-5.150937E-1,1.6278972E-1,-9.5400053E-1,4.017845E-2,-1.9154686E-1,4.1813168E-1,-3.733125E-2,-1.18215084E-1,-5.633378E-2,4.2173564E-2,-8.565514E-2,1.690376E-2,-8.9988716E-2,7.158069E-1,-6.916257E-2,3.1258754E-2,-7.255521E-2,7.1838826E-2,-3.3844474E-3,8.224804E-2],"categories":[],"categories_nodes":[],"categories_segments":[],"categories_sizes":[],"default_left":[0,1,1,0,1,1,0,0,0,0,0,0,0,0,0,0,0,0,0,0,0],"id":40,"left_children":[1,3,5,7,9,11,13,-1,-1,-1,-1,-1,15,17,19,-1,-1,-1,-1,-1,-1],"loss_changes":[5.113417E0,3.6645272E0,4.073498E0,6.650195E-1,1.9711679E0,2.671992E0,3.9919171E0,0E0,0E0,0E0,0E0,0E0,3.4794958E0,5.9059334E0,1.3461447E0,0E0,0E0,0E0,0E0,0E0,0E0],"parents":[2147483647,0,0,1,1,2,2,3,3,4,4,5,5,6,6,12,12,13,13,14,14],"right_children":[2,4,6,8,10,12,14,-1,-1,-1,-1,-1,16,18,20,-1,-1,-1,-1,-1,-1],"split_conditions":[7.692308E-1,9.999999E-1,6.666667E-1,8.353402E-1,6.666667E-1,7.716553E-1,9.8169285E-1,-3.733125E-2,-1.18215084E-1,-5.633378E-2,4.2173564E-2,-8.565514E-2,8.6614895E-1,9.9432224E-1,6.923077E-1,-6.916257E-2,3.1258754E-2,-7.255521E-2,7.1838826E-2,-3.3844474E-3,8.224804E-2],"split_indices":[15,22,17,4,18,6,4,0,0,0,0,0,22,1,19,0,0,0,0,0,0],"split_type":[0,0,0,0,0,0,0,0,0,0,0,0,0,0,0,0,0,0,0,0,0],"sum_hessian":[5.701623E1,1.3878977E1,4.3137253E1,7.350669E0,6.528308E0,1.8171127E1,2.4966127E1,2.8170276E0,4.5336413E0,2.344132E0,4.1841755E0,3.5945542E0,1.4576572E1,9.480672E0,1.5485455E1,3.8976922E0,1.067888E1,5.365029E0,4.115643E0,2.0140915E0,1.3471363E1],"tree_param":{"num_deleted":"0","num_feature":"24","num_nodes":"21","size_leaf_vector":"1"}},{"base_weights":[-4.257274E-2,-3.8819346E-1,1.6551635E-1,-1.8427008E-1,-9.4507575E-2,-4.7459814E-1,3.1080672E-1,-8.07086E-1,3.167205E-1,-1.08836405E-1,-5.2975412E-2,-3.7621942E-1,4.4812506E-1,-1.0184574E-1,-1.4114151E-2,5.6947123E-2,-5.1823575E-2,-6.277169E-2,4.8839014E-2,1.6178349E-2,-7.118075E-2,2.422688E-3,7.071466E-2],"categories":[],"categories_nodes":[],"categories_segments":[],"categories_sizes":[],"default_left":[1,1,0,1,0,1,0,1,1,0,1,0,0,0,0,0,0,0,0,0,0,0,0],"id":41,"left_children":[1,3,5,7,-1,9,11,13,15,-1,17,19,21,-1,-1,-1,-1,-1,-1,-1,-1,-1,-1],"loss_changes":[4.4588456E0,2.4675536E0,3.7598772E0,5.95613E0,0E0,1.9041269E0,3.212108E0,1.0423512E0,2.5834055E0,0E0,2.031892E0,1.1835588E0,2.9851089E0,0E0,0E0,0E0,0E0,0E0,0E0,0E0,0E0,0E0,0E0],"parents":[2147483647,0,0,1,1,2,2,3,3,5,5,6,6,7,7,8,8,10,10,11,11,12,12],"right_children":[2,4,6,8,-1,10,12,14,16,-1,18,20,22,-1,-1,-1,-1,-1,-1,-1,-1,-1,-1],"split_conditions":[6.875E-1,1E0,6.5600187E-1,8.6875117E-1,-9.4507575E-2,9.9999994E-1,8.4084976E-1,7.692308E-1,6.111111E-1,-1.08836405E-1,9.9999994E-1,7.529353E-1,8.6614895E-1,-1.0184574E-1,-1.4114151E-2,5.6947123E-2,-5.1823575E-2,-6.277169E-2,4.8839014E-2,1.6178349E-2,-7.118075E-2,2.422688E-3,7.071466E-2],"split_indices":[16,7,0,8,0,21,5,15,16,0,8,5,22,0,0,0,0,0,0,0,0,0,0],"split_type":[0,0,0,0,0,0,0,0,0,0,0,0,0,0,0,0,0,0,0,0,0,0,0],"sum_hessian":[6.0103996E1,2.226235E1,3.784165E1,1.7269405E1,4.992945E0,6.5809617E0,3.1260685E1,7.4262905E0,9.843114E0,2.0358944E0,4.5450673E0,4.917561E0,2.6343124E1,5.235269E0,2.1910214E0,7.799945E0,2.0431693E0,2.1272078E0,2.4178598E0,2.0880249E0,2.8295364E0,1.0406324E1,1.5936799E1],"tree_param":{"num_deleted":"0","num_feature":"24","num_nodes":"23","size_leaf_vector":"1"}},{"base_weights":[4.663256E-3,-2.9601833E-1,2.0529933E-1,-9.8250076E-2,-4.6212938E-2,-2.2390957E-1,4.7543967E-1,-6.268549E-1,3.2923743E-1,-6.0840255E-1,1.9037323E-1,-4.6805568E-2,7.7926856E-1,-1.1106731E-1,-1.0782482E-2,-2.4578324E-2,6.769449E-2,-8.887149E-2,9.021407E-3,7.956033E-2,-2.223627E-2,-5.1953167E-2,6.50585E-2,9.693299E-2,1.5778232E-2],"categories":[],"categories_nodes":[],"categories_segments":[],"categories_sizes":[],"default_left":[0,0,0,0,1,1,1,1,1,1,1,1,0,0,0,0,0,0,0,0,0,0,0,0,0],"id":42,"left_children":[1,3,5,-1,7,9,11,13,15,17,19,21,23,-1,-1,-1,-1,-1,-1,-1,-1,-1,-1,-1,-1],"loss_changes":[3.4889054E0,3.9248636E0,4.12671E0,0E0,4.135724E0,2.357531E0,3.4638286E0,1.7441199E0,2.4860616E0,1.5562239E0,2.059371E0,3.2680893E0,1.4667568E0,0E0,0E0,0E0,0E0,0E0,0E0,0E0,0E0,0E0,0E0,0E0,0E0],"parents":[2147483647,0,0,1,1,2,2,4,4,5,5,6,6,7,7,8,8,9,9,10,10,11,11,12,12],"right_children":[2,4,6,-1,8,10,12,14,16,18,20,22,24,-1,-1,-1,-1,-1,-1,-1,-1,-1,-1,-1,-1],"split_conditions":[8.333333E-1,9.4006526E-1,9.960308E-1,-9.8250076E-2,8.143091E-1,8.5477394E-1,5.3333336E-1,9.927646E-1,9.695325E-1,1E0,4.2857143E-1,9.9999994E-1,1.0000002E0,-1.1106731E-1,-1.0782482E-2,-2.4578324E-2,6.769449E-2,-8.887149E-2,9.021407E-3,7.956033E-2,-2.223627E-2,-5.1953167E-2,6.50585E-2,9.693299E-2,1.5778232E-2],"split_indices":[11,4,3,0,7,7,18,9,6,8,19,9,8,0,0,0,0,0,0,0,0,0,0,0,0],"split_type":[0,0,0,0,0,0,0,0,0,0,0,0,0,0,0,0,0,0,0,0,0,0,0,0,0],"sum_hessian":[5.5825314E1,2.2152002E1,3.3673313E1,5.1276903E0,1.7024311E1,1.3073226E1,2.0600086E1,6.422371E0,1.060194E1,6.5373707E0,6.535856E0,7.8878207E0,1.2712266E1,2.7339735E0,3.6883974E0,4.1055408E0,6.4963994E0,4.471231E0,2.0661395E0,2.2738628E0,4.2619934E0,4.853149E0,3.0346715E0,9.306483E0,3.4057825E0],"tree_param":{"num_deleted":"0","num_feature":"24","num_nodes":"25","size_leaf_vector":"1"}},{"base_weights":[-9.7401455E-2,-8.6962976E-2,4.2585604E-2,-2.4892934E-1,3.3788934E-1,-7.7201456E-1,2.603797E-2,-1.19475946E-1,5.8273464E-1,-4.895032E-3,-9.9270105E-2,-5.3973794E-2,3.150752E-2,3.7954938E-2,-4.257893E-2,1.80082E-2,8.5791655E-2],"categories":[],"categories_nodes":[],"categories_segments":[],"categories_sizes":[],"default_left":[0,0,1,0,0,0,1,0,0,0,0,0,0,0,0,0,0],"id":43,"left_children":[1,-1,3,5,7,9,11,13,15,-1,-1,-1,-1,-1,-1,-1,-1],"loss_changes":[5.91311E0,0E0,4.127424E0,3.5025065E0,2.7300065E0,1.2877655E0,2.9234176E0,1.5546582E0,1.5788493E0,0E0,0E0,0E0,0E0,0E0,0E0,0E0,0E0],"parents":[2147483647,0,0,2,2,3,3,4,4,5,5,6,6,7,7,8,8],"right_children":[2,-1,4,6,8,10,12,14,16,-1,-1,-1,-1,-1,-1,-1,-1],"split_conditions":[7.1428573E-1,-8.6962976E-2,8.0928016E-1,9.9999976E-1,9.7078204E-1,5.808568E-1,9.95609E-1,9.9999994E-1,9.648159E-1,-4.895032E-3,-9.9270105E-2,-5.3973794E-2,3.150752E-2,3.7954938E-2,-4.257893E-2,1.80082E-2,8.5791655E-2],"split_indices":[10,0,22,5,3,7,4,0,1,0,0,0,0,0,0,0,0],"split_type":[0,0,0,0,0,0,0,0,0,0,0,0,0,0,0,0,0],"sum_hessian":[5.335679E1,7.3881865E0,4.59686E1,2.3211725E1,2.2756874E1,7.3747253E0,1.5837E1,8.113354E0,1.4643521E1,2.0102124E0,5.3645134E0,5.06167E0,1.0775331E1,2.995004E0,5.11835E0,6.616505E0,8.027016E0],"tree_param":{"num_deleted":"0","num_feature":"24","num_nodes":"17","size_leaf_vector":"1"}},{"base_weights":[-2.8894294E-2,-7.341575E-1,8.347753E-2,-3.0977681E-2,-9.329223E-2,-2.2521205E-1,3.231147E-1,-5.2483183E-1,1.9062868E-1,-1.9007297E-2,5.84176E-1,-8.537309E-2,-1.3635272E-2,-4.3029953E-2,7.4777626E-2,-6.60687E-2,1.9693164E-2,1.4444691E-2,8.3297834E-2],"categories":[],"categories_nodes":[],"categories_segments":[],"categories_sizes":[],"default_left":[0,0,1,0,0,1,1,0,1,1,1,0,0,0,0,0,0,0,0],"id":44,"left_children":[1,3,5,-1,-1,7,9,11,13,15,17,-1,-1,-1,-1,-1,-1,-1,-1],"loss_changes":[4.362499E0,3.487954E-1,3.6021733E0,0E0,0E0,2.7714577E0,2.4467924E0,1.5098972E0,3.681813E0,1.8997707E0,1.5753965E0,0E0,0E0,0E0,0E0,0E0,0E0,0E0,0E0],"parents":[2147483647,0,0,1,1,2,2,5,5,6,6,7,7,8,8,9,9,10,10],"right_children":[2,4,6,-1,-1,8,10,12,14,16,18,-1,-1,-1,-1,-1,-1,-1,-1],"split_conditions":[6.666667E-1,9.9999994E-1,7.895851E-1,-3.0977681E-2,-9.329223E-2,9.9999976E-1,8.80201E-1,1E0,9.9999994E-1,8.999865E-1,7.5E-1,-8.537309E-2,-1.3635272E-2,-4.3029953E-2,7.4777626E-2,-6.60687E-2,1.9693164E-2,1.4444691E-2,8.3297834E-2],"split_indices":[19,8,22,0,0,5,6,0,21,21,18,0,0,0,0,0,0,0,0],"split_type":[0,0,0,0,0,0,0,0,0,0,0,0,0,0,0,0,0,0,0],"sum_hessian":[5.3272823E1,6.561092E0,4.671173E1,2.9088805E0,3.6522114E0,2.0440899E1,2.627083E1,1.1728345E1,8.712555E0,1.1771464E1,1.4499367E1,5.702662E0,6.025683E0,4.2281036E0,4.484451E0,2.4453404E0,9.326124E0,5.8105197E0,8.688847E0],"tree_param":{"num_deleted":"0","num_feature":"24","num_nodes":"19","size_leaf_vector":"1"}},{"base_weights":[-1.5545203E-2,-6.4455634E-1,1.2814635E-1,-1.0903541E-1,-2.4705604E-1,-5.4450476E-1,2.4531767E-1,-8.16321E-2,1.742942E-2,1.62587E-2,-8.8615045E-2,-2.3393564E-1,4.3645725E-1,-8.22535E-2,-6.842754E-5,9.903105E-3,7.845943E-2],"categories":[],"categories_nodes":[],"categories_segments":[],"categories_sizes":[],"default_left":[0,1,1,0,1,0,0,0,0,0,0,0,0,0,0,0,0],"id":45,"left_children":[1,3,5,-1,7,9,11,-1,-1,-1,-1,13,15,-1,-1,-1,-1],"loss_changes":[4.9924836E0,1.5501032E0,3.6846106E0,0E0,1.7543383E0,1.8337922E0,3.6802104E0,0E0,0E0,0E0,0E0,1.6178043E0,3.2435079E0,0E0,0E0,0E0,0E0],"parents":[2147483647,0,0,1,1,2,2,4,4,5,5,6,6,11,11,12,12],"right_children":[2,4,6,-1,8,10,12,-1,-1,-1,-1,14,16,-1,-1,-1,-1],"split_conditions":[9.576248E-1,9.9999994E-1,6.178591E-1,-1.0903541E-1,7.2727275E-1,1E0,9.960308E-1,-8.16321E-2,1.742942E-2,1.62587E-2,-8.8615045E-2,1E0,8.333333E-1,-8.22535E-2,-6.842754E-5,9.903105E-3,7.845943E-2],"split_indices":[0,21,21,0,17,9,3,0,0,0,0,11,11,0,0,0,0],"split_type":[0,0,0,0,0,0,0,0,0,0,0,0,0,0,0,0,0],"sum_hessian":[5.3322754E1,9.267684E0,4.405507E1,3.5468526E0,5.720832E0,5.9945836E0,3.8060486E1,2.0345976E0,3.6862345E0,2.1235843E0,3.8709993E0,1.0787807E1,2.7272678E1,2.3446925E0,8.443115E0,1.4501648E1,1.277103E1],"tree_param":{"num_deleted":"0","num_feature":"24","num_nodes":"17","size_leaf_vector":"1"}},{"base_weights":[4.5975443E-2,-7.3754954E-1,1.7012575E-1,-9.5777705E-2,-1.3831871E-2,-6.399621E-1,2.7714053E-1,-8.3938114E-2,-2.2975555E-2,-4.4061095E-1,3.9931825E-1,-7.235528E-2,4.1987957E-3,5.4469753E-2,1.243408E-3],"categories":[],"categories_nodes":[],"categories_segments":[],"categories_sizes":[],"default_left":[0,0,1,0,0,1,0,0,0,1,1,0,0,0,0],"id":46,"left_children":[1,3,5,-1,-1,7,9,-1,-1,11,13,-1,-1,-1,-1],"loss_changes":[5.164141E0,8.2722616E-1,4.1240635E0,0E0,0E0,2.6643157E-1,3.7635972E0,0E0,0E0,9.078983E-1,1.9890747E0,0E0,0E0,0E0,0E0],"parents":[2147483647,0,0,1,1,2,2,5,5,6,6,9,9,10,10],"right_children":[2,4,6,-1,-1,8,10,-1,-1,12,14,-1,-1,-1,-1],"split_conditions":[8.6875117E-1,1.0000001E0,6.757184E-1,-9.5777705E-2,-1.3831871E-2,9.834526E-1,6.666667E-1,-8.3938114E-2,-2.2975555E-2,6.666667E-1,1E0,-7.235528E-2,4.1987957E-3,5.4469753E-2,1.243408E-3],"split_indices":[8,0,21,0,0,6,19,0,0,14,7,0,0,0,0],"split_type":[0,0,0,0,0,0,0,0,0,0,0,0,0,0,0],"sum_hessian":[5.079822E1,6.2723045E0,4.4525917E1,4.149097E0,2.1232076E0,4.6145153E0,3.9911404E1,2.4010308E0,2.2134845E0,5.4264708E0,3.4484932E1,3.1061118E0,2.320359E0,2.476943E1,9.715503E0],"tree_param":{"num_deleted":"0","num_feature":"24","num_nodes":"15","size_leaf_vector":"1"}},{"base_weights":[-3.1215096E-2,-5.184821E-1,8.822104E-2,1.1822104E-3,-6.5029633E-1,-2.1336076E-1,3.2880566E-1,-8.951634E-2,-1.1731648E-2,-7.0250994E-1,1.4940869E-2,-6.485237E-2,6.229014E-1,2.0257153E-3,-1.0611123E-1,-4.197236E-2,3.7480142E-2,-6.7768596E-2,3.8111683E-2,9.138285E-2,5.8422484E-3],"categories":[],"categories_nodes":[],"categories_segments":[],"categories_sizes":[],"default_left":[0,1,1,0,0,0,0,0,0,0,1,0,1,0,0,0,0,0,0,0,0],"id":47,"left_children":[1,3,5,-1,7,9,11,-1,-1,13,15,17,19,-1,-1,-1,-1,-1,-1,-1,-1],"loss_changes":[3.2046864E0,7.647929E-1,3.295188E0,0E0,1.0294511E0,2.2808795E0,2.948432E0,0E0,0E0,1.7036767E0,2.4786093E0,3.441398E0,2.323173E0,0E0,0E0,0E0,0E0,0E0,0E0,0E0,0E0],"parents":[2147483647,0,0,1,1,2,2,4,4,5,5,6,6,9,9,10,10,11,11,12,12],"right_children":[2,4,6,-1,8,10,12,-1,-1,14,16,18,20,-1,-1,-1,-1,-1,-1,-1,-1],"split_conditions":[7.812269E-1,4.4864047E-1,8.143091E-1,1.1822104E-3,1E0,9.4039047E-1,9.0909094E-1,-8.951634E-2,-1.1731648E-2,8.893098E-1,8.6940676E-1,1E0,1.0000002E0,2.0257153E-3,-1.0611123E-1,-4.197236E-2,3.7480142E-2,-6.7768596E-2,3.8111683E-2,9.138285E-2,5.8422484E-3],"split_indices":[9,7,7,0,1,1,14,0,0,21,6,11,8,0,0,0,0,0,0,0,0],"split_type":[0,0,0,0,0,0,0,0,0,0,0,0,0,0,0,0,0,0,0,0,0],"sum_hessian":[5.3279934E1,9.831008E0,4.3448925E1,2.1383765E0,7.6926317E0,1.9330536E1,2.4118391E1,4.8053594E0,2.8872724E0,5.49025E0,1.3840286E1,1.0646774E1,1.3471617E1,2.1335554E0,3.3566947E0,6.1932726E0,7.6470137E0,4.2655883E0,6.381186E0,8.4814625E0,4.9901543E0],"tree_param":{"num_deleted":"0","num_feature":"24","num_nodes":"21","size_leaf_vector":"1"}},{"base_weights":[-2.2503987E-2,-6.29177E-1,9.686553E-2,-9.6012905E-2,-2.5011784E-1,-5.8737236E-1,2.2671446E-1,-5.7440646E-2,1.995041E-2,-9.074192E-2,-2.0599172E-2,-7.7545516E-2,4.4301543E-1,3.2036196E-2,-6.6343695E-2,4.372E-3,7.044386E-2],"categories":[],"categories_nodes":[],"categories_segments":[],"categories_sizes":[],"default_left":[0,0,0,0,1,1,1,0,0,0,0,0,1,0,0,0,0],"id":48,"left_children":[1,3,5,-1,7,9,11,-1,-1,-1,-1,13,15,-1,-1,-1,-1],"loss_changes":[3.9081984E0,8.723283E-1,4.1541944E0,0E0,9.1446143E-1,7.281842E-1,2.5852442E0,0E0,0E0,0E0,0E0,4.165637E0,2.3495827E0,0E0,0E0,0E0,0E0],"parents":[2147483647,0,0,1,1,2,2,4,4,5,5,6,6,11,11,12,12],"right_children":[2,4,6,-1,8,10,12,-1,-1,-1,-1,14,16,-1,-1,-1,-1],"split_conditions":[7.688192E-1,9.7078204E-1,7.6158565E-1,-9.6012905E-2,8.689128E-1,7.2727275E-1,6.890176E-1,-5.7440646E-2,1.995041E-2,-9.074192E-2,-2.0599172E-2,1.0000001E0,6.875E-1,3.2036196E-2,-6.6343695E-2,4.372E-3,7.044386E-2],"split_indices":[9,3,0,0,22,17,7,0,0,0,0,9,16,0,0,0,0],"split_type":[0,0,0,0,0,0,0,0,0,0,0,0,0,0,0,0,0],"sum_hessian":[5.2125454E1,7.867835E0,4.425762E1,3.3820665E0,4.485769E0,6.497196E0,3.7760426E1,2.4448762E0,2.0408926E0,2.7827058E0,3.7144902E0,1.5956579E1,2.1803844E1,9.772681E0,6.1838984E0,9.088851E0,1.2714994E1],"tree_param":{"num_deleted":"0","num_feature":"24","num_nodes":"17","size_leaf_vector":"1"}},{"base_weights":[-7.423373E-2,-1.2910289E-1,8.013417E-2,-3.7557733E-1,1.0530157E-1,-6.8974787E-1,-7.1994685E-2,-6.96505E-2,2.0722285E-1,-1.0402011E-1,-3.1421497E-2,4.1590683E-2,-4.547071E-2,-2.7280493E-2,4.0027514E-2],"categories":[],"categories_nodes":[],"categories_segments":[],"categories_sizes":[],"default_left":[1,1,0,1,0,1,0,0,0,0,0,0,0,0,0],"id":49,"left_children":[1,3,-1,5,7,9,11,-1,13,-1,-1,-1,-1,-1,-1],"loss_changes":[2.5583637E0,2.8674483E0,0E0,2.2468417E0,2.258361E0,1.2150865E0,2.684146E0,0E0,2.3075314E0,0E0,0E0,0E0,0E0,0E0,0E0],"parents":[2147483647,0,0,1,1,3,3,4,4,5,5,6,6,8,8],"right_children":[2,4,-1,6,8,10,12,-1,14,-1,-1,-1,-1,-1,-1],"split_conditions":[9.4705635E-1,6.666667E-1,8.013417E-2,8.501541E-1,9.9999976E-1,8.689128E-1,1E0,-6.96505E-2,9.960308E-1,-1.0402011E-1,-3.1421497E-2,4.1590683E-2,-4.547071E-2,-2.7280493E-2,4.0027514E-2],"split_indices":[2,19,0,7,8,22,7,0,3,0,0,0,0,0,0],"split_type":[0,0,0,0,0,0,0,0,0,0,0,0,0,0,0],"sum_hessian":[5.0099133E1,4.7947014E1,2.1521156E0,2.3078203E1,2.4868813E1,1.0716216E1,1.2361987E1,2.1467497E0,2.2722063E1,4.627669E0,6.0885468E0,5.3960676E0,6.9659195E0,6.3986354E0,1.6323427E1],"tree_param":{"num_deleted":"0","num_feature":"24","num_nodes":"15","size_leaf_vector":"1"}},{"base_weights":[1.9576367E-2,-1.8782528E-1,3.252801E-1,-1.0763758E-1,-2.031084E-2,-6.585795E-2,5.515115E-1,-6.888855E-1,2.1656322E-1,-4.903642E-3,8.964321E-2,-2.2056911E-2,-9.017978E-2,-6.2254127E-2,3.489038E-2,4.0924337E-2,-7.379045E-2],"categories":[],"categories_nodes":[],"categories_segments":[],"categories_sizes":[],"default_left":[1,0,0,0,0,0,1,1,0,0,0,0,0,0,0,0,0],"id":50,"left_children":[1,3,5,-1,7,-1,9,11,13,15,-1,-1,-1,-1,-1,-1,-1],"loss_changes":[3.2080753E0,4.4740868E0,4.9102173E0,0E0,4.3354154E0,0E0,3.2965083E0,5.144634E-1,2.469152E0,2.5966291E0,0E0,0E0,0E0,0E0,0E0,0E0,0E0],"parents":[2147483647,0,0,1,1,2,2,4,4,6,6,7,7,8,8,9,9],"right_children":[2,4,6,-1,8,-1,10,12,14,16,-1,-1,-1,-1,-1,-1,-1],"split_conditions":[9.822893E-1,7.895851E-1,9.8117924E-1,-1.0763758E-1,8E-1,-6.585795E-2,9.9999994E-1,5.714286E-1,8.806533E-1,9.189165E-1,8.964321E-2,-2.2056911E-2,-9.017978E-2,-6.2254127E-2,3.489038E-2,4.0924337E-2,-7.379045E-2],"split_indices":[6,22,5,0,19,0,21,14,8,1,0,0,0,0,0,0,0],"split_type":[0,0,0,0,0,0,0,0,0,0,0,0,0,0,0,0,0],"sum_hessian":[4.863419E1,2.9205564E1,1.9428627E1,3.7720146E0,2.543355E1,3.274975E0,1.615365E1,6.1544476E0,1.9279102E1,6.558869E0,9.594782E0,2.5598433E0,3.5946045E0,2.1217945E0,1.7157309E1,4.4731936E0,2.0856757E0],"tree_param":{"num_deleted":"0","num_feature":"24","num_nodes":"17","size_leaf_vector":"1"}},{"base_weights":[-7.63208E-2,-5.657826E-1,2.7314793E-2,-1.0242627E-1,-2.0517282E-1,5.271367E-1,-1.1451441E-1,-7.804268E-2,3.0345848E-2,-1.8839976E-2,8.3739124E-2,-6.7478764E-1,8.260007E-2,-9.740391E-2,-9.120445E-3,-3.720863E-2,4.2424645E-2],"categories":[],"categories_nodes":[],"categories_segments":[],"categories_sizes":[],"default_left":[0,1,0,0,1,1,0,0,0,0,0,1,0,0,0,0,0],"id":51,"left_children":[1,3,5,-1,7,9,11,-1,-1,-1,-1,13,15,-1,-1,-1,-1],"loss_changes":[2.4910505E0,1.2073786E0,2.983119E0,0E0,2.0068996E0,2.2205334E0,3.693342E0,0E0,0E0,0E0,0E0,1.4272592E0,4.08127E0,0E0,0E0,0E0,0E0],"parents":[2147483647,0,0,1,1,2,2,4,4,5,5,6,6,11,11,12,12],"right_children":[2,4,6,-1,8,10,12,-1,-1,-1,-1,14,16,-1,-1,-1,-1],"split_conditions":[9.576248E-1,9.9999994E-1,9.999999E-1,-1.0242627E-1,9.5211107E-1,8.267017E-1,8.016936E-1,-7.804268E-2,3.0345848E-2,-1.8839976E-2,8.3739124E-2,1.0000001E0,8.6940676E-1,-9.740391E-2,-9.120445E-3,-3.720863E-2,4.2424645E-2],"split_indices":[0,21,0,0,4,4,22,0,0,0,0,5,6,0,0,0,0],"split_type":[0,0,0,0,0,0,0,0,0,0,0,0,0,0,0,0,0],"sum_hessian":[4.7803623E1,7.5738144E0,4.022981E1,2.5241904E0,5.049624E0,8.291819E0,3.1937992E1,2.1188605E0,2.9307637E0,2.6266842E0,5.6651344E0,7.6813602E0,2.4256632E1,4.6353607E0,3.0459993E0,1.0368467E1,1.38881645E1],"tree_param":{"num_deleted":"0","num_feature":"24","num_nodes":"17","size_leaf_vector":"1"}},{"base_weights":[-6.13539E-2,-6.2556106E-1,6.401042E-2,-1.0072651E-1,-3.353697E-1,-4.05617E-1,2.779606E-1,-7.983102E-2,2.7760705E-2,-8.3629787E-1,1.5734592E-1,-2.0142582E-1,4.9043205E-1,-2.449133E-2,-1.08487666E-1,5.8329906E-2,-2.0401789E-2,-6.1539967E-2,3.5523597E-2,-1.9434594E-3,7.9697214E-2],"categories":[],"categories_nodes":[],"categories_segments":[],"categories_sizes":[],"default_left":[0,1,0,0,1,1,0,0,0,0,0,1,1,0,0,0,0,0,0,0,0],"id":52,"left_children":[1,3,5,-1,7,9,11,-1,-1,13,15,17,19,-1,-1,-1,-1,-1,-1,-1,-1],"loss_changes":[3.5139916E0,6.615226E-1,4.2416167E0,0E0,2.1014552E0,3.3485312E0,3.0347493E0,0E0,0E0,8.626518E-1,1.1337491E0,2.4218812E0,3.182592E0,0E0,0E0,0E0,0E0,0E0,0E0,0E0,0E0],"parents":[2147483647,0,0,1,1,2,2,4,4,5,5,6,6,9,9,10,10,11,11,12,12],"right_children":[2,4,6,-1,8,10,12,-1,-1,14,16,18,20,-1,-1,-1,-1,-1,-1,-1,-1],"split_conditions":[1E0,9.9999994E-1,8.689128E-1,-1.0072651E-1,9.9999994E-1,9.9999994E-1,9.230769E-1,-7.983102E-2,2.7760705E-2,9.9999994E-1,9.9999994E-1,7.818025E-1,8.930763E-1,-2.449133E-2,-1.08487666E-1,5.8329906E-2,-2.0401789E-2,-6.1539967E-2,3.5523597E-2,-1.9434594E-3,7.9697214E-2],"split_indices":[10,21,22,0,4,7,13,0,0,0,0,6,21,0,0,0,0,0,0,0,0],"split_type":[0,0,0,0,0,0,0,0,0,0,0,0,0,0,0,0,0,0,0,0,0],"sum_hessian":[4.8114635E1,8.021883E0,4.009275E1,2.3974082E0,5.6244745E0,1.2268079E1,2.7824673E1,3.0321467E0,2.5923278E0,6.67557E0,5.5925093E0,8.560999E0,1.9263674E1,2.5630844E0,4.1124854E0,2.2849696E0,3.3075397E0,4.849238E0,3.7117608E0,7.5846925E0,1.1678981E1],"tree_param":{"num_deleted":"0","num_feature":"24","num_nodes":"21","size_leaf_vector":"1"}},{"base_weights":[4.5731314E-2,-5.1773757E-1,1.679161E-1,-7.486698E-2,-1.1209645E-2,-1.0345392E-1,5.1085484E-1,-4.0486845E-1,2.7182266E-1,2.7472E-1,8.4395245E-2,-7.4397616E-2,-1.17414715E-2,5.8152862E-2,-3.283344E-2,-3.2816608E-2,5.8831263E-2],"categories":[],"categories_nodes":[],"categories_segments":[],"categories_sizes":[],"default_left":[0,1,1,0,0,1,1,1,0,1,0,0,0,0,0,0,0],"id":53,"left_children":[1,3,5,-1,-1,7,9,11,13,15,-1,-1,-1,-1,-1,-1,-1],"loss_changes":[3.150338E0,6.817901E-1,3.5261097E0,0E0,0E0,2.5608172E0,1.0781732E0,1.1230607E0,2.095945E0,2.3159666E0,0E0,0E0,0E0,0E0,0E0,0E0,0E0],"parents":[2147483647,0,0,1,1,2,2,5,5,6,6,7,7,8,8,9,9],"right_children":[2,4,6,-1,-1,8,10,12,14,16,-1,-1,-1,-1,-1,-1,-1],"split_conditions":[7.1428573E-1,7.894737E-1,9.999998E-1,-7.486698E-2,-1.1209645E-2,9.822893E-1,6.666667E-1,8.5477394E-1,1.0000001E0,8.6875117E-1,8.4395245E-2,-7.4397616E-2,-1.17414715E-2,5.8152862E-2,-3.283344E-2,-3.2816608E-2,5.8831263E-2],"split_indices":[10,15,22,0,0,6,15,7,9,8,0,0,0,0,0,0,0],"split_type":[0,0,0,0,0,0,0,0,0,0,0,0,0,0,0,0,0],"sum_hessian":[4.3495575E1,7.1740956E0,3.632148E1,4.032653E0,3.1414425E0,2.0666363E1,1.5655118E1,1.1417336E1,9.249026E0,1.0228685E1,5.426432E0,4.5094275E0,6.9079084E0,6.1212473E0,3.1277783E0,3.48406E0,6.7446256E0],"tree_param":{"num_deleted":"0","num_feature":"24","num_nodes":"17","size_leaf_vector":"1"}},{"base_weights":[-5.879927E-2,3.315602E-2,-6.13182E-1,-2.7284855E-1,2.523885E-1,6.147755E-3,-9.276225E-2,-8.3826914E-2,-1.2699139E-1,-1.1150447E-1,5.798496E-1,-5.1392604E-2,1.7802266E-2,1.7468473E-2,-7.312667E-2,-5.153412E-3,7.400717E-2],"categories":[],"categories_nodes":[],"categories_segments":[],"categories_sizes":[],"default_left":[0,1,1,0,1,0,0,0,0,0,0,0,0,0,0,0,0],"id":54,"left_children":[1,3,5,7,9,-1,-1,-1,11,13,15,-1,-1,-1,-1,-1,-1],"loss_changes":[2.351788E0,2.7641327E0,1.4482346E0,1.3161632E0,2.9157286E0,0E0,0E0,0E0,1.8489538E0,2.2865796E0,1.3284383E0,0E0,0E0,0E0,0E0,0E0,0E0],"parents":[2147483647,0,0,1,1,2,2,3,3,4,4,8,8,9,9,10,10],"right_children":[2,4,6,8,10,-1,-1,-1,12,14,16,-1,-1,-1,-1,-1,-1],"split_conditions":[1E0,6.4285713E-1,6.676639E-1,8.328912E-1,7.2664386E-1,6.147755E-3,-9.276225E-2,-8.3826914E-2,9.648159E-1,9.1308427E-1,8.6364293E-1,-5.1392604E-2,1.7802266E-2,1.7468473E-2,-7.312667E-2,-5.153412E-3,7.400717E-2],"split_indices":[23,17,4,0,22,0,0,0,1,1,21,0,0,0,0,0,0],"split_type":[0,0,0,0,0,0,0,0,0,0,0,0,0,0,0,0,0],"sum_hessian":[4.4734196E1,3.917624E1,5.5579576E0,1.6249973E1,2.2926266E1,2.0226564E0,3.535301E0,2.3588014E0,1.3891172E1,1.1171434E1,1.1754831E1,5.8213725E0,8.0698E0,8.133671E0,3.0377638E0,2.5164943E0,9.238337E0],"tree_param":{"num_deleted":"0","num_feature":"24","num_nodes":"17","size_leaf_vector":"1"}},{"base_weights":[2.4663439E-2,-6.2825784E-2,9.907334E-2,-4.225696E-1,1.9795083E-1,-2.5557184E-3,-6.9737904E-2,-2.990467E-1,2.878743E-1,-5.85585E-2,8.424274E-3,-7.309083E-3,5.275491E-2],"categories":[],"categories_nodes":[],"categories_segments":[],"categories_sizes":[],"default_left":[0,0,1,0,0,0,0,1,0,0,0,0,0],"id":55,"left_children":[1,-1,3,5,7,-1,-1,9,11,-1,-1,-1,-1],"loss_changes":[2.187295E0,0E0,2.1534443E0,7.146257E-1,1.6241759E0,0E0,0E0,6.8230397E-1,2.60389E0,0E0,0E0,0E0,0E0],"parents":[2147483647,0,0,2,2,3,3,4,4,7,7,8,8],"right_children":[2,-1,4,6,8,-1,-1,10,12,-1,-1,-1,-1],"split_conditions":[6.1538464E-1,-6.2825784E-2,4.7058824E-1,9.698118E-1,9.576248E-1,-2.5557184E-3,-6.9737904E-2,9.9999994E-1,9E-1,-5.85585E-2,8.424274E-3,-7.309083E-3,5.275491E-2],"split_indices":[11,0,16,1,0,0,0,4,11,0,0,0,0],"split_type":[0,0,0,0,0,0,0,0,0,0,0,0,0],"sum_hessian":[4.273991E1,3.6110437E0,3.9128864E1,5.713385E0,3.341548E1,2.784159E0,2.9292262E0,4.763355E0,2.8652126E1,2.4236798E0,2.339675E0,1.171047E1,1.6941656E1],"tree_param":{"num_deleted":"0","num_feature":"24","num_nodes":"13","size_leaf_vector":"1"}},{"base_weights":[-7.8804076E-2,-2.9070568E-1,1.7190288E-1,-8.085292E-2,-3.6755215E-2,-2.2907989E-1,5.1984465E-1,5.6203014E-1,-2.668508E-1,2.9306802E-1,-6.5186304E-1,-1.5645279E-2,7.069138E-1,8.065944E-2,1.4548383E-2,2.9383833E-2,-4.5546405E-2,4.589185E-2,3.3083067E-3,3.3037027E-3,-1.0125462E-1,8.970996E-2,1.8747587E-2],"categories":[],"categories_nodes":[],"categories_segments":[],"categories_sizes":[],"default_left":[1,0,1,0,0,0,0,0,1,1,0,0,0,0,0,0,0,0,0,0,0,0,0],"id":56,"left_children":[1,3,5,-1,7,9,11,13,15,17,19,-1,21,-1,-1,-1,-1,-1,-1,-1,-1,-1,-1],"loss_changes":[2.422676E0,3.2020717E0,3.0610342E0,0E0,2.566187E0,2.5069022E0,1.5776327E0,4.113884E-1,1.5453038E0,2.1695071E-1,1.5420847E0,0E0,7.4705076E-1,0E0,0E0,0E0,0E0,0E0,0E0,0E0,0E0,0E0,0E0],"parents":[2147483647,0,0,1,1,2,2,4,4,5,5,6,6,7,7,8,8,9,9,10,10,12,12],"right_children":[2,4,6,-1,8,10,12,14,16,18,20,-1,22,-1,-1,-1,-1,-1,-1,-1,-1,-1,-1],"split_conditions":[9.838295E-1,9.470631E-1,7.1428573E-1,-8.085292E-2,7.785795E-1,1E0,5E-1,7.172456E-1,4.9975055E-1,7.9064554E-1,9.9999994E-1,-1.5645279E-2,1.0000001E0,8.065944E-2,1.4548383E-2,2.9383833E-2,-4.5546405E-2,4.589185E-2,3.3083067E-3,3.3037027E-3,-1.0125462E-1,8.970996E-2,1.8747587E-2],"split_indices":[4,1,17,0,5,9,10,6,7,22,21,0,6,0,0,0,0,0,0,0,0,0,0],"split_type":[0,0,0,0,0,0,0,0,0,0,0,0,0,0,0,0,0,0,0,0,0,0,0],"sum_hessian":[4.366247E1,2.357606E1,2.0086412E1,7.0390716E0,1.6536987E1,9.490627E0,1.0595785E1,4.1901712E0,1.2346816E1,4.383592E0,5.107035E0,2.331294E0,8.264491E0,2.0501144E0,2.140057E0,2.9674907E0,9.379325E0,2.2091503E0,2.1744418E0,2.075079E0,3.0319564E0,5.5173316E0,2.74716E0],"tree_param":{"num_deleted":"0","num_feature":"24","num_nodes":"23","size_leaf_vector":"1"}},{"base_weights":[-7.017187E-2,-3.8195825E-1,1.7703567E-1,-9.3694754E-2,-1.0767063E-2,-5.7940472E-2,3.098881E-1,-7.9544164E-2,2.0356677E-1,-4.4651877E-2,4.8208126E-1,-3.1797435E-2,4.2380814E-2,1.8979453E-3,6.921697E-2],"categories":[],"categories_nodes":[],"categories_segments":[],"categories_sizes":[],"default_left":[0,1,0,0,0,0,0,0,0,0,0,0,0,0,0],"id":57,"left_children":[1,3,5,-1,7,-1,9,-1,11,-1,13,-1,-1,-1,-1],"loss_changes":[3.514504E0,4.1293774E0,2.7549162E0,0E0,2.3570921E0,0E0,3.1393197E0,0E0,1.4038116E0,0E0,1.8128285E0,0E0,0E0,0E0,0E0],"parents":[2147483647,0,0,1,1,2,2,4,4,6,6,8,8,10,10],"right_children":[2,4,6,-1,8,-1,10,-1,12,-1,14,-1,-1,-1,-1],"split_conditions":[1E0,9.9521846E-1,6.875E-1,-9.3694754E-2,8.2022154E-1,-5.7940472E-2,8.6473143E-1,-7.9544164E-2,6.781342E-1,-4.4651877E-2,9.576248E-1,-3.1797435E-2,4.2380814E-2,1.8979453E-3,6.921697E-2],"split_indices":[11,4,13,0,7,0,8,0,22,0,0,0,0,0,0],"split_type":[0,0,0,0,0,0,0,0,0,0,0,0,0,0,0],"sum_hessian":[4.372062E1,1.9093798E1,2.4626822E1,7.041492E0,1.2052305E1,3.1768844E0,2.1449938E1,2.0040963E0,1.0048208E1,3.68211E0,1.7767828E1,2.8516424E0,7.196566E0,5.8852344E0,1.1882593E1],"tree_param":{"num_deleted":"0","num_feature":"24","num_nodes":"15","size_leaf_vector":"1"}},{"base_weights":[-4.4042617E-3,-2.7140582E-1,2.0291652E-1,-6.125038E-1,1.1654156E-1,-4.7999927E-1,3.965126E-1,-9.521433E-2,-2.4327664E-1,-1.6926236E-1,4.661647E-2,-9.450077E-3,-7.6873E-2,-3.0423164E-2,4.9282035E-1,-7.80655E-2,3.7832424E-2,-5.1181305E-2,1.9404618E-2,-7.1827234E-3,5.698208E-2],"categories":[],"categories_nodes":[],"categories_segments":[],"categories_sizes":[],"default_left":[1,1,0,1,1,0,0,0,0,0,0,0,0,0,0,0,0,0,0,0,0],"id":58,"left_children":[1,3,5,7,9,11,13,-1,15,17,-1,-1,-1,-1,19,-1,-1,-1,-1,-1,-1],"loss_changes":[2.4543753E0,2.634966E0,3.4917378E0,1.0811954E0,1.0685629E0,5.91596E-1,1.4998941E0,0E0,2.4195027E0,8.68807E-1,0E0,0E0,0E0,0E0,8.221412E-1,0E0,0E0,0E0,0E0,0E0,0E0],"parents":[2147483647,0,0,1,1,2,2,3,3,4,4,5,5,6,6,8,8,9,9,14,14],"right_children":[2,4,6,8,10,12,14,-1,16,18,-1,-1,-1,-1,20,-1,-1,-1,-1,-1,-1],"split_conditions":[8.05797E-1,9.822893E-1,6.25E-1,8.5477394E-1,1E0,1E0,5.907244E-1,-9.521433E-2,8.888889E-1,1.0000001E0,4.661647E-2,-9.450077E-3,-7.6873E-2,-3.0423164E-2,6.923077E-1,-7.80655E-2,3.7832424E-2,-5.1181305E-2,1.9404618E-2,-7.1827234E-3,5.698208E-2],"split_indices":[22,6,10,7,21,22,7,0,11,5,0,0,0,0,11,0,0,0,0,0,0],"split_type":[0,0,0,0,0,0,0,0,0,0,0,0,0,0,0,0,0,0,0,0,0],"sum_hessian":[4.234394E1,1.8372936E1,2.3971004E1,9.468787E0,8.904149E0,4.967747E0,1.9003258E1,4.1096835E0,5.3591037E0,5.1830606E0,3.7210882E0,2.6957786E0,2.2719688E0,2.0352967E0,1.696796E1,2.7370374E0,2.6220663E0,2.4573538E0,2.725707E0,2.0442886E0,1.4923673E1],"tree_param":{"num_deleted":"0","num_feature":"24","num_nodes":"21","size_leaf_vector":"1"}},{"base_weights":[7.1552554E-3,-4.879468E-1,1.0274278E-1,-7.4681826E-2,-5.973683E-3,5.1577246E-1,-2.8625581E-2,-4.808499E-4,9.030307E-2,-2.2062825E-1,2.3703168E-1,-7.803241E-2,5.968036E-3,-4.463737E-2,5.1158942E-2],"categories":[],"categories_nodes":[],"categories_segments":[],"categories_sizes":[],"default_left":[0,1,0,0,0,1,1,0,0,0,0,0,0,0,0],"id":59,"left_children":[1,3,5,-1,-1,7,9,-1,-1,11,13,-1,-1,-1,-1],"loss_changes":[2.1277907E0,7.62187E-1,2.0561602E0,0E0,0E0,1.8452263E0,1.5565786E0,0E0,0E0,2.813589E0,2.640359E0,0E0,0E0,0E0,0E0],"parents":[2147483647,0,0,1,1,2,2,5,5,6,6,9,9,10,10],"right_children":[2,4,6,-1,-1,8,10,-1,-1,12,14,-1,-1,-1,-1],"split_conditions":[9.224713E-1,7.894737E-1,9.999999E-1,-7.4681826E-2,-5.973683E-3,6.666667E-1,9.9521846E-1,-4.808499E-4,9.030307E-2,1E0,9.9999976E-1,-7.803241E-2,5.968036E-3,-4.463737E-2,5.1158942E-2],"split_indices":[0,15,0,0,0,15,4,0,0,11,5,0,0,0,0],"split_type":[0,0,0,0,0,0,0,0,0,0,0,0,0,0,0],"sum_hessian":[4.2901363E1,6.2782145E0,3.662315E1,3.4490614E0,2.829153E0,8.131402E0,2.8491747E1,3.8898983E0,4.2415032E0,1.6636957E1,1.185479E1,4.956482E0,1.1680476E1,3.2182953E0,8.636495E0],"tree_param":{"num_deleted":"0","num_feature":"24","num_nodes":"15","size_leaf_vector":"1"}},{"base_weights":[-5.3025987E-2,-3.4701163E-1,1.5875736E-1,1.0133447E-1,-5.1674616E-1,3.5500336E-1,-2.4450207E-1,-4.0660962E-2,6.202225E-2,2.77892E-2,-7.007759E-1,9.48349E-2,7.388314E-2,-5.981534E-1,4.4924825E-2,-9.572559E-2,-2.3223918E-2,-4.3284923E-2,3.9197672E-2,-2.3587136E-2,-8.051869E-2],"categories":[],"categories_nodes":[],"categories_segments":[],"categories_sizes":[],"default_left":[1,0,0,1,0,1,1,0,0,0,0,0,0,1,0,0,0,0,0,0,0],"id":60,"left_children":[1,3,5,7,9,11,13,-1,-1,-1,15,17,-1,19,-1,-1,-1,-1,-1,-1,